320 200
02 0.012621 0.11521 -0.067651 -0.37723 0.59248 0.25941 -0.32332 -0.2374 -0.38874 0.51471 0.33692 0.20559 -0.054774 0.051939 -0.97678 -0.069397 -0.16122 0.14279 0.31505 -0.0090141 -0.82321 0.19274 -0.25901 -0.31829 -0.0030709 -0.070088 0.00044926 0.37072 -0.42704 0.064028 -0.063805 -0.24847 -0.097816 0.13754 -0.82893 0.028242 0.92955 -0.28927 0.25325 0.86267 -0.069405 -0.65224 0.41934 -0.38384 0.024376 -0.016043 -0.041226 0.022338 0.045997 0.034559 -0.30474 -0.12193 -0.071083 -0.053683 -0.29219 -0.33211 -0.30812 -0.34076 0.17075 -0.25637 -0.045965 0.80691 -0.10194 0.062939 0.43786 0.084839 0.039566 -0.11717 0.13138 0.55259 0.034457 0.10073 -0.2906 0.41875 0.067658 0.021264 0.7205 -0.41107 0.039767 -0.43367 -0.26317 0.3689 0.18725 -0.082781 -0.47695 -0.25919 -0.31938 0.067557 -0.62792 -0.50936 0.73424 0.0093661 0.42643 0.13684 -0.35107 -0.34263 0.069002 0.36783 -0.28956 0.034023 0.040012 0.48305 0.65209 0.4801 0.93762 0.26872 -0.046272 -0.22749 0.34915 -0.21337 -0.66477 -0.50415 -0.16022 -0.095866 0.16034 -0.39875 -0.19307 0.23883 0.17388 0.022867 -0.26428 0.20353 0.20354 0.19275 0.18898 0.13396 -0.19977 0.022296 -0.048466 0.3122 0.073804 -0.14895 -0.041334 -0.057453 -0.069565 0.11146 -0.033962 0.11496 0.43294 -0.51601 -0.50295 -0.067055 -0.046331 -0.47723 0.60443 -0.29537 0.011585 -0.26493 0.14957 -0.17147 -0.036525 -0.26648 0.24785 0.037702 -0.34046 -0.21681 0.01081 0.029556 -0.85545 0.16192 0.61671 -0.0156 -0.58366 -0.34233 0.24867 0.098895 -0.034824 0.2503 0.054968 0.041969 -0.060922 0.15567 0.18835 0.38026 -0.39503 -0.13312 -0.10465 -0.39582 -0.30617 -0.42862 -0.21105 -0.4565 0.2918 0.14414 -0.21766 -0.14859 -0.29446 0.19495 -0.18149 -0.28153 -0.18979 -0.33399 -0.25258 -0.27116 0.31425 0.23983 0.17391 0.6886 0.19194 0.40357 
05 -0.12656 0.015147 0.048419 0.16063 0.69459 0.040743 -0.15987 -0.20149 -0.2812 0.45881 0.04407 -0.02756 -0.51461 0.13412 -0.40468 -0.21623 -0.13198 -0.28486 0.4329 -0.29455 -0.81038 0.023209 -0.20674 -0.67631 0.12991 0.15527 -0.18096 -0.10047 -0.46636 0.022097 0.090127 -0.02617 0.01685 -0.04281 -0.60058 0.041119 0.49924 -0.33415 0.021826 0.58557 -0.23914 -0.86789 0.42735 -0.34759 -0.11497 -0.073702 -0.30394 0.13354 -0.25408 0.1707 -0.5951 -0.31684 -0.35162 0.036022 -0.61713 0.23028 -0.34912 -0.40167 -0.048911 0.13115 0.15577 0.55387 -0.1403 0.009346 0.031146 0.15167 -0.25686 -0.079337 -0.025993 0.0097671 -0.36155 0.0079098 0.11869 0.025818 -0.19474 0.075787 1.0613 -0.23845 -0.11693 -0.19685 -0.36626 0.5048 -0.1395 0.017597 0.053035 -0.27868 -0.45782 0.19068 -0.63386 -0.007838 0.52774 -0.087986 0.20206 0.2692 -0.2758 -0.53444 0.011983 0.57339 -0.16643 0.46071 -0.031109 -0.068843 0.24968 0.61611 0.73958 -0.084372 0.10058 0.038862 0.3089 0.13134 -0.52439 -0.26024 -0.079914 0.22151 0.00027741 -0.14528 -0.47939 0.15153 0.17397 -0.098937 -0.42159 0.055158 -0.032077 0.23104 0.1349 -0.28682 -0.30021 -0.14701 0.055277 0.27319 -0.059068 -0.27312 -0.03588 0.23849 -0.0065979 0.39765 0.3285 0.012748 0.17058 -0.42993 -0.60243 -0.14939 -0.22214 -0.37796 0.27617 -0.072132 0.17302 0.099369 0.064459 0.16371 0.022106 -0.1896 0.26265 -0.38166 -0.23097 -0.1538 0.011361 0.27754 -0.39811 -0.14184 0.62242 -0.2901 -0.23752 -0.37444 0.12247 0.37685 0.17162 0.010696 -0.13899 0.14918 -0.35932 0.34415 -0.086679 0.18964 -0.48319 -0.10418 0.13978 -0.67765 -0.073056 -0.75136 0.1092 -0.51487 -0.010467 0.58136 -0.41651 -0.70383 -0.20157 -0.03537 0.50011 -0.67758 0.02135 -0.31167 -0.42939 0.20926 0.073552 -0.081805 0.22129 0.17197 0.078748 -0.18057 
1 0.4777 0.035638 0.31452 0.232 -0.2007 0.11715 0.034731 -0.12973 -0.27981 0.15784 0.43206 0.11847 -0.0041204 -0.01597 -0.25025 0.24827 -0.11352 -0.28921 -0.15678 0.2796 0.11905 0.45184 0.015487 -0.13166 -0.3184 -0.39723 -0.18503 0.34323 0.030381 0.42317 -0.34929 -0.43222 -0.14437 -0.12553 -0.026294 -0.42517 0.14513 -0.1635 0.099584 0.48733 -0.22018 -0.087284 0.21786 -0.28707 -0.14909 0.31473 0.0043124 -0.11464 0.30279 0.4041 0.003316 0.011247 -0.0703 -0.14898 -0.49379 0.10392 -0.27011 -0.19268 0.271 0.26824 0.43306 0.54742 0.40918 0.61826 -0.27107 0.060952 -0.4317 0.12813 0.068391 0.18752 -0.25218 0.5055 0.46458 0.37122 0.034276 -0.30219 0.055408 -0.12592 0.20848 -0.21925 0.057594 0.035839 -0.1542 -0.10717 -0.09443 -0.30065 -0.24006 0.24395 0.21068 0.19948 -0.15624 0.42139 0.5395 -0.24376 -0.2451 0.031292 -0.4111 0.42609 -0.003853 0.52502 -0.20463 -0.11169 0.3067 0.015362 0.49445 -0.17652 0.30099 0.41235 -0.06061 0.18584 -0.14454 -0.15465 -0.029811 0.1855 0.29958 -0.19357 -0.19919 -0.19747 0.095734 -0.26203 -0.019931 0.020959 -0.087915 0.30546 0.081833 -0.092168 -0.21204 0.30634 -0.48016 0.34562 0.25284 -0.0010975 -0.0034179 -0.35931 -0.1294 0.092791 -0.066411 -0.24655 0.070795 -0.24386 -0.55487 0.077813 0.024062 0.5234 0.38162 -0.284 0.019509 -0.012638 -0.13214 0.16644 -0.030716 -0.29495 0.11527 -0.032586 -0.50438 -0.2371 0.2975 0.14282 -0.44635 0.46767 -0.19694 -0.5273 -0.064437 -0.29543 0.10476 -0.03431 0.012284 0.27003 0.035944 -0.14527 0.21419 -0.42428 0.24153 0.02044 -0.53818 0.22282 0.099868 -0.10924 0.14231 -0.35187 -0.059328 -0.62761 0.16217 0.32353 -0.53634 -0.009738 0.23872 -0.0012159 0.33715 -0.25185 -0.23755 -0.4099 0.52094 -0.062194 0.36263 0.11613 -0.035734 0.17115 -0.21143 -0.049998 
10 0.33988 0.034315 0.045913 0.023967 -0.039622 0.44837 -0.096879 -0.079201 -0.084423 -0.028505 0.46363 0.20039 -0.53714 -0.31926 -0.4556 0.071641 -0.22879 0.0023925 0.33673 -0.33474 -0.25291 -0.068434 -0.10112 -0.42486 -0.088627 -0.18683 -0.42311 0.39028 0.38819 -0.26628 0.024324 -0.25496 -0.30014 0.090988 -0.64053 -0.17426 0.083797 -0.11507 -0.049938 0.23331 -0.036316 -0.87098 -0.30439 -0.40794 0.082045 0.22656 0.19601 0.17062 -0.42091 -0.16352 -0.40696 -0.26342 -0.60932 0.12409 -0.22131 -0.089642 0.22065 -0.27419 -0.2201 0.35074 0.33717 0.29973 -0.15569 0.0033154 -0.29365 0.47719 0.25041 -0.047127 -0.40007 0.4545 -0.35433 0.32481 0.47902 0.21647 0.052179 -0.16982 0.65265 -0.10247 0.20352 -0.10073 0.18018 0.38441 0.06952 -0.22219 -0.42937 0.45318 0.10331 0.22537 -0.1984 0.17716 -0.056802 0.072328 0.5457 -0.27985 -0.42689 -0.19093 -0.27186 0.46824 -0.089677 -0.32494 -0.48264 -0.33278 -0.056467 0.048327 0.64988 -0.63592 0.3108 0.37025 0.1621 0.26891 0.072669 0.31345 0.14866 -0.27162 0.42645 -0.12221 -0.079739 -0.19971 0.11978 0.18821 -0.46535 0.15627 -0.23926 -0.045406 -0.058864 -0.36595 -0.66577 0.20544 0.051443 -0.038815 -0.047171 0.51891 0.0072684 -0.17764 0.043527 0.067101 -0.25766 -0.11795 0.01878 -0.17279 -0.090981 -0.031971 -0.2182 0.20429 0.56343 -0.1969 0.35106 -0.49352 0.17124 -0.046209 -0.083382 -0.19724 0.35985 0.15662 -0.48852 -0.37069 0.39589 -0.015214 -0.1556 0.1564 0.31142 -0.6911 0.24445 -0.24777 -0.21571 0.11123 -0.26961 0.3541 0.024738 0.060909 0.0075051 0.20508 0.95021 0.04133 -0.1991 -0.055809 -0.42028 -0.042917 0.12814 -0.3184 0.12899 -0.50808 -0.33976 0.29539 -0.4229 0.13157 0.061745 -0.20841 -0.17035 -0.40864 -0.16258 -0.17039 -0.14458 0.23887 0.22344 -0.14882 0.03403 -0.031825 0.028774 0.48562 
100 0.25349 0.06159 -0.099768 -0.12649 0.13713 -0.075793 -0.22135 0.17911 -0.065996 0.26562 0.27446 0.14623 0.29166 0.48856 -0.21686 -0.25298 0.34481 -0.27736 0.60172 0.56586 -0.15885 0.068331 -0.069752 -0.48624 -0.045057 -0.068067 -0.6421 0.26661 -0.14987 -0.55057 -0.14953 -0.72566 -0.26298 -0.1022 -0.10388 -0.19767 0.52462 -0.46343 0.014233 0.56812 0.19367 -0.76879 0.078099 -1.1308 -0.21517 0.17718 -0.034326 0.54369 0.67921 -0.34101 -0.035286 -0.04174 0.36097 0.071478 -0.098138 0.13632 -0.41201 0.053288 0.34772 0.45569 0.45392 0.38451 0.10141 -0.17729 -0.66211 0.03402 0.24729 -0.23633 -0.26659 0.4661 0.067391 -0.21068 0.13262 0.071757 -0.41441 0.059356 0.26506 0.19873 0.22366 -0.030436 -0.25947 0.42789 0.19315 -0.041859 0.25316 0.26153 0.11207 0.14415 -0.88534 0.75047 -0.043435 -0.11842 0.55253 -0.13534 -0.96673 -0.53648 -0.06454 0.26716 0.47101 -0.096052 -0.25774 0.26244 0.34886 0.26102 -0.099762 -0.7907 -0.41527 0.18303 0.502 0.18519 -0.37337 0.058831 0.094875 -0.1731 0.079968 0.43985 -0.35499 -0.32582 -0.18826 0.034421 -0.28496 -0.0082973 0.28743 0.24687 -0.06363 -0.55979 -0.22094 0.12825 0.059152 0.089511 0.21047 0.38738 -0.25775 -0.19661 0.12705 0.56396 -0.15185 0.12219 -0.21864 0.053943 -0.55348 0.30883 -0.64446 0.21836 0.24131 -0.13485 0.90075 -0.37347 0.35369 -0.0020952 -0.2978 -1.0051 0.64703 -0.15863 0.0095035 -0.60727 0.83224 0.30648 -0.11185 0.032528 0.29502 -0.54231 0.075432 0.15932 -0.078984 0.075047 -0.079253 -0.049776 -0.16926 0.75725 -0.21787 -0.28783 0.43268 -0.67073 -0.57954 0.57404 -0.35791 -0.11897 0.31483 -0.023169 -0.066072 0.059835 -0.48589 0.40297 -0.5274 -0.072519 -0.46355 0.10076 -0.11554 -0.40675 -0.19758 -0.166 -0.28535 -0.38869 0.57205 0.41078 -0.012179 0.11268 -0.0061196 0.21179 
11 0.19781 0.17093 -0.088787 -0.1304 0.46253 0.36289 -0.24025 -0.4175 -0.26508 0.89133 0.16322 0.072386 -0.28995 0.22181 -0.56274 0.020931 -0.15523 0.183 0.017376 -0.39942 -0.45743 -0.20982 0.38935 -0.18066 -0.1065 -0.081208 -0.16049 0.51812 -0.14358 0.031068 -0.021541 0.041761 -0.11549 -0.026619 -0.41153 -0.10047 0.4508 -0.35848 -0.11004 0.48361 0.28752 -0.36722 -0.0026763 -0.32708 0.14778 0.13495 -0.12592 0.26673 -0.13267 -0.010536 -0.28368 -0.44951 -0.54419 0.049768 -0.19101 0.051586 -0.49764 0.16579 -0.28134 0.079338 0.019798 0.33472 -0.0063233 0.13215 0.041566 -0.32514 0.47949 0.15687 -0.21706 0.13681 0.13483 0.10627 0.13258 0.32918 -0.025538 -0.21907 0.9949 -0.44089 0.068548 -0.021016 -0.29053 0.23322 0.14207 -0.23566 -0.05136 -0.28227 -0.30222 0.55208 -0.64829 0.10016 0.2473 0.058622 0.47343 -0.22054 -0.48611 -0.13059 0.014895 0.089429 0.22796 0.26871 0.13717 -0.17331 0.25172 -0.15724 0.2404 -0.22851 -0.25808 0.062866 -0.011941 0.085081 -0.15111 0.17775 -0.18952 -0.25075 0.31049 -0.42855 0.35775 0.075084 0.42965 0.17164 -0.54273 -0.21364 -0.16774 0.28735 -0.15208 -0.089261 -0.26236 -0.21224 -0.30188 0.55603 0.087176 -0.30545 0.24536 -0.077217 0.1693 0.01791 0.080343 0.094698 0.13349 -0.65085 -0.81759 0.09145 -0.094301 -0.16926 0.23924 -0.22811 0.11548 -0.26526 0.018568 0.19258 -0.059953 -0.40304 0.36497 -0.11525 -0.38598 -0.50721 0.15328 0.05633 -0.054271 -0.16166 0.41381 -0.33436 -0.35188 0.010896 0.27596 0.3974 -0.39092 0.22942 -0.26389 0.24605 -0.21935 0.10904 0.16767 0.2129 -0.093714 -0.13867 0.20586 -0.33396 -0.089924 -0.76164 -0.14083 -0.47282 0.051185 0.57632 -0.40507 -0.32117 -0.092802 -0.066686 0.23949 -0.2034 -0.2905 -0.45376 0.036871 -0.3325 0.65003 -0.059334 0.23753 0.41898 -0.10775 0.37369 
12 0.20937 -0.088497 0.79359 -0.49443 0.60776 0.31388 -0.045586 -0.32882 0.13289 0.51645 0.12142 0.17496 -0.35067 -0.048235 -0.53029 -0.080614 -0.24212 0.16673 0.23681 -0.40134 -0.79667 0.16073 -0.22412 -0.68008 -0.72766 0.00068912 -0.21001 0.23019 0.15111 0.14131 0.0068836 -0.26593 -0.065007 -0.0044083 -0.75981 -0.33381 0.10614 -0.49026 -0.057375 -0.18567 0.10223 -0.70307 0.011237 -0.33525 0.22335 -0.1037 -0.05031 0.12885 0.010591 0.074564 -0.10203 -0.6311 -0.21857 -0.011751 -0.25554 0.40952 0.059703 -0.12947 0.15298 -0.11154 0.22773 0.6819 0.55766 -0.027064 -0.11994 0.063709 0.25134 -0.0049047 0.11679 -0.050409 -0.23178 -0.11771 0.15194 0.10998 -0.087004 -0.27157 0.59657 -0.39007 -0.2951 0.20019 -0.31336 0.44136 -0.050871 -0.53843 0.27472 -0.43486 -0.32222 0.21896 -0.58177 0.20238 0.39113 -0.089766 0.19012 0.26635 0.2266 -0.076956 0.12383 0.12226 -0.042753 0.25286 0.14661 0.021334 0.49329 -0.027081 0.39009 -0.51323 0.21479 0.35446 0.093682 -0.16282 -0.54395 -0.10239 -0.1493 -0.11628 0.17534 -0.094402 -0.13019 -0.17464 0.55104 -0.47407 -0.24669 0.46624 -0.3426 0.32883 -0.092364 -0.27777 -0.31991 -0.19267 -0.1038 0.38268 0.33141 0.21131 0.10717 0.11468 -0.019639 0.046111 0.20865 0.0086704 -0.32095 -0.2374 -0.31362 0.24863 -0.44424 -0.0048873 0.26605 -0.26586 0.080588 0.38592 -0.155 0.20845 0.11137 -0.15683 0.37322 -0.073412 -0.65427 -0.38751 0.28971 -0.21752 -0.14586 0.10103 0.32292 -0.14582 -0.068661 -0.062804 0.01513 -0.024536 -0.51367 0.30281 -0.12258 0.045885 -0.29622 -0.0013391 0.6361 0.3106 -0.37745 0.01896 0.044007 -0.86673 -0.10547 -0.35046 -0.27075 -0.15397 0.058272 0.75892 -0.23572 -0.22173 -0.24176 -0.06817 0.082072 0.19747 -0.30266 -0.21668 -0.099881 0.061139 0.11527 0.006801 0.45021 0.28029 -0.066386 -0.036173 
135 -0.0099568 -0.060519 -0.51785 -0.57407 -0.22819 0.061446 -0.64999 -0.59635 0.20798 0.22798 0.42766 0.29315 -0.095348 0.45955 -0.24235 -0.078513 0.61744 -0.067381 0.24115 -0.074839 -0.59325 0.35412 -0.36236 -0.75604 0.0060523 -0.29957 -0.67541 0.37127 -0.38084 0.37251 0.14297 -0.56783 0.061056 -0.20194 0.011914 -0.25866 0.46758 -0.5084 0.27436 0.19291 -0.47615 -0.59393 0.0046938 -0.58329 0.014157 0.32292 0.089684 0.13204 0.48936 0.072915 0.1889 -0.064749 0.0013788 0.031631 -0.53057 0.015826 -0.07422 0.051572 0.38289 0.29006 0.1958 0.2741 -0.19097 -0.11859 -0.28872 -0.53382 0.19758 -0.1805 -0.44173 0.50882 0.23626 -0.59029 -0.29537 0.15361 -0.053969 -0.023451 0.44418 -0.095329 -0.14077 -0.23178 -0.16364 0.8109 -0.43725 -0.009702 -0.2137 0.29823 -0.69935 0.21471 -0.71628 0.39204 0.44487 0.35024 0.66658 -0.17043 -0.75485 -0.36057 -0.36258 -0.06755 0.42546 0.036232 0.15189 0.35216 0.57205 0.012233 0.52181 0.07352 -0.048792 0.72736 0.59769 0.65649 -0.047045 -0.12459 -0.21113 -0.15668 0.049832 0.31283 -0.61264 -0.044712 0.34933 0.017081 0.082377 0.19671 0.16374 0.21295 -0.017861 0.17491 -0.50235 0.10322 -0.021521 0.071009 0.19906 0.12153 -0.076929 0.066175 0.080524 0.47643 0.8223 0.10078 0.34805 -0.2381 -0.37642 0.61117 -0.5139 -0.52253 0.49943 -0.38568 0.45306 -0.38385 0.082629 -0.36149 -0.065109 -0.49656 0.38206 -0.45946 -0.074529 -0.11145 -0.063995 0.25673 -0.45529 0.29225 0.56453 -0.033246 -0.44465 0.13162 -0.056985 0.27384 -0.44103 -0.10904 -0.015178 0.40149 0.0050031 -0.24375 0.37853 0.29148 -0.1602 0.058896 0.0007738 -0.075729 -0.22222 -0.23855 -0.19844 -0.51954 -0.17224 -0.14212 -0.29453 0.029766 0.01892 0.03226 0.23765 -0.16123 -0.36724 -0.29399 -0.21983 -0.22167 -0.078185 0.21971 0.72897 0.22798 0.032547 -0.050757 
136 0.067183 -0.439 -0.44781 -0.58246 0.19231 0.40781 -0.51696 -0.42325 0.052364 0.28427 0.55642 0.32384 0.023532 0.33009 -0.38992 -0.16262 0.53983 -0.23233 0.13131 -0.17642 -0.34118 0.097534 -0.34591 -0.79563 -0.013292 -0.23193 -0.14696 0.51587 -0.18651 0.55176 0.23709 -0.34066 0.0019464 -0.013583 -0.48966 -0.15505 0.62778 -0.37968 0.38526 0.14178 -0.182 -0.74164 0.093573 -0.41431 0.16785 0.16048 0.10407 0.28528 0.42168 0.13857 0.14174 -0.37977 0.08162 -0.08297 -0.25753 0.0704 -0.1207 0.24099 0.34172 0.48091 0.21468 0.36054 -0.29542 -0.0046284 -0.13117 -0.083005 0.29266 -0.43547 -0.061527 0.49809 0.040586 -0.57301 -0.12718 0.16623 0.078823 -0.0067931 0.52357 -0.069047 -0.014417 -0.27878 -0.25118 0.7161 0.13212 -0.16766 -0.17854 0.22907 -0.39125 0.21061 -0.40232 0.48387 0.72399 -0.038364 0.642 -0.090614 -0.48406 -0.45169 -0.71853 0.12069 -0.070014 -0.18513 0.22211 0.3234 0.47616 0.10846 0.52574 0.31263 -0.035112 0.51587 0.42299 0.43505 -0.25383 0.15821 -0.48741 -0.11314 0.18377 0.31586 -0.38811 0.18878 0.3048 -0.10097 -0.18639 0.042011 -0.063959 0.098534 -0.10662 -0.012502 -0.42464 0.13642 -0.40314 -0.024202 0.10289 -0.24543 -0.14754 0.034366 -0.017356 0.16881 0.91615 0.13869 0.24303 -0.2918 -0.30354 0.44855 -0.45991 -0.67611 0.22475 -0.21232 0.61698 -0.29826 0.11432 -0.018288 -0.054722 -0.21806 0.18774 -0.09082 -0.15318 -0.26815 0.30046 0.30181 -0.24679 0.33625 0.65053 0.063958 -0.51355 -0.057539 0.011388 0.19817 -0.53786 -0.16519 0.1126 0.063171 0.082402 0.083177 0.10129 0.026355 -0.24616 -0.12779 -0.11325 -0.015735 -0.34846 -0.15189 -0.52036 -0.46919 -0.28019 -0.21722 -0.24118 0.026994 -0.010624 -0.23578 0.41899 -0.19758 -0.28121 -0.062503 -0.19856 -0.22666 0.3785 0.44038 0.3929 0.16901 -0.13543 0.092331 
15 0.23011 0.05765 0.16221 -0.27384 0.15375 0.30105 -0.10668 -0.50592 0.049743 0.022195 0.5216 0.1616 -0.18172 -0.07964 -0.60991 -0.19201 0.053899 0.14602 0.45627 -0.19347 -0.45865 0.066661 0.31458 -0.24516 -0.16329 0.086407 -0.29734 0.7807 -0.095994 -0.26993 0.38313 0.05191 -0.54613 -0.098356 -0.63881 -0.13782 -0.077172 -0.055408 -0.49275 0.084496 0.26042 -0.033309 -0.010454 -0.5043 -0.28357 0.14031 -0.024111 0.056791 -0.026596 -0.038459 -0.79073 -0.1587 -0.26013 0.12509 -0.19454 0.32285 -0.0061919 -0.43068 0.12933 0.2023 0.21707 0.38797 0.055397 -0.076739 0.060654 0.15626 0.34563 0.096742 -0.17506 0.35436 -0.28558 0.34801 0.11916 0.083862 -0.17998 -0.029443 0.70387 0.022544 -0.051433 -0.1471 -0.13448 0.11895 -0.065512 -0.34276 0.13044 0.010442 -0.1316 -0.050737 -0.57891 0.24441 0.3106 -0.17749 0.62591 -0.29172 -0.63509 -0.10386 -0.27078 0.1234 -0.29197 0.064173 0.1379 0.089662 0.41989 -0.043267 0.61491 -0.42201 0.49869 0.25122 -0.0073131 0.066845 -0.07865 -0.09469 -0.14609 -0.39624 0.31891 0.10757 0.13028 -0.33172 -0.11036 -0.090815 -0.59799 -0.0078939 0.098397 0.35565 -0.105 -0.31153 -0.23743 0.17501 -0.3347 0.28734 -0.41059 0.029545 0.25864 0.13438 0.2984 0.38584 0.38087 -0.090685 -0.16011 -0.13778 -0.3518 0.060315 -0.31043 -0.088091 0.029833 0.04855 0.40305 -0.062957 0.14399 0.23954 0.063186 -0.38579 0.21284 -0.30202 -0.6328 -0.2912 0.23222 -0.21753 -0.47959 0.2424 0.22769 -0.24732 0.078993 -0.3076 0.18137 0.075386 -0.31967 0.13308 0.24106 0.051485 -0.062538 -0.08854 0.54938 -0.0070514 -0.2579 0.3836 -0.25223 -0.12269 0.055247 0.29381 0.049286 -0.015037 -0.41326 0.33339 -0.8202 -0.14359 0.059018 -0.21002 0.29293 -0.50897 0.3332 -0.52863 0.13386 -0.2661 0.52607 -0.27617 0.06631 0.3239 -0.19057 0.17622 
18 0.47801 -0.18841 -0.26172 -0.36195 0.4372 0.99419 -0.27885 -0.63619 -0.31992 0.43207 0.37998 0.23355 -0.15157 0.29285 -0.51807 -0.59971 0.25082 -0.18911 0.24561 0.047378 -0.58229 0.1629 -0.029023 -0.53231 0.31511 0.4353 0.020352 0.46613 -0.51964 -0.27436 -0.14284 -0.40756 -0.41572 -0.14366 -0.3357 -0.28435 0.36745 -0.28875 0.066521 -0.030526 0.017211 -0.71777 -0.059134 -0.16547 -0.24511 0.1017 0.10293 0.54193 -0.26141 0.16341 -0.14875 -0.5 -0.062732 0.030499 -0.12555 0.12952 0.19358 0.25644 0.41463 -0.010505 0.43987 0.53038 0.11358 -0.091156 -0.04599 0.22746 0.12545 -0.096285 0.018127 0.69268 -0.092835 -0.30799 -0.11567 0.54632 -0.051647 -0.02205 0.68322 -0.012022 0.0036867 -0.1603 -0.34009 0.23392 0.082335 -0.26514 -0.2305 -0.39109 0.16058 0.11167 -0.28798 0.18479 0.26727 -0.54715 0.54886 0.05358 -0.44273 -0.26815 -0.05581 0.37435 -0.30455 -0.03658 0.26889 0.23548 0.32844 0.1574 0.63265 -0.0041778 -0.01175 0.37944 0.26396 0.25027 -0.26136 -0.36104 0.037298 -0.086813 0.15015 -0.093261 -0.11442 -0.1666 -0.30681 -0.055105 -0.19188 0.18402 0.27247 0.5643 -0.048744 -0.026162 -0.46605 -0.18217 -0.34618 0.32142 0.18519 0.19488 -0.078171 -0.015355 0.1194 -0.22915 0.33797 -0.028555 0.34986 -0.46709 -0.45521 0.33663 -0.35777 0.1358 0.25505 -0.19992 0.31958 0.12042 0.286 0.32619 0.19284 -0.34012 -0.026709 -0.071001 -0.62227 -0.036128 -0.23441 -0.029169 -0.22662 -0.019392 0.75169 -0.028155 -0.11554 -0.051825 0.10397 -0.1953 -0.14216 0.43936 -0.10065 0.46576 -0.44062 -0.031665 0.11779 -0.13266 -0.099703 0.0024658 -0.22697 -0.45204 -0.22262 -0.1224 -0.35172 -0.44896 -0.51704 0.20625 -0.24829 0.68641 -0.42664 -0.24887 -0.029851 0.074668 -0.14393 0.053133 0.12604 -0.65999 0.23541 -0.0033576 -0.42157 0.2438 -0.19156 0.1892 
2 0.66387 -0.049667 -0.31067 -0.11065 -0.10836 0.37991 -0.17361 -0.26744 0.073544 0.17532 0.3727 0.084842 -0.15974 0.10674 -0.12263 0.043194 -0.32134 -0.55525 0.21678 0.20515 0.20003 0.49823 0.044799 -0.033761 -0.14355 -0.086287 -0.36388 0.1207 -0.35054 0.098437 -0.00062621 -0.11811 -0.3357 -0.053746 -0.031412 -0.15634 0.10745 -0.092071 0.13691 -0.024601 -0.30304 -0.25293 0.35213 -0.39148 -0.071865 0.1111 0.026244 0.0031526 0.046425 0.0045698 -0.42604 -0.1669 0.0019849 -0.11304 -0.053579 0.24485 -0.32776 0.058887 0.66636 0.24513 0.50261 0.31584 0.12941 0.13857 -0.43177 -0.17519 -0.20099 0.40896 0.21533 0.22493 -0.13344 0.17819 0.25913 -0.024528 -0.16625 0.16653 0.0086011 0.090572 -0.12317 -0.25278 -0.035127 0.40591 -0.18573 -0.39395 0.053427 -0.3056 -0.46756 0.050339 -0.093419 0.49778 -0.11591 0.48466 0.097868 -0.088194 -0.0070025 -0.21556 0.12467 0.19252 -0.17237 0.14612 -0.26841 -0.19519 0.57768 0.2836 0.14827 0.0019902 0.38357 0.3343 -0.069178 0.54683 0.27601 0.027435 -0.30152 0.2921 0.47412 -0.088683 0.18155 -0.085127 0.38739 -0.50232 -0.16615 0.12667 -0.56542 0.40721 -0.035076 -0.08913 -0.28817 0.2776 -0.28509 0.56484 -0.067787 0.25843 0.10121 -0.29637 -0.20285 -0.086624 -0.32043 -0.20775 0.0026299 0.022804 -0.31728 -0.073357 -0.63363 0.344 0.2987 -0.27515 0.40532 -0.050364 0.23308 -0.23256 -0.050194 -0.087895 0.077581 -0.15796 -0.4844 -0.12504 0.2929 -0.31416 0.13202 -0.2137 -0.43321 -0.2826 0.010465 -0.3318 0.53664 -0.050149 -0.063115 0.14477 -0.031552 -0.0071054 -0.10601 -0.41627 0.35157 0.11611 -0.35771 -0.17944 0.026047 -0.11391 0.076311 -0.44014 -0.036693 -0.56256 0.19959 0.40727 -0.39214 -0.025074 0.073993 -0.056395 0.21138 -0.25743 -0.3052 -0.038597 0.16692 -0.1338 0.39778 0.1301 0.32058 0.13166 0.10159 -0.19151 
20 0.070631 -0.14402 0.024474 -0.0040232 0.0996 0.22299 0.041762 -0.24185 0.16974 -0.29139 0.54396 0.082971 -0.09821 0.49774 -0.67124 0.046252 -0.17306 -0.13481 0.12595 -0.01536 -0.69168 0.022183 -0.17633 -0.22951 0.14113 -0.27798 -0.45853 -0.0079802 -0.30053 -0.17092 -0.26678 -0.35343 -0.69438 -0.064938 -0.4974 -0.24263 0.14738 0.0023078 0.59953 0.40438 -0.21044 -0.57446 -0.14312 -0.30867 -0.44954 -0.034695 0.42046 -0.008164 -0.074337 -0.15617 -0.025679 -0.17424 0.19629 0.67192 -0.21663 -0.024366 0.1412 -0.38413 0.034989 0.44323 0.53037 0.26536 0.24601 0.017119 0.11698 0.44496 -0.33655 0.072583 0.0095569 0.52788 -0.7365 0.01469 0.097232 0.061941 -0.29167 -0.11564 0.80488 -0.19501 0.20853 0.049227 0.044137 0.35477 0.13124 -0.34575 -0.11608 0.27555 -0.092901 -0.028252 -0.10067 0.55281 -0.29073 0.042063 0.52306 -0.35256 -0.052988 -0.21606 -0.17814 0.49298 -0.32447 0.2826 -0.10209 0.045678 0.29697 -0.07278 0.12366 -0.60943 -0.2858 0.092341 -0.22392 0.59792 -0.20295 0.2346 0.35909 0.15964 0.35773 0.09947 -0.17159 -0.24225 0.33366 -0.10043 -0.31061 0.16412 0.43115 0.58077 -0.15976 -0.34762 -0.11273 0.18453 -0.13062 0.58491 -0.37331 -0.1391 0.00162 -0.13692 0.26103 0.1266 0.21149 -0.57309 0.36765 0.014954 -0.08862 -0.15938 -0.44976 -0.36876 0.66613 -0.31479 0.6097 -0.24218 0.30432 0.10584 0.10235 -0.43385 0.12482 -0.10303 -0.47353 -0.5223 -0.027841 -0.19953 -0.20647 -0.063297 0.31572 0.14415 0.37826 -0.24375 0.14475 0.026313 -0.64451 0.17653 0.16415 0.48085 -0.16036 0.01795 0.27086 -0.01725 -0.3581 0.17555 -0.35591 -0.76491 -0.27345 -0.037489 -0.59251 -0.78036 -0.56504 0.054357 -0.08672 0.26399 -0.49464 -0.3378 0.22605 0.02001 0.040614 -0.59579 0.083179 0.37315 0.12571 0.0035251 -0.34045 -0.06507 -0.11859 0.040791 
2067 -0.13121 0.26535 -0.1268 0.022982 0.53408 0.024651 0.052111 -0.55482 0.078336 0.44433 0.40956 -0.19268 0.19708 0.23927 -0.49468 0.31792 -0.14235 0.31848 0.4303 0.086864 -0.78529 -0.076423 0.13129 -0.29248 -0.053516 0.077941 -0.19897 -0.016229 -0.39181 0.3256 -0.055816 -0.025322 -0.16557 0.31574 -0.39698 0.15486 0.36306 -0.24055 -0.099271 0.092717 0.22783 -0.8065 0.21241 0.12841 0.3424 0.41732 0.033256 0.19235 -0.12672 0.081269 -0.033802 0.12583 -0.29589 0.006836 -0.033477 0.16746 0.18666 0.10121 0.19242 0.75553 0.20097 0.74126 0.4198 0.44639 -0.517 0.14866 -0.073783 -0.081799 -0.027842 0.19362 -0.45004 0.13327 0.46085 0.23434 -0.15154 -0.079785 0.44989 0.10608 0.055619 -0.092942 -0.37133 -0.1003 0.53394 -0.064575 0.10049 0.015334 -0.2936 0.2245 -0.37552 -0.26013 0.62321 0.080688 0.27963 0.3031 -0.63919 -0.42797 -0.00071951 0.70362 0.212 0.0089601 -0.44202 -0.26872 0.066819 -0.12121 0.16744 -0.0086256 0.21432 0.14618 -0.37439 -0.096134 -0.34636 0.018368 0.36343 0.53152 0.084918 -0.63926 -0.10739 0.43821 0.013221 -0.14105 -0.55705 -0.082305 0.14208 0.044137 0.094846 -0.58863 -0.53375 0.0046334 -0.17352 0.59606 -0.35794 -0.0058879 0.33027 0.012005 -0.061333 -0.0033038 0.41523 -0.28144 -0.3435 -0.33828 -0.38608 0.26261 -0.58045 -0.32348 0.63732 -0.24915 0.18064 -0.39841 -0.2029 0.26014 0.25187 -0.15297 0.20126 -0.38311 -0.38493 -0.50331 0.11377 0.15204 -0.66895 -0.32676 0.20305 -0.84364 0.17665 0.003208 -0.29042 -0.25974 -0.40626 0.48157 0.12611 -0.27255 -0.10242 0.31189 0.41963 -0.018414 -0.0078539 -0.35 0.10051 -0.7879 0.017638 -0.42249 0.18822 -0.42354 -0.48243 0.25308 0.083156 -0.27045 -0.22714 -0.30486 0.31211 0.1373 -0.015031 -0.22557 0.29148 -0.11314 0.12358 -0.10122 0.18062 0.096991 -0.071703 -0.30743 
2068 -0.17209 0.14019 0.24591 0.24773 0.59247 0.32198 0.0022271 -0.70321 0.35893 0.35853 0.54277 -0.28403 0.041718 -0.024669 -0.33796 -0.11506 -0.23242 -0.057583 0.35453 -0.10448 -0.61859 -0.13215 0.038896 -0.32083 0.23582 0.14682 0.10653 -0.19366 -0.24204 0.21863 0.38157 0.076877 0.10867 -0.033998 -0.75078 0.25749 0.77492 -0.24549 0.2222 -0.0015517 0.29691 -0.41531 0.18626 0.19703 0.61581 0.19954 0.17024 0.038555 0.061417 -0.070835 -0.069355 0.049306 -0.39971 -0.1606 0.132 -0.031871 0.18818 0.085292 0.39847 0.68129 0.15946 0.51699 -0.12691 0.24599 -0.18113 0.14799 -0.38978 0.23556 0.042957 0.61203 -0.29892 -0.20739 0.39043 0.19229 -0.026742 -0.020695 0.80119 -0.10094 0.28568 -0.4275 -0.35816 -0.037212 0.50157 -0.062139 -0.2723 -0.081029 -0.2979 0.26879 -0.19482 0.055957 0.053497 -0.25824 -0.086608 0.13975 -0.42966 -0.41782 -0.086278 0.87167 0.20005 0.09778 -0.28716 -0.064946 0.28268 -0.27833 0.2356 -0.32178 0.30762 -0.018519 -0.35551 0.030808 -0.59543 0.015136 0.4546 0.25561 0.21356 -0.57752 -0.13832 0.50739 0.4488 -0.090553 -0.42082 0.056681 0.26442 0.15439 0.16024 -0.48115 -0.26865 0.069326 -0.21262 0.69597 -0.31464 -0.22445 0.22667 -0.037501 0.21551 -0.44639 0.26593 -0.088977 0.048931 -0.6184 -0.18712 0.025257 -0.43512 -0.20516 0.4212 -0.18562 0.3633 -0.38889 0.03553 0.11438 0.25572 -0.056762 0.022944 -0.34659 0.026736 -0.46507 0.30501 -0.21337 -0.74363 -0.35919 0.12402 -0.60791 -0.047807 -0.16091 -0.035016 -0.015572 -0.69736 0.40024 -0.015415 -0.51489 0.31594 0.21617 0.013322 0.065108 0.28904 -0.46854 0.37519 -0.74604 0.099372 -0.51437 -0.16256 -0.50884 -0.54559 0.2202 -0.086344 -0.38089 -0.35619 -0.29127 0.62951 -0.31581 -0.16297 0.028303 0.060253 0.058849 0.10387 -0.13611 0.10586 0.3176 -0.34836 -0.3703 
2069 -0.079579 0.19118 -0.29481 0.58147 0.30005 0.48698 0.68848 -0.52276 0.34566 0.50147 0.30034 -0.26605 0.11083 -0.24198 -0.21088 -0.23742 -0.058532 0.092313 0.37771 -0.13502 -1.1629 -0.068703 -0.0040077 -0.42088 -0.047039 -0.011474 0.047495 0.048301 -0.46412 0.48821 0.25604 0.46511 -0.020649 0.044474 -0.92209 0.20698 0.48698 -0.34104 0.29472 0.0099441 0.26921 -0.28557 -0.078316 0.21244 0.75125 0.45993 -0.10889 0.19597 0.16483 0.068341 -0.19582 0.097762 -0.2175 0.028109 0.32417 0.11725 -0.18099 -0.36501 0.18467 0.77883 0.084877 0.43201 -0.11394 0.41029 -0.33164 -0.31222 -0.16079 0.026233 -0.088174 0.67078 -0.26894 -0.10877 0.050897 0.40666 -0.11343 -0.052492 0.3465 -0.12089 0.17171 -0.27543 -0.52706 0.36598 0.53017 0.041377 -0.34876 0.061526 -0.42983 0.19649 -0.27699 -0.27308 0.48816 -0.2916 0.31932 -0.15864 -0.56861 -0.17432 0.14796 0.54088 0.28231 0.13479 -0.39176 -0.012224 0.25546 0.12143 0.43989 -0.30431 -0.21955 0.091704 -0.11705 -0.37076 -0.57026 0.019126 0.33498 0.30145 0.41029 -0.35075 -0.082147 0.11068 0.44248 -0.44227 -0.43317 0.1902 0.17429 0.33459 0.092654 -0.27975 -0.34173 -0.41002 -0.15668 0.88067 0.1006 -0.17005 0.13002 0.0397 -0.17445 -0.58705 0.62133 -0.42783 -0.15582 -0.49993 -0.38165 0.089939 -0.31583 -0.0035312 0.44197 -0.13432 0.61119 -0.37628 -0.21948 0.083652 0.36102 -0.31624 0.096794 -0.37838 -0.064112 -0.35075 0.30085 -0.088027 -0.80494 -0.27146 0.32738 -0.28676 -0.10167 0.045132 -0.030089 0.025335 -0.74358 -0.0028467 -0.0027046 -0.41457 0.037801 0.15419 -0.18739 0.24847 0.26618 -0.57441 0.53687 -0.45102 -0.091783 -0.576 -0.056765 -0.54877 -0.53529 0.52073 -0.048201 -0.14359 -0.24117 -0.3682 0.66344 -0.08382 0.21803 0.21302 0.46721 0.2889 0.090487 -0.2714 0.097399 0.23771 -0.54992 0.0079079 
22 0.018263 -0.18652 -0.15762 -0.46542 0.35853 0.29304 0.25121 -0.5589 -0.014275 0.26444 0.081549 0.15659 -0.13839 0.28453 -0.61432 -0.51431 0.56038 -0.31331 0.25743 -0.35659 -0.62842 0.2628 -0.30679 -0.47535 0.14709 0.17327 -0.35127 0.41491 -0.12347 -0.016802 -0.091015 -0.32135 -0.26165 0.068491 -0.54083 -0.27982 0.28098 -0.22802 0.4452 0.23773 0.19267 -0.41817 0.0057872 -0.28559 -0.29973 -0.15993 0.13907 0.064961 -0.24931 -0.25559 0.0042735 0.013594 0.20445 0.026214 -0.65429 -0.30251 -0.14267 -0.2162 0.040099 0.17314 0.30601 0.74988 0.19586 -0.11639 -0.048623 0.064523 0.10379 0.089459 0.083826 0.28517 -0.33912 0.20658 0.24024 0.17538 0.18261 -0.1341 1.0819 -0.35045 0.14095 -0.0085197 -0.32046 0.62209 0.33243 -0.12252 -0.282 -0.18725 -0.22788 -0.0458 -0.29334 -0.24954 0.46121 0.18446 0.5186 0.010205 -0.65724 -0.52821 0.24618 0.3608 0.14335 0.13053 -0.059744 0.22018 0.099548 -0.011891 0.33656 -0.18578 0.03704 0.52976 0.12672 -0.13314 -0.33992 -0.48925 -0.056799 0.50648 0.24461 -0.13519 -0.25845 0.26101 0.3517 0.061666 -0.31326 -0.037521 0.083553 0.3546 -0.0052942 -0.20226 -0.61638 0.23236 -0.030017 0.28633 0.060025 0.015178 -0.047624 -0.048375 0.0063359 0.38455 0.52528 0.26406 0.13556 -0.66188 -0.68087 -0.057248 -0.25031 -0.1216 0.45043 -0.17923 0.069256 -0.36391 0.22186 0.17617 -0.20398 -0.35187 -0.018726 0.18526 -0.080296 -0.023899 0.15098 -0.062743 -0.71719 0.0037869 0.56841 -0.028552 -0.23839 -0.34675 -0.014302 0.40823 -0.23091 0.12088 -0.22725 0.15757 -0.19335 0.037102 0.00084601 0.1367 -0.32239 -0.18025 -0.12215 -0.32862 -0.24628 -0.47476 -0.40598 -0.74594 -0.32768 0.5489 -0.076049 0.099786 -0.25032 0.05978 0.12641 -0.07978 -0.14143 -0.085849 -0.12147 -0.24867 0.62795 -0.081883 -0.015214 0.15693 0.22975 0.16046 
250 0.35778 -0.47827 0.093385 -0.3503 -0.35174 0.77801 0.070634 -0.11127 -0.1368 -0.084201 0.063981 0.010127 0.13422 0.37767 -0.53628 -0.131 0.16146 -0.30912 0.20457 0.41064 -0.022043 0.43549 -0.39492 -0.76544 -0.55176 0.022459 -0.60599 0.18387 0.2176 -0.062808 -0.1335 -0.88794 -0.27322 0.012956 0.18085 0.14654 0.13608 0.056742 -0.11199 -0.039546 0.14414 -0.83351 0.47157 -0.42899 0.0019691 -0.016221 -0.29787 0.5627 0.39662 0.4494 -0.052776 -0.085738 0.34689 -0.1036 -0.06009 -0.022874 0.18021 -0.80358 -0.035911 0.28936 0.52629 0.22846 0.16117 -0.056612 -0.72495 -0.055506 -0.13967 0.13232 0.52407 0.42535 -0.21042 0.10942 0.075074 -0.091971 -0.06726 -0.06856 0.69449 0.18194 0.46433 -0.11454 0.0523 0.047773 0.44329 -0.3984 -0.36298 -0.11589 -0.6494 0.30554 -0.17964 -0.036937 0.23948 -0.041424 0.18549 -0.035801 -0.40504 -0.97313 -0.56231 -0.071458 -0.14122 -0.70327 -0.27036 -0.42418 0.16868 0.20374 0.23297 -0.62717 0.42756 0.29151 -0.1165 0.30825 0.066305 -0.29393 -0.14356 0.30543 0.23648 0.16309 -0.40761 0.36419 0.41309 -0.033455 -0.27574 -0.30513 -0.083209 0.42057 0.16524 -0.045857 0.43379 0.55696 -0.47041 0.52773 0.02849 0.74496 -0.27213 -0.10799 -0.075622 0.7538 0.85463 -0.16735 0.034083 0.06017 -0.55342 -0.084271 -0.11935 0.10839 0.04934 -0.31596 0.41992 -0.21974 0.19245 0.46969 0.2164 -0.44555 0.49222 -0.25348 0.033951 -0.81156 0.13421 0.39926 0.009533 0.092073 0.38019 -0.16133 0.23597 -0.59435 0.41316 -0.10488 -0.32768 -0.13626 0.018446 -0.13727 0.11431 0.27342 -0.051129 0.017108 -0.52142 0.26317 -0.30284 0.19028 -0.13723 0.32169 -0.10743 -0.080044 -0.3382 -0.16439 -0.32295 0.097726 -0.01374 -0.25141 0.09603 -0.49651 0.061242 -0.42137 0.19903 -0.37103 -0.014193 -0.055814 -0.033232 0.084836 -0.081613 -0.20638 
25yo 0.21155 -0.24425 -0.0057714 -0.079623 0.0967 0.31474 -0.0557 -0.44714 0.14329 0.07198 0.34791 0.21674 -0.15769 0.065298 0.027115 0.010066 0.21982 -0.33883 0.25485 0.032493 -0.14733 0.34605 0.010146 -0.3295 0.088776 -0.10706 0.13739 0.20634 -0.017464 0.26421 0.39213 -0.1754 -0.14402 0.00074019 -0.11433 0.011207 0.27159 0.063818 -0.089148 0.10229 -0.07681 -0.060457 0.19328 0.18096 0.18122 -0.054835 0.02334 0.44496 0.2321 0.056532 -0.1238 -0.28686 -0.15332 0.082952 0.33516 0.046532 0.0952 0.15195 -0.042134 0.37937 0.22604 -0.22828 0.11128 0.31406 0.03087 0.036081 -0.12151 -0.1243 -0.255 0.24736 -0.15778 -0.20188 -0.074342 0.05822 -5.2141e-05 -0.0026707 0.76854 -0.10278 0.26035 -0.1058 -0.19635 0.22505 0.017033 -0.0040524 -0.099973 -0.23255 -0.21275 0.029567 -0.09618 0.03773 0.1178 -0.068733 0.40129 -0.12422 -0.30971 -0.33074 -0.002042 0.10818 -0.0047654 -0.19973 0.00021275 0.028389 0.43866 0.29037 0.22985 -0.24317 -0.066856 0.42189 0.26382 0.28003 0.036563 -0.0039058 -0.038624 0.009752 0.11698 0.11898 -0.18205 0.19947 0.31765 -0.23941 -0.22192 0.17226 0.0037303 0.045662 -0.14325 -0.0038828 0.080387 0.1145 -0.27381 0.35657 -0.098328 -0.051876 -0.064579 0.066513 -0.060957 0.03452 0.20645 -0.13012 -0.21135 -0.1871 -0.23433 0.42548 -0.15308 -0.051378 0.008727 -0.26115 0.15713 -0.11582 0.1072 0.037192 -0.0092409 -0.36908 0.21566 -0.13564 0.012685 -0.16531 0.29499 -0.092801 0.033177 -0.10907 0.15065 -0.32967 -0.10559 0.10416 0.26228 -0.01042 -0.26555 -0.18056 0.039985 -0.025642 0.10017 0.078579 -0.1001 0.047509 -0.23626 0.093105 -0.12881 -0.07232 -0.15568 -0.0052028 -0.087108 -0.22201 -0.031061 -0.11505 -0.20263 0.047426 -0.077839 -0.0014825 0.060778 -0.1445 0.18895 -0.12152 -0.06271 -0.10666 0.18389 0.032034 -0.038812 0.23877 -0.052858 -0.017287 
260 0.20579 0.15973 0.040928 -0.0035216 -0.0066691 0.32784 -0.47529 -0.11777 -0.060718 0.12556 0.4291 0.33292 0.13181 0.22774 -0.20391 0.041803 0.059094 -0.087454 0.1577 0.1255 -0.36895 0.17882 -0.1333 -0.10587 0.017251 -0.41928 -0.35366 0.040469 0.087155 0.13049 0.13947 -0.39029 -0.28957 0.29474 -0.052617 0.038751 0.40142 -0.092999 -0.11496 -0.061639 0.18158 -0.46279 0.11815 -0.37848 -0.37006 0.1302 -0.12509 0.11559 -0.056524 0.11733 -0.098253 -0.10849 0.18004 0.20972 -0.39345 -0.065571 -0.066175 0.32681 0.25069 0.33398 0.3122 0.12278 0.36801 0.19326 -0.43462 0.17458 0.020231 -0.29532 0.03509 0.20498 -0.17808 -0.20335 -0.20332 0.035334 -0.16241 0.16004 0.37855 0.023159 0.32371 -0.12722 -0.1222 0.077175 0.10398 -0.2469 -0.12548 0.17945 -0.097409 0.085486 -0.19109 0.38083 -0.020996 -0.21293 0.13824 -0.4879 -0.57959 -0.37863 -0.30837 0.29421 -0.1342 -0.0021269 0.063706 0.25764 0.50445 -0.051796 0.37367 -0.19181 0.28057 0.17626 0.16754 0.22061 0.071359 0.19768 -0.11931 0.11551 0.19596 -0.22694 -0.56749 0.23143 0.17365 -0.087522 -0.36701 -0.061321 0.22624 0.31111 -0.0076221 -0.31463 -0.12423 0.28886 -0.26841 0.30897 0.023436 0.14681 -0.11257 -0.22524 -0.15703 0.083529 0.37493 -0.27178 -0.11151 0.012424 -0.51925 0.55989 -0.47818 -0.29051 0.079716 0.049638 0.085879 -0.42898 0.3126 0.21286 0.28759 -0.51251 0.48332 -0.24693 -0.15749 -0.034989 0.49268 0.0044921 0.42258 0.11082 0.35454 -0.56164 0.060066 0.15816 -0.024042 0.097435 -0.51021 0.14392 0.30405 -0.078554 0.072419 -0.011977 0.12241 0.037893 -0.12935 -0.19038 -0.38483 -0.085922 -0.14022 -0.11257 -0.13801 -0.20381 -0.14555 -0.016501 -0.42328 -0.079436 0.012761 -0.24911 0.075542 0.16068 -0.001228 -0.2808 0.027108 -0.38624 0.31114 0.29818 0.057662 0.015179 0.061398 -0.034002 
3 0.36504 0.24971 0.18181 -0.07291 -0.10023 0.23697 -0.22525 0.091834 -0.12467 0.36299 0.48795 0.27545 -0.16471 0.27277 0.17852 -0.31578 -0.063422 -0.60349 0.00060823 0.48755 -0.010241 0.33959 -0.18477 0.13686 -0.21121 -0.34446 -0.08767 0.14596 -0.11405 -0.3876 -0.2098 -0.45968 0.18297 -0.073158 -0.26062 -0.18219 0.06433 -0.44156 -0.19691 -0.2018 0.30028 -0.26717 0.096441 -0.3653 0.26824 0.019413 0.21583 0.27551 0.078554 0.38088 -0.53546 0.055511 0.20099 0.073353 -0.062665 -0.076389 -0.28757 0.074754 -0.37876 0.55662 0.12457 0.52853 0.19642 0.15682 -0.55613 0.32258 -0.13229 -0.032009 -0.15651 0.44975 -0.6067 0.30236 0.072196 0.19244 -0.21223 -0.21431 0.48759 -0.31614 0.28839 -0.3831 -0.20671 0.079135 -0.33635 -0.25121 0.0041769 0.11658 -0.56846 0.28598 0.15192 0.30816 0.30823 0.42984 0.013533 0.22036 -0.26225 -0.48879 -0.23337 0.049511 0.031825 0.05856 0.058385 0.00084471 0.25337 0.44226 0.63746 -0.1324 -0.14595 0.30106 0.064757 0.10607 0.11324 0.024073 -0.23022 0.67238 0.521 -0.30427 0.21427 0.11581 0.05271 -0.038906 -0.056899 0.25759 0.21277 0.29983 -0.18477 0.059359 -0.42657 -0.046 -0.073542 0.35951 -0.31773 0.026933 0.25858 -0.017101 0.089989 0.17479 0.026385 -0.37818 -0.45977 0.36454 -0.24449 -0.11544 -0.29366 0.67268 0.52169 -0.10859 0.37467 -0.44585 0.38412 0.076046 -0.074378 -0.301 -0.18544 -0.14044 -0.34607 -0.0083154 0.00070885 -0.03626 -0.23683 -0.020721 0.1151 -0.38138 -0.38095 -0.27941 0.26435 0.2878 0.13177 -0.2134 -0.21018 0.040786 -0.27398 0.11155 0.71545 0.095456 -0.1851 -0.26356 -0.022895 -0.32683 0.24995 -0.29736 0.01035 -0.39015 -0.041058 0.18952 -0.45658 0.31862 0.12181 -0.18803 -0.17319 -0.16419 0.2155 -0.24026 0.17508 -0.35582 0.0061896 0.38182 0.58052 -0.37845 -0.28405 -0.12821 
33 0.17591 0.31671 -0.074664 -0.33259 0.26871 0.29103 0.41279 -0.1286 0.0040215 0.11904 0.17837 0.13223 -0.18243 0.036139 -0.50293 0.052801 0.53886 -0.26179 0.12158 -0.24869 -0.34133 0.24648 0.20256 0.046905 0.25176 0.10026 -0.39439 0.64128 -0.12248 0.092815 0.38401 -0.48756 0.032988 0.49302 -0.73103 -0.22753 0.038644 -0.051521 -0.14353 0.053739 -0.25881 0.056257 0.37378 -0.34197 -0.036352 0.015666 0.18326 0.14377 -0.066076 -0.1427 -0.18555 -0.29798 -0.15401 -0.096442 -0.17577 0.14794 -0.14325 -0.026247 -0.15388 0.35844 -0.082085 0.22648 -0.010668 -0.32184 0.13496 -0.24112 -0.20384 -0.30295 -0.0026061 0.021671 -0.31017 -0.62662 -0.26508 0.29763 -0.058972 0.19504 1.0964 -0.49907 0.10593 0.053294 -0.30728 0.625 0.14579 -0.15522 -0.035456 0.01369 -0.02753 0.14193 -0.61639 -0.19695 0.029613 -0.018008 0.4 -0.79933 -0.51502 -0.37009 0.062144 0.3673 -0.22047 0.042692 -0.17632 0.45786 0.28673 0.2825 1.0054 -0.47047 0.22614 0.5658 0.28404 0.26916 -0.5267 0.06219 -0.20002 -0.29534 -0.040864 0.18676 -0.41195 0.27315 0.29509 0.35102 -0.064497 0.13921 -0.1362 0.34104 0.030666 -0.20277 0.029405 0.0054176 0.0063544 0.18976 0.088883 0.0067242 -0.048391 0.048101 -0.061147 0.35639 0.51753 -0.1849 0.057796 -0.36918 -0.6877 0.22066 -0.2391 0.020629 0.20821 -0.048206 0.33864 -0.58023 0.075817 0.029986 -0.098757 -0.11127 0.29511 -0.55013 -0.27681 -0.39483 0.17875 0.16204 -0.11559 0.25722 0.3327 -0.41204 0.21518 -0.28517 -0.081083 0.26825 -0.82396 -0.081477 -0.025263 0.020632 -0.069231 -0.037136 -0.2658 -0.069158 -0.073358 -0.053966 -0.22152 -0.095117 -0.04937 -0.0063942 -0.27582 -0.87516 0.22569 0.25715 -0.45306 0.20935 -0.073176 0.1928 0.41132 -0.41769 -0.12507 -0.3419 0.05981 -0.17069 0.2275 0.36495 0.45872 0.049385 -0.3846 -0.14641 
4 0.29986 0.30091 -0.18096 -0.086991 -0.16845 0.25389 -0.11188 0.10861 0.44629 -0.27162 0.44996 0.021812 -0.51005 0.26214 -0.16582 -0.10692 0.45327 -0.30654 0.25263 -0.21767 -0.0052903 0.071565 -0.32139 -0.10484 -0.42014 -0.31331 -0.08261 0.52241 0.47786 0.0030827 0.15912 -0.55468 0.30795 0.098799 -0.4335 -0.23861 -0.38156 0.12867 0.51185 0.016864 -0.22742 -0.23706 0.22332 -0.57675 0.12876 -0.026676 0.2568 0.087061 -0.036349 0.090995 -0.38434 -0.078211 -0.48021 0.059774 -0.15799 -0.2415 -0.084421 -0.20572 0.32268 0.16953 0.56337 0.52968 0.2146 0.012448 -0.32271 0.068483 -0.14419 -0.048393 0.030892 0.53801 -0.0075317 0.23884 0.031098 0.013217 -0.068782 -0.26236 0.65439 -0.16584 0.16329 -0.51603 0.1795 -0.021617 -0.30077 -0.57137 0.24094 -0.026033 -0.28526 0.2339 0.11391 0.48676 0.47894 0.22032 0.39687 -0.028216 -0.28308 -0.50959 0.098204 0.18576 0.010609 0.036507 0.22568 0.086508 0.43147 -0.091942 0.26855 -0.6455 -0.22452 0.080538 -0.53317 0.17337 0.13107 -0.014567 -0.020262 0.5829 0.29061 -0.13824 0.1324 -0.029545 0.43008 -0.348 0.13541 -0.0036551 -0.11194 -0.070193 -0.10304 0.071312 -0.30018 -0.11629 -0.11028 0.15995 -0.25887 0.1663 0.24909 0.071508 -0.1963 0.26609 -0.2801 -0.51986 -0.1814 -0.056875 -0.18796 -0.41047 -0.16519 0.53417 0.44438 -0.19604 0.29983 -0.20355 0.41123 0.27649 0.049063 -0.23476 0.20715 -0.5367 -0.16634 -0.12406 0.22381 0.1234 0.058045 -0.19587 -0.073491 -0.30564 -0.14267 0.15386 0.23931 0.15989 -0.19555 0.0068506 -0.021827 -0.20533 -0.15127 -0.42608 0.61962 0.042183 -0.12657 -0.1702 0.34173 -0.35439 0.15989 -0.088198 -0.17964 -0.14197 -0.21206 0.3216 -0.28019 0.5037 -0.317 -0.074178 -0.09285 -0.47435 -0.052024 -0.33678 0.26494 -0.53852 -0.045459 0.057679 0.56036 -0.32247 -0.43313 -0.1431 
5 0.30876 0.16063 -0.28324 0.097409 0.18059 0.19068 -0.12079 0.36634 0.26442 -0.089315 0.16826 0.19568 -0.18827 -0.28991 -0.56453 0.078948 0.15292 -0.17487 0.68178 0.089142 0.27116 0.5213 -0.29034 -0.63886 -0.19194 -0.35041 -0.34933 0.16821 0.75225 -0.081478 0.05514 -0.75578 -0.16805 0.35051 -0.39292 -0.098869 -0.24344 -0.12072 0.24385 0.053078 0.043681 -0.62431 -0.01942 -0.27043 0.0087597 0.11069 0.17351 -0.19847 0.024501 -0.002712 -0.17125 -0.062301 -0.19044 0.12606 -0.068132 0.10498 0.37173 -0.10377 0.072848 0.40058 0.26109 0.26467 -0.12221 0.25137 -0.42039 -0.01253 -0.56814 -0.13294 -0.042347 0.33796 -0.12545 0.37883 0.45539 0.050376 0.29014 -0.35982 0.10616 -0.063658 0.067896 -0.11909 0.24388 0.038879 -0.078194 -0.62702 -0.00082712 0.033693 -0.21891 0.15419 -0.24142 0.39285 -0.30736 0.10243 0.3456 -0.17762 -0.6148 -0.24014 0.27104 0.14773 0.42133 0.42268 0.11852 -0.026303 0.29793 0.19823 0.2045 -0.65357 0.18848 0.19166 0.11193 0.22837 -0.0021332 0.3755 0.21005 -0.012802 0.252 0.020293 0.29074 -0.041652 0.78051 -0.53706 0.10645 -0.032178 -0.15661 0.30168 0.11577 -0.092005 -0.47554 0.29121 -0.34368 0.29666 -0.15502 0.54912 0.041921 -0.17424 -0.28714 0.56568 0.159 -0.46492 -0.034302 0.091059 -0.30734 0.0086547 0.12033 0.46449 0.11673 -0.13067 0.40801 -0.34313 0.31239 -0.026452 0.081106 0.036045 0.044947 -0.54838 0.031516 0.33888 -0.31761 -0.19447 0.027183 0.043543 0.39881 -0.37656 -0.26702 -0.24163 -0.12315 0.54744 -0.40555 0.075885 -0.17804 -0.028162 -0.56678 -0.22301 0.6204 0.65033 0.015794 -0.13109 -0.15333 -0.49173 0.29549 -0.34008 -0.15473 -0.87909 -0.019837 0.23104 -0.10313 -0.021769 0.23155 -0.35472 0.084588 -0.51823 0.46804 -0.68707 0.5746 0.024308 0.54884 0.19845 0.51912 -0.089289 0.17045 0.12161 
500s 0.61879 -0.20086 0.22235 -0.35776 0.056689 0.38466 -0.65024 -0.34542 0.21061 0.24045 0.17249 0.35997 -0.06547 0.27025 0.10473 0.15037 0.45683 -0.32201 0.30081 -0.099351 -0.063462 0.14944 -0.043558 -0.46764 -0.12852 0.023453 0.016388 0.075536 0.16866 0.10339 -0.031892 -0.26054 -0.14176 0.19267 0.22129 0.026035 0.42228 -0.12092 0.022891 -0.010776 -0.19652 -0.24215 0.29474 -0.29841 -0.20382 -0.050585 0.56236 0.32784 0.53589 0.1569 0.30445 -0.13782 0.26311 -0.001605 -0.23923 -0.079608 0.17027 -0.40341 -0.026535 0.54032 0.37973 0.089788 0.17181 0.19311 -0.35414 -0.12543 -0.038671 -0.20657 -0.3388 0.18021 -0.26058 -0.09334 0.10596 -0.053595 -0.10687 -0.089539 -0.031011 -0.15736 0.22477 0.015004 -0.11258 0.35382 -0.05413 -0.32117 -0.12915 -0.19007 -0.11693 0.084691 -0.27058 -0.0083553 0.2696 -0.21391 0.22592 -0.23113 -0.46433 -0.36339 -0.17701 0.10492 -0.24243 -0.13729 -0.13398 -0.3821 0.50339 -0.24691 0.29775 -0.30174 0.34721 0.1455 0.3807 0.0085993 0.22712 0.20298 -0.071265 0.12246 0.19128 0.024563 -0.29781 -0.11008 0.11961 -0.41199 -0.25694 0.24468 -0.32067 0.0078834 -0.077412 0.066087 -0.02064 0.12232 -0.30534 0.4577 -0.29427 0.11247 -0.081473 -0.1089 -0.07425 -0.11785 0.099479 -0.35595 -0.096107 -0.18336 -0.16612 0.36385 -0.45085 0.17302 0.16039 -0.14902 0.3436 0.022095 0.44491 -0.037111 0.11687 -0.38416 -0.076494 -0.25009 -0.22422 -0.14529 0.2141 -0.15632 -0.16239 0.035906 -0.15019 -0.19469 0.089198 0.39368 0.094076 -0.012747 -0.42195 0.05967 0.38812 0.21365 0.32262 0.27053 -0.040961 0.20665 -0.22057 0.08826 0.047449 -0.077947 -0.21139 -0.24251 -0.12982 -0.021568 0.086692 0.047563 -0.26879 -0.0056884 -0.036898 -0.36384 -0.13607 -0.33385 0.014113 0.025095 -0.0057785 -0.24048 0.46121 -0.12838 -0.21188 0.2374 0.0096653 -0.10064 
59 0.033667 -0.019356 -0.59675 -0.39908 0.39607 0.20242 0.25134 -0.37356 -0.25433 0.1005 0.3237 0.13886 0.078301 0.35939 -0.76992 -0.20313 0.33278 -0.31846 0.21666 -0.51848 -0.49531 0.38587 -0.033221 -0.15962 0.25699 0.31225 -0.32586 -0.36195 0.3273 0.603 0.074337 -0.11998 -0.034282 0.25246 -0.38037 -0.021323 -0.007016 -0.50153 0.44748 0.35394 -0.46698 -0.35394 0.20531 0.0035704 0.17568 -0.018934 -0.10659 0.69377 0.30508 0.50333 -0.23602 -0.001175 -0.26109 0.3058 0.25048 -0.08246 -0.19458 0.1671 0.096978 0.41977 0.15563 -0.06373 0.044913 -0.024468 -0.083292 -0.054385 0.02822 -0.17076 -0.023059 0.63776 -0.34238 -0.33086 0.20923 0.27103 -0.0085796 -0.16765 0.71475 -0.49175 -0.10137 -0.047712 -0.47263 0.35179 0.23117 0.058103 -0.071816 -0.11465 -0.25746 -0.035834 -0.3752 0.050828 0.47558 -0.017188 0.68449 -0.059945 -0.55712 -0.45523 -0.14977 0.26765 -0.22923 0.03963 -0.22577 -0.077771 0.23968 0.062534 0.57958 -0.35956 0.080195 0.13462 0.20512 0.072798 -0.2201 -0.30676 0.040869 -0.26154 -0.23877 -0.2039 -0.26342 0.55589 0.13922 -0.18964 -0.4401 -0.21036 0.19496 0.0023359 -0.35816 -0.21764 -0.10862 0.25973 -0.072176 0.1901 -0.17286 -0.50444 0.11951 -0.13198 -0.21434 0.5533 -0.00035079 0.52307 -0.28852 -0.013338 -0.52196 0.25951 -0.75055 0.2123 0.0022658 -0.11622 0.22283 -0.091426 -0.22968 0.017718 0.11509 -0.48437 0.54488 -0.49818 -0.37179 -0.35892 -0.25319 0.10508 -0.47623 0.06211 0.2858 -0.30274 0.37125 0.087395 0.089109 0.25656 -0.17041 0.21462 -0.32066 0.21061 0.24667 0.16683 0.25303 -0.17084 0.15424 0.035895 -0.054764 -0.22048 -0.11394 -0.058093 -0.35269 -0.90859 0.18544 -0.24224 -0.22289 -0.47731 -0.51654 -0.014395 0.22859 -0.34703 0.070104 -0.12668 0.22623 -0.29755 0.16341 -0.11962 0.10954 0.14751 -0.18476 0.036786 
6 0.51744 0.41417 -0.32465 -0.19088 0.40971 0.25804 -0.17449 0.079906 0.013639 0.23029 -0.019074 -0.013269 0.064186 -0.21356 0.085402 -0.15643 -0.00087445 -0.42431 0.29785 -0.121 -0.29665 0.46261 -0.16974 -0.42152 -0.47731 -0.36388 -0.059147 0.27971 0.12655 0.015974 0.13372 0.066867 -0.35098 0.21197 -0.34523 -0.67725 -0.10277 0.37873 -0.21774 0.11756 -0.02437 -0.088085 0.2472 -0.17443 0.30967 0.38782 -0.16752 0.030073 -0.44282 0.17242 0.046045 -0.13179 -0.3965 -0.047239 -0.45061 0.24198 -0.12958 0.04073 0.12593 0.30391 0.31561 0.4184 0.28043 0.84486 0.065219 -0.2924 -0.076013 -0.18919 -0.50371 0.31924 -0.32244 -0.11529 0.088485 0.14493 0.44662 0.05027 0.19969 -0.14042 0.096349 -0.2638 0.13659 0.21034 0.035423 -0.74265 -0.35337 -0.005901 -0.24758 0.047265 -0.09382 0.57779 0.051289 0.11416 0.097858 0.16211 -0.52826 -0.32038 -0.16441 0.058317 -0.16993 0.17341 0.051238 -0.067791 0.26554 -0.37338 0.51104 -0.41712 -0.069105 0.026839 -0.0098033 0.16872 0.3411 -0.38098 -0.0005342 0.027355 0.51631 -0.24618 0.047154 0.057646 0.47652 0.2225 -0.51113 -0.011545 -0.11232 0.006814 -0.34454 0.42779 -0.34784 0.21781 -0.40962 -0.084054 -0.11489 0.3013 0.30352 -0.32507 -0.19374 0.60589 -0.30647 -0.29556 -0.043406 -0.13541 -0.31816 -0.27473 0.045767 0.50398 0.10335 -0.48701 0.30941 -0.078964 0.13997 0.086104 0.0026813 -0.34675 0.2431 -0.58716 -0.25471 -0.031582 0.33258 -0.31852 -0.24704 -0.22956 -0.084397 -0.23396 -0.13204 0.018432 0.19775 0.24368 -0.25801 0.31614 0.13634 -0.042321 -0.47778 -0.12801 0.32675 0.098256 -0.23618 -0.44597 -0.24311 0.018747 0.29145 -0.071842 0.22077 -0.20052 8.2371e-05 0.118 0.027253 0.13538 0.42933 -0.28752 -0.058975 -0.37796 -0.42806 -0.34871 0.16881 -0.52063 0.19836 0.34067 0.62318 -0.036329 -0.085306 0.13688 
67 -0.0080489 -0.41984 0.017348 -0.17659 0.22526 0.26215 0.54581 -0.52976 -0.074526 0.17393 0.56597 0.12897 0.12854 0.26461 -0.57575 0.1558 0.3333 -0.671 0.62529 -0.72237 -0.19923 0.65875 -0.10436 -0.5004 0.28582 -0.51245 -0.29338 0.34718 -0.0047951 0.63386 0.28415 -0.48465 0.032952 0.52058 0.24768 -0.41425 0.49027 0.15102 0.20312 -0.2891 -0.0023171 -0.19308 -0.17129 0.11305 -0.34077 0.23016 -0.33496 0.35094 -0.14823 -0.33448 -0.14462 0.010936 -0.067663 0.037831 -0.13962 -0.037988 0.13017 0.34672 -0.010278 0.64716 -0.21227 0.56163 0.18834 -0.11394 -0.18813 -0.13257 0.087346 -0.065767 0.012741 0.53652 -0.23118 -0.29233 0.51674 0.12886 -0.15102 -0.023639 0.28924 -0.50725 0.099687 -0.018945 -0.39253 0.58266 -0.047129 -0.36922 0.36955 -0.20355 -0.35 -0.0043247 -0.052478 -0.0039275 0.40939 -0.02629 0.45061 -0.33073 -0.67573 -0.67516 -0.11677 0.21333 -0.093926 -0.053064 0.012536 0.017196 0.10146 0.45408 0.8037 -0.17765 0.6149 -0.049146 0.14122 -0.015078 -0.087299 -0.23732 0.09345 -0.15738 -0.14044 -0.057417 -0.40308 0.45013 0.49933 -0.1023 -0.67809 0.18236 0.48229 0.10263 -0.86115 -0.7277 -0.2274 0.26257 -0.2839 0.23666 0.28907 -0.64257 0.087157 -0.19595 -0.09242 0.69508 0.098371 0.19321 -0.0016035 -0.28087 -0.19253 0.049892 -0.47446 0.47991 0.053351 -0.55265 0.38457 -0.37917 -0.10296 0.055475 -0.12262 -0.60926 0.25026 -0.030902 -0.32212 -0.33348 0.37526 -0.31816 -0.011713 -0.072287 0.15779 -0.52822 -0.15213 -0.18326 0.017352 0.51551 -0.26579 0.45279 -0.36793 0.15242 0.26692 0.06973 0.20903 -0.11271 -0.026441 -0.38955 0.056923 -0.39783 0.14476 0.079907 -0.45645 -1.0133 0.034638 0.29605 -0.093938 0.10365 -0.55941 -0.14872 0.33401 0.14269 -0.28448 -0.53729 0.18608 -0.16731 0.44712 -0.17503 0.26038 0.18451 0.21337 -0.18812 
7 0.041033 -0.38302 0.05537 -0.36366 0.27654 0.26182 0.35878 -0.4668 0.071847 -0.1636 0.081999 0.29602 -0.072697 -0.16405 -0.11404 0.046637 0.080153 -0.11001 -0.27389 -0.44726 -0.17961 0.0073717 -0.24369 0.16068 -0.37794 0.10355 -0.4363 0.55365 0.5385 -0.40265 0.21129 -0.38091 -0.14255 0.11103 -0.51871 -0.14308 -0.45498 -0.50666 -0.17377 0.33579 -0.016136 0.064753 0.016662 -0.36418 0.18032 -0.098345 0.33966 0.041456 -0.087694 0.33944 -0.1327 -0.49804 -0.12206 0.23814 -0.14688 0.075954 -0.13674 0.12264 0.08886 0.26763 0.15097 0.40214 0.07411 0.29001 0.02403 0.27347 0.17276 -0.41434 -0.46637 0.098134 -0.23633 0.34633 0.26134 0.16964 0.16936 -0.051321 0.31778 0.0063206 0.19534 -0.75974 -0.030121 0.29539 0.023179 -0.74009 -0.34234 -0.0014079 -0.33384 0.12963 -0.2966 0.23714 0.25012 0.22947 0.40541 -0.10783 -0.73758 -0.34708 -0.21925 0.14592 0.022685 0.50526 0.053321 -0.37298 0.21668 -0.075006 0.19537 -0.36538 0.1538 0.62129 0.050079 0.46573 0.049582 -0.20117 -0.068818 0.11307 0.62627 0.13203 0.26095 0.075973 0.58719 0.23012 -0.16736 0.069059 -0.50214 0.13893 -0.12742 0.06462 -0.58894 0.40783 -0.44949 0.46488 0.11568 0.068343 0.10415 -0.21183 -0.39544 0.25783 -0.077143 -0.27516 -0.39653 -0.51084 -0.68872 -0.28272 -0.18429 0.46925 0.057126 -0.0026268 0.20946 0.034398 -0.03974 0.013625 -0.36458 -0.0038485 0.37215 -0.2901 0.15642 -0.39377 0.0647 -0.18643 0.13611 -0.16095 0.25876 -0.16131 -0.23305 0.32539 -0.058435 0.38705 -0.62128 0.28912 0.093739 -0.22384 0.11576 0.26245 0.4194 -0.10876 -0.11417 -0.37867 0.03362 -0.19795 -0.35236 -0.3828 -0.01496 -0.18034 -0.53144 0.37959 -0.029639 0.43137 0.25999 0.21883 0.31898 -0.22693 -0.24383 -0.45312 0.31231 -0.17473 0.024398 0.26961 0.1793 -0.4338 -0.21299 0.16463 
7.2 0.067372 -0.32676 -0.376 -0.49653 0.11671 0.07801 -0.17306 -0.59003 -0.051382 0.29965 0.3225 0.42436 0.12551 0.074984 -0.11796 -0.51772 0.37499 -0.32291 0.11767 -0.53455 -0.284 0.022789 -0.25365 -0.063284 -0.22814 0.23758 0.13383 0.44952 -0.022077 -0.051603 0.10479 -0.30006 -0.12918 0.54028 -0.56453 0.034851 0.61424 -0.41618 0.15099 -0.015723 -0.13118 -0.081473 0.32373 -0.062481 0.10015 -0.32611 0.2561 0.12771 0.36679 0.34181 -0.39691 -0.0085817 -0.011525 -0.08958 -0.0032626 0.34111 -0.34645 -0.27157 0.11861 0.45375 0.17811 0.33894 -0.084535 0.1835 0.088293 -0.24745 0.049554 -0.48025 -0.16624 0.31556 -0.098055 -0.42517 -0.11305 0.11448 -0.020317 0.047281 0.87747 -0.37804 0.19193 -0.36847 -0.7899 0.75403 0.33184 -0.036796 -0.35283 0.23478 -0.21762 -0.099773 -0.49697 -0.080055 0.025442 -0.2641 0.043116 -0.17647 -0.306 -0.53412 -0.29518 0.28788 -0.38022 0.26028 -0.026061 0.14088 0.47435 0.48457 0.40346 -0.32628 0.27872 0.44107 0.24052 0.043219 0.054486 0.10542 -0.37748 -0.34079 0.39943 -0.019778 -0.038109 0.14539 0.38543 -0.010157 -0.25132 -0.16006 -0.34943 0.13294 0.30791 -0.13319 -0.30866 0.43757 -0.25087 0.12565 -0.38736 -0.32893 -0.27448 -0.12679 -0.25106 -0.020279 0.25793 -0.19161 0.087767 -0.37888 -0.24793 0.43766 -0.41906 -0.45506 0.13201 0.011254 0.58854 -0.33612 0.24388 -0.18983 0.37697 -0.51872 0.031474 -0.33702 0.26548 -0.53361 0.4003 0.11829 -0.68566 -0.15154 0.26639 -0.42824 -0.13761 -0.12947 0.29754 0.21725 -0.39415 0.16142 0.1232 0.096322 0.48799 0.34224 -0.2478 0.35328 -0.044319 -0.3281 0.1926 0.23035 -0.44691 -0.39207 -0.071594 -0.44828 0.20395 0.18167 -0.50726 -0.44443 -0.18742 -0.26529 0.57007 -0.53995 -0.40253 -0.69267 -0.21477 -0.43526 0.33249 0.21031 0.16433 0.30564 -0.37983 -0.62872 
71 0.089138 -0.10166 -0.19158 -0.68984 0.24717 0.17001 0.5267 -0.34994 0.11956 0.064059 0.46947 0.19872 0.3803 0.29425 -0.53281 -0.23934 -0.057505 -0.094701 0.22606 -0.14299 -0.14702 0.29389 -0.080416 -0.40248 0.49192 -0.35737 -0.30798 0.021696 0.38659 0.062368 0.23778 -0.20006 0.10251 0.13604 -0.42349 -0.20061 0.0074157 -0.26427 0.2601 -0.012481 -0.63009 -0.03421 0.47168 0.0074162 -0.2439 0.041072 0.058356 0.064058 0.1337 0.096046 0.16893 -0.074011 -0.40216 -0.029249 -0.03048 -0.24323 0.076414 0.22835 0.34404 0.34465 0.19835 0.15084 0.01301 0.022381 -0.48784 -0.15987 -0.2124 -0.10359 0.20069 0.30686 -0.5643 -0.35469 0.058578 0.098901 0.38794 0.10098 0.75122 -0.53027 0.28637 -0.37737 0.022308 0.048169 0.27234 0.025525 0.094232 0.00074226 0.15453 0.023477 -0.032231 -0.19032 0.098319 -0.14757 0.31865 -0.46562 -0.73018 -0.29564 0.1724 0.45215 -0.33873 0.35219 -0.016024 -0.062525 0.58129 -0.12799 0.56751 -0.091732 0.51181 0.085796 0.075667 0.28249 -0.11709 -0.17803 0.35684 -0.28369 0.12134 -0.10814 -0.54148 0.68619 0.48975 -0.056166 -0.10501 -0.027888 0.060415 -0.081904 -0.24357 -0.24558 -0.11361 0.16126 -0.17615 0.11401 -0.23859 -0.24594 0.47377 -0.1053 -0.3549 0.30569 0.22056 0.056402 0.17095 -0.45769 -0.33229 0.4512 -0.38614 0.38194 0.29356 -0.014771 0.51055 -0.23389 0.091817 0.00059268 -0.048041 -0.30683 0.11284 -0.36692 -0.27237 -0.10755 0.2853 -0.14402 -0.029272 -0.31496 0.033343 -0.28429 -0.073567 0.079965 0.11829 0.19522 -0.67362 0.40766 -0.17599 -0.04367 0.21906 0.28118 0.20483 -0.14076 -0.040775 -0.0057609 -0.0032807 -0.54029 -0.28517 -0.22371 -0.39407 -0.58444 -0.15728 0.087415 0.089024 -0.18057 -0.073857 -0.14592 0.037938 0.049016 -0.24522 -0.28663 0.1735 -0.099154 0.51073 0.0018202 0.32782 0.099117 0.020315 0.14607 
72985 0.036828 0.031225 -0.0098388 -0.088461 0.13353 0.03158 -0.040851 -0.14814 -0.024144 0.1346 0.22524 0.059379 0.02853 0.073871 -0.2076 -0.02491 0.094727 -0.030595 0.12557 -0.094915 -0.20496 0.27608 0.0011442 -0.13363 0.0098725 -0.052807 -0.13111 0.1676 0.014634 0.13348 0.12656 -0.22248 -0.10696 0.012342 -0.10967 -0.025766 0.056217 0.001266 0.080243 0.136 -0.048452 -0.21604 0.0030025 0.13027 -0.036755 -0.086798 0.12124 0.20882 0.092423 0.077401 -0.14006 -0.061655 -0.20465 0.17004 0.015501 -0.054342 0.068976 0.033923 -8.3028e-05 0.10741 0.062453 0.075095 0.028224 0.070621 0.0090724 -0.0081803 -0.088136 -0.055068 0.00317 0.25513 -0.1595 -0.14108 -0.012975 -0.058707 0.025097 0.0877 0.2983 -0.13108 0.069593 -0.016835 -0.065312 0.17057 -0.020072 0.065209 -0.059371 -0.14907 -0.17753 0.062757 -0.11747 -0.092083 0.045131 -0.071368 0.30058 -0.020676 -0.34571 -0.20931 0.042613 0.13157 -0.095709 0.015938 -0.035854 0.088882 0.19864 0.10098 0.26757 -0.079017 0.031287 0.13741 0.088616 0.080215 -0.0031977 0.045683 0.012898 -0.076873 0.058768 -0.17542 -0.15742 0.13261 0.15579 0.05219 -0.16746 0.012613 -0.0080974 -0.00030233 -0.025301 -0.01772 -0.12979 0.081629 -0.16062 0.16089 -0.10173 -0.050166 -0.022154 0.076779 -0.091429 0.10273 0.0045171 -0.10731 -0.0063758 -0.11874 -0.3245 0.098153 -0.10103 -0.15343 0.14708 -0.037349 0.15744 0.017626 0.065032 0.068972 0.021355 -0.16317 0.24448 -0.04547 -0.095407 -0.10802 -0.044873 -0.011091 -0.11714 -0.064497 0.17935 -0.20877 -0.077772 -0.070233 0.066242 0.021364 -0.06064 0.083449 -0.0034547 0.0016339 -0.1251 0.090214 -0.05598 0.10339 -0.12899 0.052594 -0.0030705 -0.12574 -0.16323 -0.13443 0.014244 -0.062917 -0.0284 0.079213 -0.081485 -0.011349 -0.035345 -0.00022722 0.023027 -0.053149 -0.040885 -0.14288 -0.050885 -0.17109 0.016208 0.094086 0.17727 0.10229 -0.0070235 -0.0084672 
8 0.31853 -0.30862 -0.46573 -0.32698 0.183 0.010965 0.24176 -0.25954 -0.0099759 0.13544 -0.22173 0.33717 -0.18969 -0.038799 -0.16512 0.18768 0.14685 -0.34143 0.52942 -0.26567 -0.20523 -0.11973 -0.5069 -0.57614 -0.31166 -0.14385 -0.47459 0.21811 0.25297 -0.15603 -0.16889 -0.35005 0.1803 -0.24642 -0.70712 -0.78343 0.13619 0.29236 -0.27441 -0.15163 -0.16206 -0.19954 0.21238 -0.087609 -0.049209 -0.26239 0.14404 -0.12138 -0.21306 -0.055333 0.25533 -0.10403 -0.23636 0.29352 -0.094931 0.3109 0.031414 0.15405 -0.3416 0.29116 0.45256 0.58392 0.35744 -0.074511 -0.14757 0.071741 -0.22366 -0.41997 0.019965 0.089986 -0.32286 0.32223 0.087544 0.34745 0.22507 0.34892 0.72711 -0.026595 0.13603 -0.28086 -0.27177 0.092181 -0.17362 -0.4175 -0.16865 -0.074055 -0.57986 0.33965 -0.18793 0.030546 0.04729 0.35864 0.57581 -0.36061 -0.65542 -0.16422 -0.41995 0.11596 0.044078 0.21625 0.068583 0.090123 0.33011 0.34792 0.49803 -0.36434 0.26617 0.24032 -0.29799 0.15652 0.6777 -0.64462 -0.22234 0.2529 0.3073 -0.29687 -0.069518 -0.30994 0.61582 0.16298 0.013831 -0.11496 -0.46049 0.2295 0.047757 0.18524 -0.42737 0.39759 -0.040246 0.27015 -0.043743 0.025498 -0.22286 0.3184 0.46957 0.22266 0.035985 -0.49579 0.081822 -0.32226 -0.24539 0.055881 -0.18592 0.21095 0.33265 -0.087468 0.30602 0.091669 0.48036 0.39111 -0.12957 -0.073742 0.47118 -0.13472 0.026088 -0.074449 0.53358 -0.39965 -0.13818 -0.34912 -0.083096 -0.20986 0.0485 0.60566 0.3784 0.62532 -0.23601 0.33301 -0.081281 -0.0765 -0.43582 0.011391 0.87536 0.19946 -0.23949 -0.36352 -0.21827 -0.093094 0.047673 -0.31846 -0.034135 -0.53971 -0.59087 0.3707 -0.31953 0.18662 -0.17406 0.66986 0.13723 -0.0027709 -0.079755 -0.17375 0.14434 -0.23626 0.5249 0.13434 0.38881 -0.10576 0.017788 0.050847 
80 -0.083413 0.14534 0.71185 -0.42098 0.0063774 0.35117 -0.037392 -0.0018553 -0.52978 -0.0062934 0.38922 -0.17897 0.4952 0.13526 -0.2225 0.28609 0.38893 -0.20103 -0.026682 0.36385 -0.40593 0.59203 -0.24585 -0.3816 -0.15237 -0.056052 -0.13267 0.33553 -0.28365 0.039453 0.033829 -0.61047 -0.32953 -0.10571 -0.029822 0.1242 0.25974 -0.22696 0.32751 0.30098 -0.20619 -0.31103 0.12738 -0.079199 -0.16181 -0.17206 0.24006 0.25291 -0.029064 -0.19518 0.069234 -0.38956 0.043248 -0.20815 -0.42498 -0.16323 0.041829 0.35722 0.2972 0.47306 0.21032 0.39528 -0.37768 0.44004 -0.21919 -0.32355 -0.24612 0.47884 -0.11909 0.38874 -0.38049 -0.24101 0.028729 -0.21201 -0.026923 -0.14139 0.48214 -0.19268 0.40011 -0.26357 -0.36667 0.1048 -0.32879 -0.3054 0.23437 -0.0043829 0.038584 -0.013489 -0.63214 0.71578 0.036481 0.008654 0.22742 -0.026171 -0.81918 -0.012049 -0.21516 0.52174 -0.50107 -0.44465 -0.3389 0.14641 0.87152 -0.31987 0.27522 -0.47766 -0.017741 -0.20307 -0.30989 0.3368 0.10527 0.21815 0.018327 -0.26642 0.29092 -0.081886 -0.17309 -0.26426 0.040322 -0.29057 -0.23469 0.23824 0.45641 0.048022 0.018629 -0.55187 0.030112 0.58997 0.16301 -0.028326 0.058891 -0.075645 0.175 -0.20136 -0.77177 0.05586 0.089236 0.13898 0.13651 0.12032 -0.45851 0.55537 -0.33028 -0.17656 0.5813 -0.13577 0.51469 -0.47553 0.27223 -0.22677 0.063097 -0.44896 0.22953 0.027882 -0.72601 -0.076352 0.28458 -0.04977 0.57829 -0.06939 0.65574 -0.15902 0.15236 0.18803 0.1417 -0.28799 -0.92137 -0.19181 0.17758 -0.030307 -0.21982 0.32853 0.17126 -0.24833 0.00081258 0.29322 -0.13208 -0.24812 -0.40325 -0.16832 -0.33934 -0.021725 0.28662 0.18804 -0.32801 -0.26761 0.069981 -0.2755 0.252 -0.62569 -0.21722 -0.28355 -0.04724 -0.4217 0.20498 0.10403 0.32636 0.1409 0.29147 -0.10588 
80s 0.55653 -0.078739 0.64498 -0.25581 -0.043971 0.30543 -0.47767 -0.11229 0.087314 -0.056671 0.21581 0.39711 -0.15464 0.4534 0.12148 0.29904 0.6898 -0.26851 0.16692 -0.025566 -0.042877 0.52416 0.30519 -0.44936 0.4092 0.36364 0.048888 -0.046047 0.016425 0.17744 0.11074 -0.046778 0.071022 0.06658 -0.033109 0.26403 0.46307 -0.15255 0.20535 -0.13732 -0.17643 -0.29365 0.43505 -0.083294 -0.44694 -0.063804 0.75243 0.55832 0.27076 0.079835 0.10578 -0.37983 0.28227 0.11731 -0.12761 -0.19387 0.19538 -0.11545 -0.11155 0.40076 0.40491 0.14231 -0.053022 0.43519 -0.22788 -0.2237 -0.13249 0.026277 -0.35895 -0.04518 -0.1664 -0.43981 -0.020681 -0.26433 -0.10488 0.17183 0.080605 -0.4165 0.10954 -0.23327 -0.56286 0.49611 0.13818 -0.076674 0.039879 -0.31948 0.14684 0.13926 -0.29105 0.080639 0.46783 -0.36291 0.35326 -0.051569 -0.60119 -0.17632 -0.0012407 0.14969 -0.37308 -0.29887 -0.042434 -0.136 0.75188 -0.39742 0.33431 -0.30879 0.34493 -0.0019348 0.16631 0.31875 0.4127 0.13717 0.037117 -0.12577 -0.029197 -0.1166 -0.39059 0.084916 0.1317 -0.25603 -0.38494 0.4775 0.1043 0.068902 -0.006293 -0.14896 0.25517 0.19385 -0.098228 0.55682 -0.40014 -0.053842 0.014449 -0.071011 -0.45018 -0.065633 -0.084687 -0.28999 0.046795 -0.070099 -0.21425 0.66273 -0.48682 -0.0511 0.28932 -0.05056 0.3882 -0.011117 0.7077 0.20395 0.40192 -0.66206 0.13453 -0.24483 -0.045993 -0.37863 0.18155 -0.01872 0.065457 0.068502 -0.0012437 -0.15173 0.34887 0.42247 -0.039558 -0.1351 -0.67372 -0.26301 0.53464 0.19955 0.14455 0.59169 -0.26973 -0.047988 -0.12973 0.1969 -0.34803 0.29723 -0.14752 0.001806 -0.46868 0.20362 0.1637 -0.070194 -0.32652 -0.081478 -0.26066 -0.30964 0.31781 -0.18699 -0.24171 0.0087234 -0.13703 -0.1738 0.4082 -0.092394 -0.097339 0.14198 0.19547 -0.29003 
85 -0.084517 0.19866 0.095133 -0.056209 0.30599 0.2127 -0.07596 -0.11528 -0.28811 0.15906 0.11726 0.19689 0.29687 0.51983 -0.34949 0.097772 0.47026 -0.15108 0.39428 -0.37032 -0.58779 0.50263 0.0091507 -0.29663 -0.088087 0.22162 -0.73491 0.28888 -0.081404 0.081894 0.043265 -0.5039 -0.23738 0.012096 -0.40736 0.080976 0.82784 -0.12737 0.020999 -0.14712 -0.089365 -0.38358 -0.069309 -0.15001 -0.27439 -0.13857 0.08261 0.37681 -0.064308 0.018409 -0.10865 -0.33874 -0.49664 0.5754 -0.24674 -0.24484 0.12818 0.33261 0.14904 0.20682 -0.022595 0.46646 -0.158 -0.2265 -0.26823 -0.067634 -0.24993 -0.10964 0.17226 0.45382 -0.20669 -0.78622 0.1171 0.47464 -0.24735 0.40498 0.89418 -0.38172 0.021343 -0.32631 -0.11194 0.02998 0.007824 -0.071151 -0.033423 -0.18302 -0.28769 0.15877 -0.51096 0.001756 0.0021095 -0.099801 0.50681 -0.205 -0.67233 -0.18506 -0.051446 0.10869 -0.27138 0.050642 -0.28611 0.12646 0.6725 -0.10128 0.55173 -0.57384 0.26949 0.31793 0.044227 0.053667 0.0045894 0.26102 0.005183 -0.20804 0.3481 0.014282 -0.22144 0.10033 0.27454 -0.11932 -0.19336 0.21625 0.29302 -0.074248 -0.42092 -0.26674 -0.10237 0.1921 -0.17063 0.34622 -0.040281 -0.55751 0.11911 0.092297 -0.37456 0.23764 -0.076397 0.18195 0.088294 -0.30899 -0.16574 0.078239 -0.34627 -0.079149 0.49196 -0.11901 0.039285 -0.54404 0.25809 -0.22488 -0.050368 -0.33858 0.71895 -0.2185 -0.12409 -0.11926 0.2223 0.14559 -0.25375 0.0074135 0.66463 -0.059476 -0.31268 0.060993 0.11316 0.28479 -0.59454 -0.066429 -0.076533 0.30501 0.057842 -0.10595 -0.29717 0.15527 -0.1007 0.11205 0.2825 -0.037184 -0.50574 -0.66843 -0.26715 -0.26168 -0.28002 0.22119 -0.11904 -0.079992 -0.22654 0.30795 0.096072 -0.30432 -0.54492 -0.41431 -0.77711 -0.87754 0.1831 0.071937 0.011825 0.15948 0.012439 -0.25355 
850 0.001568 0.080194 0.39013 -0.035198 -0.45443 0.085195 -0.14207 -0.27863 -0.075104 0.076567 0.44085 0.29439 0.1494 0.42645 -0.57029 -0.034276 0.17535 -0.21172 0.35162 0.33632 -0.036874 0.5151 -0.16133 -0.34352 -0.097784 0.16938 -0.43799 0.23911 0.090727 -0.15722 -0.099338 -0.6853 -0.29482 0.16761 -0.20806 -0.28509 0.22108 -0.098704 -0.012452 0.56882 -0.19268 -0.87824 0.5807 -0.46992 -0.29847 -0.15309 -0.090198 0.21218 0.28795 0.29546 -0.014187 0.1186 0.33484 -0.039505 -0.18877 -0.16378 -0.1088 -0.62835 0.21887 0.29391 0.28835 0.50662 0.44451 0.23093 -0.62116 -0.020889 -0.14072 -0.20006 0.10137 0.5088 -0.15533 -0.095859 0.15263 -0.051431 -0.034408 -0.10761 0.9257 -0.064553 0.20414 -0.16754 -0.13662 0.07707 0.1788 -0.36067 -0.030994 0.036135 -0.59526 0.17678 -0.44551 0.039801 0.20036 -0.017299 0.37303 -0.32877 -0.76929 -0.80035 -0.39477 0.11958 -0.16318 0.26913 -0.12709 -0.4499 0.59028 0.13149 0.46732 -0.60491 0.60323 0.22597 0.22297 0.39256 0.12785 0.18696 0.21062 -0.10312 0.37178 -0.015766 -0.43502 0.11196 0.479 -0.051932 -0.23281 -0.29854 -0.29302 0.23538 0.079799 -0.35738 -0.10109 0.54841 -0.47707 0.52445 -0.099525 0.52498 -0.49012 -0.43749 -0.24349 0.27731 0.71911 -0.55852 -0.20855 -0.13814 -0.7047 0.19531 -0.063769 -0.19349 0.32241 -0.21367 0.38596 -0.54388 0.46899 0.099678 0.13082 -0.60072 0.36387 -0.10942 -0.0032577 -0.52027 0.3437 -0.042141 0.044145 0.30097 0.24998 -0.50401 0.20573 -0.64835 -0.0034464 0.17544 -0.42008 0.11226 0.63652 0.034043 -0.057139 0.011028 0.28888 0.26873 -0.59342 0.22646 -0.21419 -0.10925 0.13111 -0.22802 0.33766 0.035005 -0.10546 0.23688 -0.60928 -0.27766 -0.22272 -0.0754 0.24658 -0.55171 -0.30142 -0.10369 0.30688 -0.44924 0.43588 0.10835 0.27458 0.098382 -0.20806 0.12673 
87496736 0.025587 -0.033001 -0.077928 -0.11522 0.11814 0.027789 -0.061836 -0.15072 -0.04466 0.12061 0.14784 0.024365 0.0070763 0.034434 -0.2052 0.0046687 0.061255 -0.042122 0.090587 -0.13649 -0.13723 0.164 -0.033567 -0.12439 -0.030455 -0.023543 -0.079486 0.17236 -0.02058 0.02222 0.057774 -0.14856 -0.097771 0.068747 -0.098968 -0.071504 -0.017822 -0.061459 0.045739 0.10891 -0.085161 -0.15504 0.024395 0.042858 -0.024017 -0.10164 0.091558 0.17268 0.071424 0.052647 -0.090302 -0.025744 -0.12946 0.043588 0.020871 -0.025884 0.0074877 0.0016658 0.053175 0.083214 0.034974 0.11476 0.074675 0.068564 -0.00922 -0.024502 -0.030898 -0.048722 0.011385 0.15858 -0.13997 -0.070648 0.025938 0.020609 0.0081968 0.0462 0.25322 -0.09044 0.022556 0.015914 -0.11004 0.18638 0.016578 -0.0083179 -0.015626 -0.1035 -0.10278 0.06416 -0.10967 -0.061874 0.12631 -0.0089533 0.25133 -0.0097208 -0.24391 -0.10704 -0.029987 0.16149 -0.057912 0.020608 -0.028099 0.042668 0.11773 0.093047 0.24377 -0.10499 0.071424 0.10276 0.003321 0.10069 0.026082 -0.0075165 0.0025818 -0.017091 0.028836 -0.12098 -0.097069 0.080576 0.063297 -0.0045218 -0.13388 0.012002 -0.049657 0.0090581 -0.025101 -0.020051 -0.10245 0.069359 -0.11595 0.088023 -0.044642 -0.039466 0.012251 0.057317 -0.026369 0.075479 0.027918 -0.067017 0.017428 -0.1454 -0.21766 0.042099 -0.11503 -0.067363 0.11511 -0.049058 0.11727 -0.043098 0.037952 0.053473 -0.040399 -0.12197 0.14327 -0.035143 -0.068442 -0.090384 0.0097063 -0.031101 -0.13364 -0.048253 0.12816 -0.18552 -0.03403 -0.038744 0.037384 0.014907 -0.074875 0.084553 0.013121 0.018005 -0.025475 0.092063 0.024992 0.073587 -0.086716 0.0046796 -0.0033938 -0.10026 -0.11551 -0.10314 -0.018024 -0.094431 -0.017921 0.11726 -0.11417 0.026453 -0.043148 -0.027116 0.033411 -0.024747 -0.033522 -0.10301 0.018498 -0.11652 0.069137 0.028213 0.11267 0.086693 -0.047792 0.017441 
9 0.2997 -0.036022 0.0046299 -0.15873 0.11124 0.14183 -0.026489 -0.062477 0.1583 0.095457 0.27033 0.35183 0.07338 -0.26904 -0.47556 0.13166 -0.055231 -0.14133 0.16374 -0.063 -0.072694 0.0093226 0.0039601 -0.34872 -0.19414 -0.077415 -0.069928 0.3822 0.10048 -0.5601 0.047548 -0.38184 0.10422 0.1731 -0.50295 -0.45862 -0.080703 0.0651 -0.45261 -0.013761 -0.26335 -0.30404 0.13584 -0.22905 0.033962 -0.086526 -0.1318 -0.040339 -0.29018 0.059562 0.072639 -0.064712 -0.36337 0.21425 0.084305 0.32033 -0.017925 0.012854 0.061415 0.42931 0.4234 0.12255 0.3712 0.0067941 0.11998 0.1535 0.043097 -0.29002 -0.2149 0.11013 -0.51243 0.17761 0.2199 0.44874 -0.10521 0.29069 0.56234 -0.19649 0.035534 -0.064444 0.08166 0.30175 -0.28445 -0.3835 -0.63029 -0.192 0.0013386 0.23966 -0.40569 -0.029396 0.42949 -0.19791 0.69982 -0.15847 -0.55123 -0.15598 -0.10832 0.20064 0.09288 0.41887 -0.019448 -0.26881 0.31549 -0.0088099 0.57965 -0.36871 0.1358 0.38008 0.037669 0.21702 0.065504 -0.37386 -0.088021 0.24689 0.15205 0.062356 -0.079795 0.10825 0.66434 0.052647 -0.26571 0.29868 -0.65812 -0.20065 0.089862 -0.072205 -0.45454 0.39282 -0.25317 0.66787 -0.053204 0.096088 0.10411 -0.11834 0.28907 0.16499 -0.38488 -0.2105 0.36803 -0.40896 -0.32553 -0.099999 -0.025523 0.21127 0.20877 0.034619 0.25963 -0.39371 0.32282 0.15455 -0.26747 -0.38866 0.077378 0.0049626 -0.14056 -0.17034 0.010919 -0.30556 -0.18303 -0.12482 0.049992 -0.47056 -0.020949 0.47338 -0.154 0.15466 -0.23573 0.18661 -0.097814 -0.0068464 0.34965 0.31841 0.50399 -0.31302 0.12793 -0.052181 0.11339 -0.64165 -0.22919 -0.60481 -0.20216 -0.010842 -0.33092 0.33342 -0.37761 0.14446 -0.016524 0.13891 0.13003 -0.12416 0.038609 -0.47527 -0.05049 -0.27689 0.28741 -0.052771 0.27341 -0.39992 0.052695 0.19753 
90 0.13471 0.271 0.35084 -0.16734 -0.10378 0.24403 -0.2416 0.21942 -0.38343 0.46571 0.4198 0.14738 0.20471 0.32488 -0.4285 0.37467 0.53003 -0.21585 0.13697 0.14854 0.14647 0.69091 0.10108 -0.29711 0.15343 -0.10975 -0.55195 0.38176 -0.24113 -0.18011 0.054253 -0.98639 -0.57669 0.10274 -0.21467 0.08608 0.64882 -0.26543 -0.18754 0.68016 -0.22542 -0.25876 0.14912 -0.31085 -0.028847 -0.33515 0.13908 0.37271 -0.32637 0.073484 0.23443 -0.28797 -0.2996 0.13187 -0.83566 0.0039894 0.016218 0.14215 0.092342 0.38567 0.41487 0.52285 0.21982 0.035265 -0.67103 0.28659 0.077371 -0.39733 0.2499 0.24671 -0.23928 -0.27841 0.18331 -0.20679 0.051536 -0.32051 0.24151 0.14518 0.36319 0.17508 -0.28936 0.0072711 -0.35581 -0.30147 0.015942 -0.16636 0.013666 0.10798 -0.26434 0.67126 0.23004 -0.19672 0.46578 -0.31842 -0.76172 -0.15302 -0.26858 0.31407 -0.26772 0.20996 0.11137 0.069573 0.069052 0.13141 0.50441 -0.37339 -0.22219 -0.11948 -0.016447 0.096684 -0.14362 0.20055 -0.25347 -0.062872 0.18047 0.12246 -0.33656 0.0012594 -0.010664 -0.27932 0.015714 0.30412 0.45769 0.050495 -0.40009 -0.45227 0.12042 -0.11205 0.17565 0.033074 0.2715 0.0085909 0.014195 -0.31587 -0.29668 0.035951 0.50587 -0.29424 -0.11816 -0.19854 -0.80562 0.39624 -0.58067 0.42431 0.32795 -0.1684 0.29524 -0.22512 0.44335 0.22275 -0.021848 -0.079327 0.58332 -0.12986 -0.48606 -0.18303 0.21988 0.18567 0.2811 0.016065 -0.025513 -0.13921 -0.23643 -0.033021 -0.038887 -0.29481 -0.65526 0.56967 0.3275 -0.0997 -0.14855 0.11012 0.22152 0.060814 -0.34736 0.31439 -0.18168 -0.35351 -0.14827 -0.13029 -0.34796 -0.32588 -0.057747 0.24289 -0.72992 0.22836 -0.10665 0.060118 0.30339 -0.11129 -0.33138 -0.49306 -0.096331 -0.36327 0.42855 0.0034822 0.51218 -0.010728 0.47317 0.32326 
95 0.31166 -0.22333 -0.43566 -0.58174 0.50449 0.47801 0.29274 -0.2765 0.08189 0.35457 0.27586 0.14774 0.24616 0.42678 -0.56443 -0.4691 0.25035 -0.42861 0.23351 -0.45358 -0.78953 0.10512 0.010523 -0.52928 0.26405 0.24479 -0.19806 -0.020396 -0.49939 0.1254 -0.015363 -0.42409 -0.20292 0.098888 0.022631 -0.23911 0.021886 0.051572 0.15248 0.28644 -0.44324 -0.15155 -0.33102 -0.081869 -0.037857 -0.085886 0.13901 0.15883 -0.1072 0.17399 0.10055 -0.46455 -0.0091396 0.095042 -0.42994 0.045439 0.12538 0.10358 0.39206 0.4687 0.35523 0.347 -0.044303 0.0055858 -0.23316 -0.28174 0.15985 0.014119 -0.28551 0.26377 -0.21341 -0.49344 0.01458 0.19928 -0.11947 -0.21001 0.22132 -0.22166 0.0026134 0.081848 -0.52682 0.27428 -0.038715 -0.15707 -0.0072397 -0.76251 -0.45392 -0.42614 -0.44287 0.029549 0.69797 0.044325 0.35502 0.067167 -0.99744 -0.25069 -0.13464 0.16659 0.06394 -0.14908 0.17169 0.42799 -0.080543 -0.046826 0.34479 -0.67302 -0.40719 -0.034096 0.34955 0.41138 -0.18023 -0.10026 -0.015302 -0.18268 0.072227 0.039491 -0.079075 0.022623 0.20319 -0.26797 -0.65855 -0.15076 0.13991 -0.12074 -0.22734 -0.4051 -0.10791 0.04144 -0.28347 0.23016 0.1716 -0.2655 0.40362 0.26167 -0.42453 0.019203 0.40674 0.020338 0.21664 0.14843 -0.74523 0.36012 -0.2528 0.092039 0.5209 -0.15469 0.85061 -0.28323 0.23814 0.48648 0.04952 -0.69313 0.3945 -0.14581 -0.19355 -0.091902 0.15758 -0.041908 -0.39316 -0.47623 0.6344 0.21758 0.0035666 -0.015551 0.40489 0.2731 -0.72391 0.12003 -0.34976 0.29477 -0.57633 0.61939 -0.3163 -0.13596 0.10707 -0.078405 -0.066712 -0.12827 -0.32563 0.13576 -0.33957 -0.61802 -0.088755 0.24813 0.16779 -0.12039 -0.25144 -0.13755 0.3034 -0.39854 0.05171 -0.28075 -0.31579 -0.2715 0.40777 0.16254 0.27793 0.12583 0.004422 -0.17033 
a -0.038891 -0.051738 0.2197 0.094617 -0.030258 0.36943 -0.44932 -0.2456 -0.14357 0.36456 0.17882 0.43426 0.18423 -0.058433 0.36385 0.15834 0.3769 -0.46257 0.22257 -0.079956 -0.20149 0.26151 0.043565 -0.015979 0.05666 -0.01256 -0.045781 -0.052872 0.078247 0.13094 -0.2962 -0.19281 -0.13049 0.0060048 -0.39912 -0.098618 0.2451 0.26105 0.055065 -0.16031 -0.28283 -0.32458 0.31837 -0.075057 0.2713 -0.07591 0.037882 -0.06828 0.34344 0.057428 -0.096833 -0.061614 -0.59364 -0.050377 0.12535 -0.14346 0.17866 0.044569 0.040888 0.26947 0.57364 0.3091 -0.16284 0.1667 0.17292 0.26638 -0.21603 -0.22999 0.059695 0.058541 -0.055081 0.27294 0.21514 -0.090344 0.38443 -0.20231 0.73849 0.0011151 0.60154 0.096673 -0.023729 0.15594 0.15079 -0.2399 0.040413 0.082402 -0.44952 0.1589 -0.14539 0.47242 -0.01182 0.019701 0.1742 -0.16494 0.084646 -0.26966 0.21542 0.0095241 -0.24815 -0.35871 -0.075662 0.066348 0.10599 0.11413 -0.072635 0.093845 0.18771 -0.030516 0.13292 0.20775 -0.33853 0.10493 0.15691 0.07187 -0.090948 -0.1881 -0.082663 0.065304 0.018788 -0.41216 -0.47728 0.076489 -0.28806 0.106 -0.44737 -0.32293 -0.13402 -0.2313 -0.38036 0.17357 -0.31434 -0.018274 0.20193 -0.030466 -0.049247 -0.097026 -0.1191 0.23925 0.20758 -0.064891 0.013081 0.11269 -0.31049 0.053832 0.0063636 -0.087055 0.12422 -0.22839 0.13171 0.23289 -0.01095 -0.22005 -0.19036 -0.26187 -0.1389 -0.2415 0.14115 0.055153 -0.013123 0.21368 -0.067345 -0.44696 -0.12761 0.17451 -0.15294 -0.10584 -0.31123 0.0507 0.2762 -0.37336 -0.13535 0.053293 -0.055064 0.23746 -0.24876 0.051135 0.32469 -0.29229 -0.058353 -0.56278 -0.038742 -0.40351 -0.26408 0.14133 -0.30287 0.2041 -0.070394 0.073554 0.09235 -0.14259 -0.044238 -0.21207 0.11035 -0.10317 -0.063684 0.17294 0.21775 0.41535 -0.19264 -0.23514 
abdomen 0.25635 -0.42585 0.16428 -0.27804 0.21995 0.08265 -0.36239 0.11934 0.37222 0.30894 0.11847 0.35181 0.20162 0.00010961 -0.14627 -0.42184 0.18888 -0.38517 0.11235 0.20291 -0.27811 0.42234 -0.10966 -0.10061 -0.22693 -0.051628 -0.24289 0.10132 0.44688 0.53536 0.33409 -0.73463 -0.58105 -0.17371 -0.12741 -0.44301 0.63712 0.43134 0.39015 0.32471 0.35165 -0.062714 0.4334 0.49625 0.39726 0.13367 0.30998 0.04575 -0.016482 0.15864 -0.16924 0.0070084 -0.27858 0.27859 -0.24736 -0.5311 0.39512 -0.16094 0.23721 0.13256 0.21899 0.25063 0.0018756 0.2289 -0.10898 -0.21839 -0.91409 -0.38171 -0.67757 0.41513 0.45195 0.18587 0.26333 -0.12688 0.30605 0.015128 0.63354 0.26584 0.005602 -0.34126 -0.29388 -0.029379 -0.30672 -0.04643 -0.15409 -0.31214 -0.75286 0.1224 -0.16741 0.33553 -0.1162 0.14448 0.90164 0.21335 -0.37433 -0.65771 -0.059115 -0.17432 -0.27205 -0.057364 -0.48925 0.22227 0.14452 0.15393 0.36899 0.14869 -0.2366 0.60487 0.39728 0.65221 -0.126 -0.18067 -0.23933 -0.28684 0.5484 -0.03805 -0.65275 0.68184 -0.038739 -0.2542 -0.27137 -0.040088 0.31301 0.0094313 -0.44265 0.46825 -0.10548 -0.14621 -0.64967 0.2126 -0.25062 0.57555 0.10587 -0.25242 -0.18501 -0.15153 -0.0023427 0.17373 0.61655 0.17691 -0.39224 0.37797 -0.74524 0.00047355 0.0051344 -0.12475 0.33721 0.38272 0.065241 0.19434 -0.22215 -0.27633 0.51183 0.13898 -0.37525 -0.6553 -0.53846 -0.42499 0.5861 0.29554 0.20332 -0.57886 -0.089545 0.23303 0.12657 -0.083011 0.063756 -0.38378 -0.092832 -0.2686 0.22064 0.23851 0.34473 0.0007921 -0.079764 -0.16979 0.069247 -0.0035368 0.010937 -0.287 0.6638 -0.029187 0.26688 0.21417 0.41162 0.2692 0.24347 0.058634 -0.16462 0.48082 0.12984 1.1974 -0.54925 -0.10076 0.33118 0.20235 -0.024758 0.92258 -0.35925 0.081765 
about 0.33897 -0.37948 0.095139 -0.23972 0.044623 0.28949 -0.64578 -0.32378 0.24847 -0.32591 -0.011609 0.51169 -0.13442 0.037978 -0.1966 0.045669 0.34995 -0.28909 0.020749 -0.054258 -0.41834 0.051189 -0.45252 -0.3512 0.19452 -0.11684 -0.23411 -0.12011 -0.070494 0.072523 0.19482 -0.20137 0.02542 0.12674 0.56788 -0.033844 0.24944 0.50005 -0.42508 0.19236 -0.090553 0.16713 0.42355 -0.068478 0.06745 0.45548 0.25578 0.010834 0.49813 0.49251 0.049427 -0.26727 -0.34305 0.10122 0.2542 0.2448 0.26505 -0.19349 0.15037 0.2292 0.29135 -0.092664 0.24081 0.18438 -0.10136 0.34954 -0.35122 -0.14448 -0.68876 0.56722 -0.51756 0.26248 0.23834 -0.3626 -0.17514 0.034483 0.21059 -0.4793 0.30179 -0.0028049 -0.09671 0.061246 -0.091338 -0.42906 0.20797 0.2086 -0.0041996 0.14957 -0.1552 -0.26808 -0.11507 -0.44897 -0.187 -0.54718 -0.18131 -0.13562 -0.24423 -0.0011093 -0.22171 -0.26192 -0.087268 0.0027099 -0.057155 0.37123 0.51383 -0.16295 0.18416 -0.55839 0.5997 -0.072735 0.064565 0.077665 0.22893 -0.02412 0.061868 -0.18351 0.041044 0.30874 -0.15264 -0.75483 -0.2991 0.090194 -0.30807 -0.076301 -0.21329 0.12761 -0.22275 -0.14978 -0.23646 0.61071 0.015444 0.23221 -0.15933 0.33492 0.40116 0.21831 -0.10244 -0.38298 0.089057 -0.019793 0.0036347 0.63185 0.077554 0.049514 0.26732 -0.046314 0.071417 0.036261 0.48078 0.14302 0.25213 -0.15331 -0.11653 0.14216 -0.058371 -0.6826 0.19076 -0.23597 0.32955 -0.066589 -0.15158 -0.3463 -0.28 -0.31505 0.25403 0.2122 -0.097693 0.1295 -0.16853 -0.65171 0.12738 0.099304 0.35344 0.060494 0.034935 -0.16182 -0.3118 -0.48707 -0.052609 0.10014 0.021752 -0.16975 0.36582 -0.086146 -0.16426 0.63998 0.18332 0.0082657 0.21658 -0.58665 0.38045 0.16629 0.027029 -0.081143 0.14852 0.40576 0.37146 0.18369 0.11214 0.082739 
active -0.040128 -0.034719 0.259 -0.37811 0.41493 0.32104 -0.036951 0.17642 0.11339 -0.29542 0.23386 0.20443 0.11856 0.053845 -0.19983 -0.053135 0.70211 0.020595 0.53957 0.46286 -0.30253 0.1472 -0.017238 -0.28977 0.13864 -0.32773 0.0099662 0.07438 0.47651 0.43372 0.32286 0.022608 -0.11791 -0.34515 -0.17884 0.27551 0.11915 0.068828 -0.071559 0.42298 0.032809 -0.12422 0.29606 -0.42251 -0.20073 0.16919 0.039987 0.22675 0.13683 -0.00091275 0.15462 -0.16724 0.053235 0.24615 0.21772 0.22245 0.4827 -0.10844 0.087783 0.058283 0.10827 -0.54001 0.11042 0.19105 0.23178 -0.064485 -0.14903 -0.29222 -0.47836 0.013323 0.45767 0.061307 0.15605 0.073066 0.10162 -0.32736 0.80911 -0.4104 0.077034 0.45255 0.044806 -0.066788 0.19326 0.14839 0.10106 0.29306 0.072662 0.10472 -0.15621 0.7943 -0.12149 0.12353 0.48885 -0.17635 -0.68014 -0.81065 -0.26248 -0.027375 0.28117 -0.46464 -0.32857 -0.14241 0.20263 0.27109 0.32368 0.11327 -0.51339 0.14868 -0.061271 0.27574 -0.013176 0.46306 0.27394 -0.13799 0.47723 -0.56552 -0.66569 0.28032 -0.2009 -0.038226 -0.083498 -0.055308 0.091739 0.51328 -0.77562 0.1646 0.25121 -0.2313 -0.34397 0.24144 0.0069134 0.064601 0.065098 0.064164 -0.33564 -0.56222 0.12005 -0.59408 -0.025085 -0.32878 -1.0358 0.028875 -0.29855 0.038966 0.4555 -0.39684 0.077375 0.1944 0.29937 -0.16099 -0.2222 0.16522 0.079337 0.013769 -0.84845 -0.086025 -0.016487 -0.013748 0.39623 0.17421 0.065494 -0.31631 -0.43211 0.11024 -0.17336 -0.038847 0.34161 -0.22847 0.33744 -0.17794 0.042436 -0.66558 0.02087 0.34951 -0.16695 0.36659 0.052349 0.50426 0.38594 -0.59615 -0.25103 -0.2963 0.40189 -0.044043 0.083211 0.34849 0.23233 0.39512 -0.0022141 -0.046163 0.17477 0.072263 0.756 0.15162 -0.25574 -0.050244 -0.363 0.2526 0.28447 0.014999 
acute 0.32044 -0.58017 -0.004112 -0.49786 0.25138 0.14193 -0.12917 -0.36092 0.31785 0.27514 0.10652 -0.040684 0.022826 -0.11418 -0.0097758 0.10257 0.051222 -0.17985 -0.42894 0.14282 -0.051431 0.1739 -0.31237 -0.33443 -0.17817 0.19218 0.16821 0.32621 -0.25098 0.52058 0.4488 -0.59425 0.36246 -0.073462 -0.081809 0.1415 0.30619 -0.14155 -0.00083944 0.24026 0.15461 -0.1835 0.46739 0.04593 -0.082719 0.10514 -0.17491 0.090004 0.12394 -0.67728 -0.0034206 -0.065161 -0.22856 0.49543 -0.24522 -0.06654 0.16669 0.47794 0.74992 0.76972 0.26979 0.1318 -0.056798 0.18506 -0.48444 -0.021922 -0.099142 -0.15098 -0.63742 -0.034378 0.14917 0.22206 0.33868 -0.066695 -0.26084 -0.05447 0.71245 -0.0032542 -0.087699 -0.018804 -0.645 -0.14335 -0.020641 -0.039818 0.59564 0.24209 -0.18011 -0.013379 -0.21782 0.043709 0.21645 0.073339 0.029207 0.17135 -0.75451 0.51026 0.20517 0.077009 0.16669 0.031888 -0.24184 0.15086 0.29557 0.18116 -0.054088 -0.10483 0.34183 0.16509 0.2171 0.22321 -0.1497 0.4423 -0.052244 -0.023831 0.28734 -0.21639 -0.45983 0.12606 -0.010444 -0.35025 -0.61164 0.059046 -0.023796 -0.0064842 -0.22676 -0.28723 -0.20802 0.84586 -0.43212 0.54121 -0.479 -0.2152 0.23686 0.43542 -0.43717 -0.047147 -0.16665 -0.16167 -0.11283 0.22601 -0.29421 0.023809 -0.54845 0.59473 -0.017455 -0.15578 0.4747 0.095625 0.34881 0.25441 -0.033723 -0.2593 0.25406 0.41187 0.123 0.53755 0.012747 -0.58635 -0.092699 0.18489 0.26844 0.027982 -0.34872 0.16383 -0.21777 0.20763 -0.69038 -0.0065348 0.018447 -0.31176 0.46988 -0.15721 0.083999 0.0021319 -0.22388 -0.28678 -0.16641 -0.46429 -0.12807 0.091706 -0.11092 -0.38146 0.1347 -0.42211 -0.39442 0.48867 -0.20597 0.13114 0.26541 0.33711 -0.018598 -0.37146 -0.37036 -0.21728 -0.071955 -0.20741 0.34678 0.86716 0.10274 0.097771 
advised 0.082276 -0.27527 0.20834 -0.32156 -0.27508 0.045183 -0.40523 -0.24827 -0.0015221 0.22247 -0.28894 0.36532 0.21007 0.21148 0.077534 0.72978 0.44231 -0.12797 0.69711 -0.20973 -0.081644 0.28447 0.028893 -0.35703 -0.4566 -0.35342 -0.13933 0.023723 -0.50574 0.052873 0.073529 -0.35513 0.30694 -0.029717 -0.074873 -0.32708 0.3009 0.57253 -0.090363 0.36801 -0.027831 -0.27166 0.305 -0.21926 0.028622 0.21603 0.08614 0.12465 0.17304 0.38276 0.081762 -0.10867 0.029854 -0.003875 0.0037873 0.19256 0.31602 -0.28397 -0.13096 0.36781 0.11622 -0.26371 -0.11299 0.21886 -0.15477 -0.43911 -0.015464 -0.44116 -0.36462 0.25706 -0.14263 -0.14404 0.26778 -0.025101 -0.23171 -0.021738 0.18064 -0.25114 0.16963 0.075807 0.053562 -0.07993 -0.16874 0.14916 0.14122 -0.15995 -0.19903 0.23257 -0.50216 -0.00078167 0.094426 -0.10398 0.16825 -0.18098 -0.48536 0.03832 -0.24459 -0.12404 -0.12298 -0.33145 -0.1612 -0.087574 0.051179 0.22744 0.38097 0.13166 -0.033401 0.047075 0.55025 -0.10471 0.017232 0.12205 0.081269 -0.024962 -0.030127 -0.054949 -0.27085 -0.040608 -0.11246 -0.51808 -0.40798 -0.053956 -0.14299 -0.43324 -0.40849 -0.22988 -0.22324 -0.022991 0.039886 0.38962 -0.12559 0.1424 0.14128 -0.039145 -0.36736 0.20868 -0.034555 -0.23626 -0.14194 0.35802 -0.1458 0.3285 -0.22836 -0.24477 -0.022563 -0.41787 0.74808 0.04975 0.16967 -0.088398 0.0088153 -0.23337 0.037444 -0.019552 0.0077438 -0.39756 0.22211 -0.27971 -0.44937 -0.15935 0.015006 -0.197 0.089267 -0.31503 -0.0042723 0.034326 -0.20488 0.17885 0.39868 0.1099 0.17432 0.14046 0.11422 -0.035657 -0.16051 0.18477 0.2154 -0.71543 0.41536 0.028945 -0.051404 0.32573 0.25637 -0.0048321 -0.36933 0.13205 -0.23573 -0.21752 -0.23266 0.0016992 0.17004 -0.31544 0.076894 -0.11813 0.11224 0.20239 0.058977 0.37518 0.21735 0.19321 
afebrile 0.46386 -0.54669 -0.36984 -0.36177 -0.081559 0.45385 -0.24381 -0.19261 0.16152 -0.024832 -0.0012668 0.21669 0.13726 0.16628 -0.15668 -0.20006 0.33893 -0.34591 -0.075589 0.13429 -0.45921 0.15158 -0.38931 -0.6896 -0.095808 -0.37812 -0.25361 -0.14714 -0.12886 0.44839 0.04293 0.080812 -0.13188 -0.34295 -0.27458 0.18559 0.95289 0.054147 0.53925 0.12108 0.34594 -0.56035 0.17612 0.09138 0.088357 -0.13965 0.64398 0.60819 0.44817 0.13139 -0.050101 -0.14918 0.41155 -0.0043892 -0.27623 -0.026167 0.18763 -0.1901 0.21829 0.37025 0.49065 0.071549 -0.11766 0.13651 0.25139 -0.051214 -0.031345 -0.41395 -0.57434 0.41459 0.29731 -0.29007 0.50031 0.0068568 0.34121 -0.10747 0.017784 -0.35016 0.54077 -0.16143 -0.33047 0.70715 -0.24583 -0.053199 0.092303 0.061999 -0.21329 -0.078038 -0.095475 -0.035674 0.56586 -0.59407 0.042317 -0.19378 -0.54628 -0.3815 0.0026158 0.56366 -0.2248 -0.39929 0.21862 -0.13364 0.18213 0.017365 0.26483 0.53953 -0.21881 0.20717 0.15828 0.34156 -0.34056 0.30166 -0.50039 -0.2453 0.20995 0.10283 -0.51321 -0.05445 0.2258 -0.29729 -0.24657 0.15029 0.12814 0.018748 0.089885 -0.36034 0.1045 0.539 -0.060449 0.68518 -0.41689 0.019657 -0.14387 -0.034447 -0.68616 0.049714 0.52002 0.066945 0.076314 -0.12718 -0.33833 0.51046 -0.30917 -0.089438 -0.083767 -0.35355 0.87955 0.40566 0.50028 0.581 0.2879 -0.61934 0.49766 0.30413 0.14323 -0.024223 0.37541 0.50668 -0.30847 0.51546 0.30799 0.10173 -0.24285 0.15675 0.21733 0.18217 -0.085759 0.22793 -0.17793 -0.0066124 0.52711 0.21427 -0.0034589 0.14164 -0.081768 -0.24913 -0.40945 -0.59821 -0.20482 0.36507 -0.095202 -0.26257 0.31718 -0.12239 0.27435 0.40665 -0.26003 -0.11164 0.13807 0.44832 0.50675 0.013995 -0.35075 0.015352 0.074962 -0.13124 0.26576 0.26067 0.30115 -0.24852 
after 0.17283 -0.35896 -0.10425 -0.082338 0.068444 0.18788 -0.3976 -0.020092 0.35697 0.30097 0.33061 0.36406 -0.15154 0.036763 0.38241 -0.18142 0.57363 -0.018552 -0.1332 -0.21213 -0.43069 0.27917 0.1835 -0.49195 0.0033142 0.20296 -0.18118 0.37541 0.09454 -0.20902 0.091943 0.002659 -0.058262 0.16229 0.10066 0.10315 0.48768 0.44245 -0.093257 0.22504 -0.19119 0.083361 0.31261 -0.20498 0.28356 0.21917 0.48541 -0.071287 0.69333 -0.0069519 -0.12124 -0.090095 -0.31948 0.10559 -0.22376 0.1585 0.48359 -0.20437 -0.10925 0.35491 0.33246 -0.15349 -0.11187 0.10556 -0.34488 -0.23963 0.5937 -0.13299 -0.012599 0.26137 -0.20601 0.39958 0.31153 -0.33615 -0.054981 0.012059 0.21529 -0.021299 -0.011142 -0.38093 0.087313 -0.024783 0.19595 -0.13395 0.088624 -0.10337 -0.066779 0.46019 -0.15652 -0.0071202 0.20733 0.35532 0.15374 -0.096697 -0.33094 0.068284 -0.16306 -0.045491 0.096059 -0.25745 -0.042465 -0.16983 0.59163 0.056745 0.16571 -0.22375 0.38424 0.0024118 0.35912 0.22068 0.064244 0.10436 0.19364 -0.19699 0.3299 -0.1988 -0.1655 -0.40529 0.24418 -0.39945 -0.11517 -0.016625 0.18171 0.4516 -0.18317 -0.36903 -0.27959 -0.17807 0.05713 0.27506 -0.15653 0.10995 0.10661 0.15614 -0.01331 -0.11186 0.36047 -0.1506 -0.36661 -0.2967 0.0093541 -0.098026 -0.22666 0.35063 0.57029 -0.19778 0.4293 -0.13691 0.25553 0.11893 -0.27598 -0.13839 -0.075946 -0.0065009 0.090526 0.085397 0.17728 -0.22308 -0.091281 -0.080032 -0.31845 -0.52408 -0.15714 0.022965 -0.23359 -0.020941 0.09567 0.10053 0.11477 -0.097916 0.22171 0.32509 0.18718 -0.019316 -0.28487 0.089942 -0.11224 -0.31393 -0.18125 0.092926 -0.040943 -0.13121 0.27207 -0.014502 -0.47376 0.025109 -0.076963 -0.10482 -0.20494 0.15378 0.41546 -0.18595 0.010204 -0.17528 0.3488 0.018604 0.69168 0.050989 0.14199 -0.17258 
ago 0.24435 -0.383 0.14722 0.12391 0.14563 0.2825 -0.46177 -0.57059 0.27952 -0.10248 0.86638 0.80394 0.11302 -0.12215 -0.014359 -0.074526 0.32506 -0.16389 0.50934 -0.14088 -0.37219 0.40426 0.0050328 -0.35526 0.075245 0.055082 0.1016 0.18972 -0.078739 -0.20644 0.33821 0.057867 -0.29157 0.019342 -0.37555 -0.13432 0.39267 0.27639 -0.22738 0.32378 0.12747 0.27598 -0.070108 -0.079333 0.67056 0.038335 0.30612 0.25754 0.53008 0.31094 0.014513 -0.43403 -0.33148 0.35141 -0.00089468 -0.053659 0.29941 -0.045937 -0.13128 0.18601 0.32133 0.53045 0.31638 -0.19652 0.13631 0.051898 0.44205 0.43412 -1.0398 0.34332 -0.52067 0.13181 0.53408 -0.24539 -0.59386 0.070678 -0.54941 -0.24154 0.12739 0.16039 0.019857 0.090731 0.32124 -0.22731 0.028223 -0.40806 -0.46195 0.1011 0.037798 0.020622 -0.14592 -0.094567 0.12948 -0.52368 -0.70008 -0.6049 0.237 0.026491 0.01015 -0.11335 -0.092257 -0.18158 0.051219 -0.16235 0.49883 -0.029248 0.29508 -0.041527 0.54991 0.25758 -0.19954 0.25963 0.19894 0.0078204 0.10523 -0.30368 0.22596 0.23928 0.28165 -0.54666 -0.12505 -0.17281 0.023535 0.023754 -0.26689 -0.12699 -0.34681 -0.21256 -0.3223 0.75014 0.14281 -0.27672 -0.28707 0.5484 -0.030174 -0.31183 -0.024563 -0.019709 -0.046683 0.090095 -0.29686 -0.26971 0.33864 0.45488 0.41401 -0.11998 0.58 -0.012763 0.40618 0.093957 0.082398 -0.34725 -0.35507 -0.41958 -0.39734 -0.016057 0.011811 -0.50395 -0.38409 -0.21399 -0.19808 -0.18197 -0.22593 0.0024018 0.098587 -0.18584 -0.3609 -0.28132 -0.10042 -0.44621 0.069858 -0.23623 0.41426 0.11906 -0.048794 -0.14831 0.21831 -0.46708 -0.42262 -0.037106 -0.32769 -0.60111 0.23882 0.030648 0.059857 0.060876 -0.063925 0.33709 0.39113 -0.18939 -0.061824 0.0043727 -0.06957 0.061442 0.1136 0.00055842 -0.09725 0.27726 -0.029383 0.0846 
air 0.73953 -0.34721 -0.12371 -0.7387 0.1055 0.33916 -0.85689 -0.15953 0.097584 -0.11189 -0.29732 0.021492 -0.37305 0.58102 0.074746 -0.65197 0.66956 -0.12361 0.39664 0.42371 -0.2895 0.45482 -0.4877 -1.0604 0.023853 0.064127 -0.49511 -0.24835 0.051195 0.29367 -0.40985 -0.15074 -0.4514 -0.63131 0.11983 0.36243 0.65418 0.11117 -0.22578 0.14057 -0.11952 -1.1174 -0.16255 0.020017 0.47389 -0.10649 0.19069 -0.028931 0.13747 0.26649 0.13077 -0.37334 -0.46598 0.38733 -0.51955 0.10839 -0.16931 0.37644 0.43447 0.46615 0.13093 -0.059932 -0.082496 -0.09418 0.29702 -0.46142 -0.21125 0.24501 -0.31398 0.49106 0.059099 -0.30615 -0.18439 -0.25018 -0.40103 -0.042364 0.14344 0.050662 0.45682 0.26781 -0.1981 0.32577 -0.13357 0.34633 0.22333 0.39051 -0.20363 -0.10648 -0.19933 0.36128 0.48769 -0.11083 1.1765 0.24462 -0.7684 -0.39762 0.23525 -0.27501 0.38536 -0.24123 -0.069797 0.26979 0.22809 -0.058573 0.24099 -0.19766 -0.55973 -0.20233 0.5356 0.33732 0.14211 0.60417 -0.5147 -0.10228 0.0083886 -0.3329 -0.47748 -0.26533 0.016116 -0.27057 -0.59382 -0.18992 0.04232 -0.40569 0.031594 0.26318 0.35629 0.25701 -0.027871 0.33202 0.046019 0.48984 0.077009 0.079159 -0.81016 0.39854 0.38742 -0.011309 0.0013758 0.35581 -0.40419 0.16342 -0.56991 0.09494 0.33261 -0.35906 0.52928 0.002679 0.077393 0.26762 0.80165 -0.87375 0.66811 0.093985 0.036661 0.0094026 -0.74256 -0.0032976 -0.19456 0.11602 0.29524 0.21666 -0.40353 -0.20867 -0.55343 -0.086329 0.0019278 0.29231 -0.36943 0.063883 0.66426 -0.22365 -0.36303 0.062991 0.44305 0.46273 0.46632 -0.20533 0.012284 0.15471 0.24499 -0.18963 -0.27797 -0.38686 -0.26733 0.30997 0.11912 0.022321 -0.24597 -0.073974 0.02954 -0.20492 -0.32914 -0.13731 -0.050287 0.11542 0.28527 0.27314 0.44266 0.55367 
ak -0.11389 0.19619 -0.23828 -0.2687 0.52301 0.13261 0.41233 -0.12086 -0.14545 0.33205 0.29331 -0.16737 -0.079761 0.10665 -0.24332 -0.074009 0.27542 -0.2241 0.074808 -0.21735 -0.24313 0.17485 0.24065 -0.097858 -0.089099 0.0019122 -0.21155 0.14277 -0.12087 0.23576 0.20104 -0.41857 -0.065642 0.19376 -0.46514 -0.13133 -0.022139 0.23238 0.30232 0.394 -0.70542 0.13988 0.38674 0.34952 0.28542 0.030352 0.45423 0.54532 0.19904 0.21912 -0.23216 0.0055103 -0.8371 -0.10894 0.025606 0.12973 0.12525 0.046727 -0.2715 0.30815 0.37041 0.010306 0.059834 0.054073 0.2403 0.057522 -0.07991 -0.12285 -0.41603 0.20991 -0.52863 -0.076854 -0.13439 0.025096 0.10917 0.12002 0.76626 -0.63284 0.070412 0.14439 -0.11246 0.39456 -0.20703 0.17842 0.32771 -0.61569 -0.28083 0.010067 -0.38537 -0.050116 -0.14872 0.010422 0.67829 0.26742 -0.89693 -0.1922 0.28736 0.40593 0.12234 -0.031905 -0.13497 0.42901 0.25387 0.26806 0.37314 -0.16069 -0.11123 0.49735 0.38142 0.24946 -0.28355 -0.0061538 -0.26578 -0.12225 -0.021911 0.056023 -0.3568 -0.32524 0.27948 -0.17092 -0.18262 0.22419 -0.56041 -0.23308 -0.30918 -0.042805 -0.33728 -0.089453 -0.21282 0.84955 -0.16408 -0.071919 0.38526 0.18404 0.067153 0.086057 -0.046101 -0.11064 0.046163 -0.33381 -0.57244 -0.28827 -0.10456 0.49625 0.66049 -0.13357 0.39365 -0.051839 -0.097537 0.14837 -0.072355 -0.40146 -0.017271 -0.24968 -0.35503 -0.3322 0.054393 -0.23663 -0.50012 -0.24246 -0.06438 -0.76469 -0.24897 -0.094471 -0.23303 -0.22479 -0.25167 0.25949 -0.057477 0.22835 -0.057159 0.48814 -0.098937 -0.185 -0.39923 0.12517 0.022701 -0.44496 -0.038179 -0.47749 0.22251 -0.5782 0.12148 0.44943 -0.56902 0.033107 0.13248 -0.27572 0.21824 -0.1463 -0.06818 -0.26184 -0.21462 -0.22503 -0.057107 0.0069579 0.38658 0.40412 -0.11729 -0.10404 
alcohol 0.4644 -0.69445 0.96178 -0.12709 0.38635 1.0472 -0.22251 -0.26017 -0.00020405 0.072724 0.44195 0.28333 -0.17371 -0.11136 -0.14534 -0.33363 0.54739 -0.51364 0.67333 -0.093646 -0.37503 0.49626 -0.093741 -0.38318 0.086451 -0.65416 -0.36254 0.26198 -0.30646 0.31272 0.3826 -0.40693 0.21746 0.25683 -0.2199 -0.26679 0.63434 0.66554 -0.26965 0.18655 -0.5659 -0.29754 0.14423 0.49516 0.34455 0.092181 0.29268 0.082307 0.24668 0.21327 -0.57197 -0.071245 -0.35299 0.22872 0.10872 0.30113 0.42291 -0.25333 -0.15346 0.56284 0.22349 -0.016778 0.18343 0.62192 0.45426 -0.32801 0.084611 0.10956 -0.80085 -0.0026338 0.0044274 0.12426 0.44795 -0.70299 -0.33264 0.057863 0.099929 0.0206 0.59787 0.032508 -0.079086 0.16767 0.37426 0.06105 -0.22851 -0.2622 -0.58502 0.06087 -0.022511 -0.035498 -0.24003 0.26217 0.060228 -0.28908 -0.96904 0.1068 -0.10619 0.22457 0.3687 -0.40305 -0.080618 0.39679 0.015677 0.1353 -0.21909 0.24817 0.11093 -0.019043 -0.086054 0.48231 0.041855 -0.36684 0.71381 0.41682 -0.49634 -0.13341 -0.58705 -0.50705 0.16359 0.20198 -0.3552 -0.27276 -0.32151 0.048401 0.32715 0.21801 0.22973 -0.0021064 -0.45441 0.43243 -0.26248 0.51119 -0.4606 0.27614 -0.098511 -0.048287 0.28211 -0.68013 -0.11739 0.69552 -0.61328 0.2173 -0.31319 -0.32345 0.10577 -0.043536 0.10919 0.30732 0.2466 -0.066427 0.32704 -0.37606 -0.51946 -0.4846 0.033717 -0.92302 -0.068286 -0.53892 -0.22439 -0.27582 -0.32686 -0.2437 0.10956 -0.44081 -0.12596 -0.011334 0.15961 -0.36144 0.031289 -0.73999 0.23304 -0.16972 -0.013193 0.098023 -0.17251 0.29025 0.069422 0.0035808 0.29887 0.14969 0.50791 -0.31426 0.13513 -0.2376 0.34909 -0.37364 0.061609 0.28278 0.55837 -0.81986 -0.44826 0.15656 0.37635 0.10464 0.12226 0.017219 0.14056 -0.45782 -0.42336 -0.41763 
amount 0.001391 -0.0694 0.085647 -0.079562 0.0075163 0.11319 -0.3516 0.13916 0.18486 0.3018 -0.12086 0.53444 -0.22233 -0.12841 0.34831 0.0732 0.37882 -0.49637 0.11389 -0.29549 0.046734 0.11693 -0.24722 -0.21746 -0.41097 -0.31002 0.13297 0.0020295 -0.08959 -0.13026 0.01829 -0.13414 -0.13213 -0.29339 -0.060814 0.42011 0.32074 0.29714 0.043268 0.14034 -0.1694 -0.054663 0.35001 0.19585 0.16157 0.27473 -0.095742 -0.062726 0.47298 0.62611 0.054396 -0.1771 -0.36957 0.083796 0.047106 0.009056 0.24153 -0.22936 -0.16252 0.019634 -0.12905 -0.023232 0.031891 -0.35672 0.11295 0.24022 -0.29045 -0.090846 -0.016391 0.37393 0.26265 0.23084 0.43417 -0.027944 0.18793 -0.078351 0.30042 -0.032111 0.56774 -0.036069 -0.070452 0.14002 -0.028723 -0.22175 -0.31057 -0.044518 -0.5656 -0.093324 -0.24538 -0.13737 -0.34062 0.15149 0.3742 -0.045568 -0.38364 -0.25623 -0.35066 0.16643 0.16305 -0.39682 -0.44424 0.30775 0.061259 -0.31526 0.14283 0.096059 0.25663 0.18866 0.21488 0.61071 0.25147 0.11956 -0.020134 -0.067839 0.26088 -0.18185 -0.46484 -0.042543 -0.08381 -0.083002 -0.26244 -0.27902 -0.23358 0.065828 -0.11641 -0.24446 0.089268 -0.36224 -0.1564 0.70954 -0.10662 0.22836 -0.12185 0.16153 0.39739 0.076873 0.20634 0.011238 0.12458 0.36089 -0.53713 0.35487 -0.50878 0.061489 0.22667 -0.37742 0.096845 0.13992 0.56563 0.082912 0.20211 0.018869 0.0015003 -0.016273 0.084613 0.024229 -0.068213 -0.27305 0.081705 0.12473 -0.24252 -0.17014 -0.39606 0.26909 0.28236 -0.18455 -0.4231 -0.21145 0.058368 -0.52044 0.62896 0.23748 -0.12204 -0.092765 -0.28009 0.5117 -0.054674 -0.13685 0.064549 -0.17124 -0.28369 0.042882 0.27105 0.070745 -0.041699 0.30935 0.43134 -0.19803 -0.13468 -0.49995 0.40525 -0.18704 -0.32939 -0.16121 -0.14997 0.012356 0.17596 0.75312 -0.31075 0.17049 
an -0.29313 0.2287 0.35174 -0.1216 -0.02117 0.035957 -0.71403 -0.019385 0.23292 0.022733 -0.10665 -0.051057 0.38864 -0.10654 0.073976 -0.17071 0.3894 0.023341 -0.0053895 0.063547 -0.39212 0.0061982 0.39993 -0.16088 -0.13392 0.079058 0.044965 0.024106 -0.15697 0.30994 -0.16606 -0.20263 -0.13607 -0.024337 -0.12383 -0.18348 0.54644 0.34305 0.058565 -0.022294 -0.13782 -0.24912 0.16573 -0.096883 0.21332 0.16723 0.3165 -0.33918 0.55949 0.20819 0.018751 -0.25648 -0.41494 0.16085 -0.40392 -0.23202 0.027355 -0.42815 -0.35558 0.073513 0.44094 -0.051811 -0.0968 0.35901 -0.25285 -0.32269 0.11204 -0.36754 -0.32242 -0.15628 -0.3292 0.1232 0.13183 -0.17146 -0.13288 -0.13615 0.65742 -0.20213 0.33235 -0.11629 0.032753 0.016418 -0.0072784 0.15462 -0.33195 -0.017643 -0.26011 0.11006 -0.27391 0.030889 -0.25917 -0.056708 0.14567 -0.1362 -0.22363 0.027805 -0.080001 -0.011686 -0.056921 -0.16566 -0.18838 0.39593 0.28474 0.20012 0.49651 0.12524 0.12592 0.031068 -0.2071 -0.14196 -0.16797 0.42886 0.34724 0.038749 0.046434 -0.086993 -0.37371 -0.14216 0.17288 -0.38432 -0.85761 0.45622 0.084739 0.016639 -0.134 -0.26117 -0.22741 0.27257 -0.53373 0.088735 -0.40558 0.0020262 0.41719 -0.13724 -0.54544 -0.27026 -0.091971 -0.30544 0.050783 -0.11451 0.1379 0.1664 -0.32319 0.3023 -0.018547 -0.55134 0.1245 -0.056503 0.39546 0.22476 -0.25537 -0.25603 0.17508 -0.23809 0.023263 -0.5251 0.14484 -0.17261 -0.31029 -0.065346 -0.070342 -0.29273 -0.27909 -0.145 -0.14712 -0.035668 -0.1181 0.052359 -0.11437 0.090196 0.051182 -0.024679 -0.14163 -0.38312 -0.32535 -0.50895 0.70022 -0.29323 0.014791 -0.66241 -0.1091 -0.67122 0.30363 -0.50295 -0.20218 0.086345 0.10621 0.42353 0.14267 0.4902 -0.0065093 -0.11586 -0.058198 -0.14874 -0.15458 -0.18101 0.064194 0.48409 -0.052079 -0.06181 
and 0.24833 -0.0005942 0.16259 0.051736 0.038668 0.27379 -0.46231 -0.18322 -0.015388 0.10012 -0.014631 0.32599 0.28406 -0.10205 0.15859 0.059534 0.21298 -0.10462 0.047135 -0.15296 -0.0085908 0.23821 -0.031593 -0.37995 0.26424 -0.018945 -0.16319 0.28157 0.079375 0.097472 -0.1305 -0.13144 0.28513 -0.13528 -0.2099 -0.083012 0.18803 0.22029 -0.044043 0.21013 -0.24429 -0.16589 0.032647 -0.37247 0.24331 0.42575 0.091147 0.11372 -0.025623 0.20091 -0.032872 -0.030355 -0.4189 0.13638 -0.0080517 -0.16434 0.091865 -0.30533 0.035291 0.015384 0.20385 0.11968 -0.18148 0.33988 -0.28584 0.19247 -0.24822 -0.21018 -0.27567 0.054599 -0.25398 0.16479 0.17328 -0.031099 -0.020132 0.088572 0.42831 -0.040394 0.27694 -0.35704 0.063758 0.089137 0.02416 -0.2337 -0.010055 -0.042876 -0.23759 0.00092179 -0.31831 0.26774 -0.13259 0.11142 0.21183 -0.10355 0.095035 -0.2605 0.081607 0.15595 -0.18158 -0.11172 -0.20814 0.14491 0.18041 0.0047232 0.21931 -0.084007 -0.11475 0.12002 0.32096 0.10761 0.0089271 0.086545 -0.114 0.068746 0.12294 0.014396 -0.13059 -0.16812 0.14716 -0.28959 -0.35047 0.0073629 0.016227 0.20319 -0.12915 -0.34993 -0.22184 -0.022201 0.11096 0.55094 -0.21009 0.12384 0.20379 0.0051309 -0.016633 0.017043 0.046596 -0.27189 -0.072358 0.12025 -0.36854 0.2119 -0.30928 0.25571 0.10613 -0.15657 0.38578 0.0047717 0.37662 0.11106 0.040617 -0.12504 0.18213 -0.056838 -0.066387 0.092313 0.054146 -0.30387 0.01884 -0.0089945 -0.076481 0.046866 -0.014979 0.17405 -0.052602 -0.017685 -0.16686 0.0091983 -0.11803 -0.14851 0.36122 -0.22649 0.079599 -0.096002 -0.35327 -0.018829 0.14496 -0.17608 0.077071 -0.51837 -0.1686 -0.36525 0.18471 0.12641 -0.085573 -0.035697 -0.1435 -0.20695 -0.19323 0.11817 0.34128 -0.042377 0.10026 0.1409 -0.17557 0.14146 0.02654 0.40249 0.079083 0.0060447 
ann -0.14739 -0.30011 -0.22348 -0.30405 0.10507 0.096273 -0.28245 -0.39027 -0.014234 0.6113 0.007621 0.26318 0.38068 -0.10015 -0.1308 0.05277 0.36499 0.12298 0.34771 -0.5546 -0.061217 0.2618 0.1024 0.088559 -0.1066 -0.19455 -0.21341 0.23209 -0.033493 0.30014 0.15268 -0.11536 -0.025204 -0.052982 0.27675 -0.26112 -0.16479 0.35106 0.070741 0.34809 -0.30927 -0.35321 0.43591 0.33002 0.35957 -0.088647 0.17625 0.1729 0.21248 0.16098 0.042601 0.17892 -0.5905 0.30336 0.00018926 -0.20181 0.13663 -0.23823 -0.019022 -0.046607 0.042257 0.28137 -0.06931 0.37857 0.03791 -0.37544 0.1347 -0.29764 -0.37017 0.53462 -0.28112 0.02541 0.29698 0.13977 0.013107 -0.00071215 0.84288 -0.15813 0.19289 -0.21702 -0.14984 -0.090305 -0.206 0.17607 0.15587 -0.31116 -0.54699 -0.25297 -0.31381 -0.19399 0.10928 -0.0088099 0.36733 0.17393 -0.13779 -0.12244 -0.11748 0.17867 -0.038493 -0.11022 -0.050971 0.080369 0.064803 0.56511 0.37423 0.064788 -0.44969 0.33801 0.052087 0.18466 -0.13003 0.032723 0.4051 0.097867 -0.12283 -0.20924 -0.3057 0.26537 -0.25095 0.048474 -0.49536 0.11592 -0.04999 -0.14669 -0.3245 -0.20255 -0.31633 0.16795 -0.26551 0.2393 -0.48481 -0.11236 0.03623 0.033402 -0.5366 0.18622 -0.1304 -0.2517 0.16558 -0.23938 -0.50481 0.098033 -0.007646 -0.32386 0.28911 -0.39197 0.2879 0.1044 0.33833 0.18747 -0.09001 -0.48596 0.21231 0.047442 0.056216 -0.3621 0.078126 -0.25469 -0.4529 -0.26938 0.081952 -0.53938 -0.13678 -0.24085 0.29293 -0.022712 0.32764 0.21557 -0.033826 -0.10579 -0.13958 0.013655 -0.077563 0.093954 -0.21013 -0.10603 0.37888 -0.38299 0.064868 -0.20514 0.23197 -0.11126 0.18048 -0.013239 0.10382 0.10384 0.059868 0.15697 -0.0066183 0.20801 -0.12113 -0.18767 0.17562 -0.20121 -0.21729 0.1998 0.3922 0.51218 0.032852 0.02834 
