320 200
02 -0.14085 0.33508 0.4578 0.1381 0.091776 -0.062328 -0.055758 0.5145 1.0209 0.98831 -0.37335 0.35262 -0.37175 0.51308 0.25284 0.094664 -0.10321 -0.79025 0.5376 0.18694 0.20124 0.19621 0.31504 0.20847 0.21426 -0.0078847 0.83181 -0.85973 0.245 -0.27714 -0.17318 0.025279 -0.19214 -0.58927 -0.50421 0.62232 0.6394 -0.6893 -0.12469 0.23205 -0.26293 0.22073 0.60678 -0.074999 0.36657 -0.53099 0.38816 0.57087 -0.47556 0.95939 -0.65853 -0.62585 -0.16374 -0.26919 -0.64857 0.68166 -0.1228 0.21873 -0.32463 -0.43981 0.10702 0.19158 0.8056 0.52518 0.47825 0.62952 -0.43456 -0.82441 1.0248 0.36433 -0.024706 -0.37501 -0.97904 0.060771 1.1162 -0.46457 0.39291 -0.80854 0.23779 -0.6264 0.21518 -0.11811 0.29819 0.14116 -0.30926 -0.053181 0.47176 -0.47261 -0.03976 0.36435 0.69129 -0.74015 0.25667 0.1845 -0.36961 0.3025 -0.13676 0.39875 0.49737 0.11265 0.73443 0.19269 0.11913 -0.2418 0.01869 -0.09246 0.59887 0.12551 0.70493 -0.31526 0.17747 0.49682 -0.21947 0.45966 -0.27713 0.38285 -0.071499 0.088236 -0.022387 -0.68005 0.70706 1.2034 -0.02192 0.5776 -0.62268 -0.16039 -0.45417 -0.60894 0.41299 -0.24691 -0.071494 0.53192 -0.13025 -0.54735 -0.33751 0.28673 0.79565 0.57888 -0.29515 0.094582 -0.19525 0.23757 -0.48802 0.13197 -0.38799 -0.20969 0.57274 -0.60513 -0.53588 -0.3638 0.16102 0.4834 0.35861 0.17895 -0.55234 -0.77796 0.14738 -0.0023921 -0.26659 0.28729 0.70863 -0.27335 1.3309 -0.036667 -0.37183 -0.61906 -0.91767 -0.064951 0.0043194 -0.25587 -0.14677 0.28227 0.37487 0.86716 -0.24524 0.54742 -0.51143 0.11091 0.23526 -0.15041 -0.61946 -0.3424 -0.0090706 0.43239 0.28969 -0.88244 -0.15042 -0.92868 -0.91542 -0.48785 0.033395 -0.41383 -0.022677 -0.96226 0.43043 -1.246 -1.2695 0.39225 -0.57009 0.24134
05 0.080171 0.11082 0.45553 0.28205 0.17916 -0.44589 -0.38163 0.76851 0.6042 0.23628 0.28101 0.22185 0.12652 0.35456 -0.58862 -0.19313 0.04813 -0.3116 0.22374 -0.058598 0.098329 0.52727 -0.38521 0.073175 -0.031321 -0.10176 0.3827 -0.86483 -0.56799 0.16117 0.25796 0.38461 -0.15272 -0.45172 -1.0225 0.18509 0.098571 -0.20514 0.50722 0.25248 0.61886 -0.18553 -0.012788 0.27265 -0.20043 -0.2587 0.33747 0.32494 -0.41355 1.0512 -0.024872 -0.063007 -0.073723 -0.58098 -0.030891 0.013486 -0.36799 0.35955 -0.0043063 -0.73631 -0.22559 -0.1074 -0.063406 0.42014 0.12446 0.58675 0.19198 -0.41657 0.51344 0.28009 -0.006817 -0.040734 -0.61367 -0.17378 0.21721 -0.15056 0.22744 -0.19493 -0.2079 -0.7448 -0.20554 -0.59533 -0.42928 0.13224 -0.36784 0.18597 0.40242 0.35236 0.10247 -0.23843 0.066193 -0.070758 0.16663 -0.12274 -0.31899 -0.061237 -0.33696 0.14819 0.51732 -0.0021451 0.29745 -0.090682 -0.31992 -0.38111 -0.06375 0.021995 -0.88055 -0.047971 0.48616 -0.32603 0.34268 0.68726 -0.21646 0.76187 -0.2046 -0.0055448 -0.083023 0.1992 0.32113 0.0044242 0.11017 0.73883 0.02158 0.49227 -0.33304 -0.057969 -0.71385 -0.17174 0.12429 0.5925 0.09684 -0.041313 -0.30672 -0.028231 -0.32037 -0.20377 0.29913 0.46215 -0.17795 0.51752 0.16802 -0.088439 -0.18854 0.41103 -0.35066 -0.48277 0.36902 -0.59981 -0.44516 -0.43382 -0.33821 0.091023 0.47566 0.14219 -0.80208 -0.34599 0.12155 -0.17776 0.16781 -0.38617 0.53626 -0.59697 0.13897 0.6513 -0.41151 0.19312 -0.14441 0.24541 -0.40436 -0.34578 -0.16609 0.49116 0.12191 0.61066 -0.82341 0.17579 0.13089 0.64009 0.71514 -0.65139 0.051272 0.24056 0.0038652 0.6134 -0.083563 -0.4843 -0.18931 -0.28257 -0.30631 -0.33561 -0.50533 -0.19344 -0.42977 -0.015557 0.057899 -1.2838 -0.17694 0.52282 -1.0391 -0.049956 
1 0.10743 -0.28122 0.16809 -0.12632 -0.11518 -0.063122 -0.8556 0.55607 0.32064 0.1818 -0.42561 0.27359 0.13285 -0.072014 -0.10647 -0.25739 -0.44313 -0.6301 0.62236 0.28786 0.12498 0.087025 -0.54165 -0.25001 0.29827 0.13337 0.41461 0.25521 -0.58987 0.1735 0.27639 -0.093076 0.2096 -0.50718 -0.6495 -0.33958 0.70653 -0.51707 0.24596 -0.31798 0.05275 0.34311 -0.17822 0.062224 -0.42586 -0.12734 0.34745 0.36731 -0.74107 0.62129 -0.1018 -0.065077 0.028824 -0.24252 -0.38646 -0.51738 -0.22137 0.011689 -0.84665 -0.27373 0.12725 0.30831 -0.051139 0.57642 0.62286 0.22741 -0.068767 -0.22642 0.23265 0.31269 -0.44673 0.32469 0.0004274 0.23417 0.015029 -0.54554 -0.21075 0.028805 0.054895 0.23673 0.27364 -0.3429 0.2024 0.4606 -0.41603 0.19189 -0.014241 0.19721 -0.36765 -0.39219 0.10878 0.25077 0.24183 -0.60889 -0.017056 -1.0637 -0.0047091 0.34508 0.37915 0.22667 0.58366 -0.4264 0.099219 -0.13988 -0.27236 0.1738 -0.63708 -0.088631 0.18754 -0.056586 0.24978 0.35639 0.23614 0.31209 -0.19064 -0.20057 -0.35598 -0.16183 -0.097614 -0.46003 0.12738 -0.38792 0.17931 0.62844 -0.28645 -0.87934 -0.2494 0.13791 0.064963 -0.44065 -0.21756 -0.22615 -0.12278 -0.2979 -0.25043 -0.19783 0.010743 -0.3233 0.26883 0.31648 0.85989 0.58342 -0.23218 0.24269 -0.038254 -0.23913 0.77326 -0.28501 -0.6761 -0.32399 0.47647 -0.59141 0.60333 -0.19153 0.25652 -0.72194 -0.013244 0.028256 0.62529 0.19954 -0.25776 -0.24355 0.11758 0.81439 0.32488 -0.60069 0.19977 0.56263 -0.30603 -0.041404 -0.8866 0.33506 -0.30636 0.45956 0.15721 0.19829 -0.41804 0.49239 0.14411 -0.88148 -0.16977 -0.22126 0.23647 -0.20996 0.25402 -0.14631 0.11678 -0.37591 0.66433 -0.34803 0.53321 -0.23884 -0.45095 0.21435 0.26647 -0.21282 -0.43793 0.53089 -0.16747 0.43058 
10 -0.20001 -0.22805 -0.29181 0.23462 0.092358 -0.23817 -0.63146 -0.17079 0.50277 0.30836 -0.53476 -0.018939 -0.024425 0.097967 -0.6944 -0.41764 -0.51916 -0.072171 -0.0095954 0.64235 0.019864 -0.085071 -0.53619 -0.025793 0.72198 0.054892 0.12043 -0.38015 -0.28145 0.33724 0.49387 -0.48597 -0.17078 -0.27205 -0.54307 -0.12072 0.40019 -0.39841 0.070348 -0.15124 -0.3276 0.19529 0.075004 -0.36717 -0.061544 0.31884 0.35832 0.040045 -0.68027 0.28197 0.043414 -0.083568 -0.2876 -0.6382 -0.48988 0.0054482 0.088153 0.54061 -0.75337 -0.35146 0.11619 -0.20453 0.16964 0.63394 0.50414 0.25586 0.5225 -0.26774 0.18455 -0.15196 -0.19444 0.0685 0.10643 0.0023846 -0.20514 0.038567 -0.40863 0.36551 0.27941 -0.12141 0.39892 -0.43453 0.034812 -0.14198 -0.11737 0.10045 -0.18146 -0.1408 -0.54289 -0.26593 -0.20937 0.53326 0.38116 -0.41405 -0.39567 -0.69652 -0.31168 0.093553 0.41966 -0.018376 0.28574 0.21134 -0.39989 -0.52022 -0.36019 0.70847 -0.38891 0.00080325 0.18243 0.019443 0.1766 0.1361 0.39058 0.12565 -0.31032 0.14277 -0.39445 0.13083 -0.31987 -0.20426 -0.065732 -0.11505 -0.28967 0.43002 -0.2745 -0.66749 0.11996 -0.05421 -0.083911 0.024201 -0.30653 -0.14535 0.05779 -0.055438 -0.07216 -0.4985 -0.14703 -0.23449 0.72398 0.48856 0.75553 0.98341 -0.80392 0.089029 -0.54127 -0.3598 0.60941 -0.60314 -0.52313 -0.21113 0.2899 -0.14447 0.91946 0.21139 0.12637 -0.64548 -0.095996 -0.16735 0.47456 0.15218 -0.064773 -0.045416 0.44088 0.89768 0.54211 -0.081785 -0.068393 0.059437 -0.57801 0.19766 -0.41747 0.85761 -0.25258 0.73835 -0.44712 0.54599 -0.35719 0.010788 0.61397 -0.49831 0.080134 0.43026 -0.108 -0.31846 0.6169 -0.19092 -0.050795 -0.44953 0.62758 0.25875 0.26583 -0.31904 -0.30974 0.24856 0.18856 -0.67961 0.064939 0.52515 -0.32811 -0.063114 
100 -0.031991 0.11699 -0.79915 0.39381 -0.46731 -0.28356 0.032117 -0.38603 0.42946 0.59352 -0.9808 0.50297 0.11682 -0.38578 -0.4431 -0.48761 -0.47088 -0.010186 0.045337 0.85083 0.13895 -0.3599 -0.7893 -0.098325 0.21933 -0.15564 -0.17892 0.25205 0.014061 0.50796 0.48719 -0.79733 -0.18635 -0.13539 -0.6832 0.20112 0.35951 -0.61415 -0.17513 0.22347 -0.034157 -0.036067 -0.074094 -0.10832 -0.1252 0.47296 0.52063 0.22648 -0.58163 0.72532 -0.13923 -0.11576 -0.15633 -0.73849 -0.64251 -0.071225 -0.049783 0.53956 -0.94194 0.14488 -0.05478 0.027294 -0.15396 0.38864 0.68121 0.052919 0.24973 -0.72738 0.59286 0.074064 -0.32806 0.055706 -0.33567 0.056984 0.15776 0.38061 -0.35456 -0.19352 0.3114 -0.22932 0.64964 -0.23391 0.3881 -0.26915 -0.36101 -0.14121 -0.11267 -0.03429 -0.86265 -0.48815 -0.10861 0.54645 0.27283 -0.14127 0.031192 -0.56735 -0.43953 0.33891 0.5646 0.10404 0.25435 0.10894 0.044839 -0.15461 -0.2342 0.16823 -0.54478 0.12672 -0.080214 0.24094 0.3499 -0.064412 0.39657 0.12072 -0.50251 0.27823 -0.34521 -0.13531 0.13788 -0.59882 0.25205 0.082958 -0.11646 0.22366 -0.3154 -0.8254 -0.037948 -0.37878 0.067877 -0.53948 -0.19235 -0.039137 0.18713 -0.43554 -0.44408 -0.60026 -0.31436 -0.13983 0.43534 0.39529 0.49367 1.3825 -0.52042 0.23947 -0.47241 -0.27219 0.97259 -0.94589 -0.47388 0.15422 0.25804 0.067142 0.99547 -0.04768 0.21082 -0.83431 0.36555 -0.66524 -0.1194 0.036798 0.092529 -0.043786 0.58282 0.73272 0.22317 -0.53538 -0.36862 0.16236 -0.41637 -0.076376 -0.46966 0.38413 -0.56957 0.68024 -0.47524 0.48159 -0.17202 -0.31726 0.95695 -0.44262 -0.61734 0.19156 -0.13939 -0.14103 0.52335 -0.77114 0.19252 -0.31448 -0.14887 -0.0024443 0.27154 -0.58828 -0.18368 -0.10227 0.071694 -0.5055 -0.14398 0.81243 -0.49844 -0.16223 
11 -0.15541 -0.20727 0.13807 -0.094535 -0.089069 -0.05623 -0.92409 0.028284 0.59864 0.55825 -0.60282 0.22332 -0.25164 0.32765 -0.45621 -0.48283 -0.29728 -0.22432 0.01051 0.42616 -0.068501 -0.42931 -0.11464 0.33557 0.38608 0.11058 -0.29231 -0.12195 0.0013258 -0.089205 0.22953 -0.4646 0.31834 -0.49631 -0.033701 0.14422 0.59168 -0.44517 0.47763 -0.21154 -0.46678 0.19233 -0.068943 -0.22965 0.20547 0.013448 0.44924 -0.38341 -0.42735 0.31272 -0.11346 0.12609 -0.32834 -0.33919 -0.89268 0.18822 -0.10504 0.090691 -0.21401 -0.40535 0.53923 -0.3706 0.33254 0.17263 0.22118 0.17175 0.33205 -0.10462 0.44071 -0.0026769 -0.26369 0.072549 0.079928 0.066 -0.16545 -0.48148 -0.36637 0.30888 0.11976 0.22045 0.50335 -0.25834 0.14784 0.33753 0.059282 0.14674 -0.28596 0.05096 -0.19763 -0.41667 0.046458 0.35081 0.21316 -0.64771 -0.5126 -0.49945 -0.44261 0.13747 0.30568 0.059293 0.5113 -0.11126 -0.2446 -0.24931 -0.42733 0.45836 -0.53792 0.1277 0.5993 -0.3742 -0.18104 0.41194 0.18678 0.00073442 -0.056472 -0.079627 -0.67338 -0.1074 -0.25815 0.10565 -0.026786 -0.18633 -0.22542 0.47774 0.0073378 -0.45643 -0.070697 0.13937 -0.19153 0.080457 -0.24623 -0.21983 0.13781 -0.012108 -0.29091 -0.43132 -0.087587 -0.21731 0.23544 0.42315 0.40222 0.61329 -0.86715 -0.10944 -0.42471 -0.2587 0.44371 -0.63516 -0.51803 0.030584 0.084874 -0.36444 0.60845 0.055134 0.32446 -0.52196 -0.31258 -0.18808 0.44116 0.097778 0.19546 -0.35332 0.44967 0.78943 0.15601 -0.29755 -0.075698 0.24756 -0.58418 -0.24013 -0.22719 0.39621 -0.2479 0.89739 -0.33103 0.35561 0.15134 -0.18277 0.18602 -0.52472 0.23535 0.58098 0.068575 -0.53411 0.54811 -0.2129 -0.047832 -0.59271 0.72587 -0.085026 -0.11242 -0.35959 -0.81235 0.6428 -0.21237 -0.91388 0.01033 0.17541 -0.39725 -0.25412 
12 -0.14351 -0.15825 -0.023505 0.078009 -0.18804 -0.071844 -0.80139 -0.11519 0.49719 0.55563 -0.80936 0.066965 -0.1244 0.28892 -0.56957 -0.51217 -0.29552 -0.0040898 -0.0051071 0.53736 -0.14139 -0.29576 -0.45543 0.339 0.33199 -0.1606 -0.46495 -0.23904 0.068816 0.1266 0.21456 -0.44279 0.033933 -0.2897 -0.26999 -0.060989 0.56061 -0.57642 0.24777 -0.15298 -0.36024 0.22116 0.05903 -0.43011 0.077708 0.023371 0.3651 -0.21824 -0.67599 0.31619 0.0024945 0.067217 -0.28631 -0.4342 -0.85567 0.079012 -0.026047 0.15648 -0.29263 -0.37738 0.25102 -0.21794 0.24382 0.14114 0.25158 0.080185 0.0074459 -0.24086 0.45139 0.13185 -0.22809 -0.049528 0.11078 0.1394 0.083572 -0.39328 -0.22773 0.38967 0.35818 0.13563 0.62709 -0.36695 0.25436 0.04293 -0.016083 -0.12735 -0.11516 -0.09824 -0.33426 -0.45701 -0.03298 0.39097 0.2082 -0.65682 -0.26967 -0.56014 -0.32876 -0.062735 0.43409 -0.23637 0.47799 -0.14791 -0.35489 -0.30014 -0.36115 0.42504 -0.35912 0.015123 0.49497 -0.10857 0.11925 0.38442 0.18927 0.14455 -0.27771 -0.03526 -0.66518 -0.1252 -0.25408 -0.23187 -0.063073 -0.064803 -0.19008 0.15323 -0.17173 -0.49628 -0.0068711 0.052182 -0.092636 -0.13266 -0.30215 -0.34627 0.24248 -0.064271 -0.29312 -0.29756 -0.14387 -0.082244 0.07633 0.30276 0.6609 0.5895 -0.8238 -0.050624 -0.53087 -0.32805 0.4957 -0.60096 -0.30677 -0.18243 0.038778 -0.5354 0.81618 0.16346 0.35772 -0.50427 -0.059803 -0.24176 0.48452 -0.073607 -0.059887 -0.097062 0.58594 0.78276 0.50033 0.016828 0.20862 0.10436 -0.55796 -0.15354 -0.25452 0.61298 -0.31783 0.76567 -0.1695 0.43651 -0.003818 -0.078952 0.46828 -0.56832 -0.080066 0.39073 -0.10887 -0.34526 0.63523 -0.25338 -0.034337 -0.68397 0.65343 -0.051795 0.18844 -0.33528 -0.55575 0.44547 -0.24671 -1.1477 0.037696 0.29794 -0.48256 -0.040035 
135 0.44886 0.33011 0.15785 0.10323 0.062439 0.16583 0.27555 0.21692 0.44298 0.86942 -0.73535 0.4254 -0.43045 -0.049753 -0.3559 -0.60029 -0.17967 -0.18665 0.0062962 0.5345 0.24841 -0.40196 -0.55811 -0.10377 0.14951 -0.20167 -0.31406 0.086516 0.079488 -0.11166 0.4737 -0.66512 0.24747 -0.15037 0.048738 0.50782 0.54177 -0.44937 -0.17321 0.053471 -0.059831 -0.13541 0.045085 -0.097318 -0.0084043 0.33019 0.45645 0.25902 -0.16404 0.49618 0.19066 0.04554 -0.093899 -0.13038 -0.6214 0.11749 -0.16006 -0.072431 -0.060818 -0.27134 0.1272 -0.11356 0.10947 -0.35213 0.39752 -0.14135 0.4765 -0.40342 0.4341 0.021338 -0.19487 -0.13023 -0.037833 0.60938 0.024545 0.13384 -0.13745 0.00041668 0.15145 -0.51542 0.08191 -0.18646 0.17169 -0.38749 -0.29084 0.12326 -0.064205 0.34329 0.25993 -0.48955 -0.24576 0.13425 0.11524 -0.32967 -0.41815 -0.54158 -0.80594 0.64447 0.37933 -0.42871 0.36163 -0.073199 -0.046048 -0.25241 -0.33392 -0.15259 -0.5993 0.28116 0.45031 0.05624 -0.18647 0.20599 -0.11796 0.094091 -0.34432 0.28483 -0.16782 -0.78381 0.19028 0.2036 0.13416 0.15947 -0.31867 0.42016 0.044392 -0.091627 -0.055904 0.13537 -0.2857 -0.21241 -0.17128 0.18821 -0.24197 -0.27983 -0.16935 -0.29094 -0.28113 -0.016115 -0.10379 0.68553 0.4272 0.92937 -0.54498 0.074227 -0.24379 -0.021935 1.0749 -0.80002 0.18099 0.62889 -0.19395 0.082387 0.21109 0.16451 0.0080177 -0.27501 0.12831 -0.47775 -0.28173 -0.24394 0.71312 0.023731 0.046504 0.57113 0.55915 -0.16123 -0.078326 -0.014653 -0.29888 -0.42929 -0.016637 -0.14102 -0.31191 0.4229 -0.5902 0.77352 0.25467 -0.24615 0.84039 -0.19681 -0.17733 0.57364 0.42607 -0.50641 0.15535 0.028207 -0.11455 -0.57645 0.30273 -0.67328 0.00058467 -0.34162 -0.59935 0.50398 -0.46603 -0.35384 -0.29298 0.53802 -0.18207 -0.66614 
136 0.64491 0.34156 0.34359 0.048653 0.095262 0.28851 0.13738 0.095116 0.36498 0.78695 -0.73083 0.57418 -0.51736 0.20227 -0.36701 -0.5839 -0.16364 -0.3417 -0.034229 0.52091 0.24778 -0.45186 -0.29722 0.15158 0.19335 -0.035712 -0.52077 0.0017507 0.1079 -0.12002 0.25899 -0.63149 0.13939 -0.046693 0.29688 0.76045 0.60811 -0.2853 -0.064716 -0.027262 -0.058653 -0.096436 0.13623 -0.17113 0.20159 0.26963 0.43386 0.0034439 -0.022829 0.39701 -0.016969 -0.10298 0.0079958 -0.029339 -0.6445 0.05193 -0.075346 -0.20441 0.23729 -0.42073 0.1604 -0.13761 0.24027 -0.32617 0.2463 0.0098962 0.38679 -0.47055 0.52871 0.11309 0.023005 -0.0038391 0.13218 0.53032 -0.18041 -0.099213 -0.18853 0.12558 -0.013723 -0.54186 0.076253 0.028247 0.23311 -0.36732 -0.12685 0.20908 -0.10546 0.32739 0.21398 -0.47631 -0.1694 0.21592 0.053593 -0.35796 -0.36973 -0.5305 -0.86085 0.61319 0.27647 -0.43095 0.31939 -0.14982 -0.25197 -0.15336 -0.27604 -0.26708 -0.74534 0.18916 0.52701 -0.11218 -0.15301 0.4402 -0.060199 0.034217 -0.281 0.40608 -0.34806 -0.83101 0.096601 0.43199 0.19526 0.18225 -0.40003 0.45414 0.01274 -0.014297 -0.16729 0.043867 -0.32241 -0.00056718 -0.1881 0.31383 -0.25416 0.0097237 -0.46051 -0.30961 -0.30407 -0.20061 -0.19356 0.65948 0.29511 0.7634 -0.47529 -0.16249 -0.021888 0.081606 0.98457 -0.77164 0.096645 0.80306 -0.17038 0.099046 0.37441 0.11734 0.10167 -0.22308 -0.0076631 -0.27034 -0.24928 -0.39055 0.72763 -0.21393 -0.010751 0.45041 0.43339 -0.32393 -0.08631 0.029624 -0.28895 -0.52332 -0.14368 -0.34853 -0.21855 0.56928 -0.52002 0.70241 0.3607 -0.38051 0.59916 -0.36252 0.025896 0.55486 0.31906 -0.1956 0.13179 -0.084038 -0.16904 -0.70381 0.26465 -0.60634 -0.053227 -0.28761 -0.59286 0.51059 -0.49907 -0.40108 -0.21084 0.5701 -0.18766 -0.60556 
15 -0.29098 -0.12871 0.068381 -0.026078 -0.024051 -0.058047 -0.70093 -0.0029981 0.52061 0.50547 -0.76611 -0.040297 -0.10151 0.18761 -0.44871 -0.51376 -0.31264 -0.0066355 -0.14552 0.54348 -0.073073 -0.21143 -0.45598 -0.039094 0.38354 -0.17106 -0.25952 -0.1717 -0.027121 0.011998 0.44616 -0.408 0.069628 -0.21047 -0.14351 0.026501 0.3225 -0.43917 0.32909 -0.26401 -0.13912 0.1044 -0.057308 -0.28811 0.12815 0.27773 0.42467 -0.01458 -0.67961 0.29027 0.059374 0.096665 -0.30365 -0.81498 -0.65759 0.17269 -0.10058 0.23562 -0.69149 -0.22509 0.38204 -0.062085 0.20135 0.23702 0.43572 0.16612 0.29089 -0.14399 0.41755 -0.18993 -0.13165 0.14748 -0.092415 0.24476 0.015991 -0.15778 -0.34389 0.24671 0.23861 0.091555 0.45078 -0.37669 0.12793 0.14277 -0.15549 0.048549 -0.099263 -0.12153 -0.36495 -0.39629 -0.18369 0.318 0.065393 -0.71735 -0.38087 -0.45405 -0.44467 0.12585 0.52554 0.039286 0.32561 -0.13652 -0.19046 -0.45495 -0.27619 0.56302 -0.46627 0.13778 0.4696 0.012773 0.083352 0.14438 0.080609 0.082491 -0.27029 0.038184 -0.52945 -0.1582 -0.24422 0.0037242 -0.13844 -0.070862 -0.26129 0.31775 -0.1432 -0.56459 0.075026 -1.955e-05 -0.0016617 -0.083759 -0.32811 -0.42865 0.014927 -0.19239 -0.21281 -0.52902 -0.23117 -0.087116 0.12137 0.23352 0.47838 0.96467 -1.049 0.073997 -0.49721 -0.26499 0.69663 -0.72984 -0.33271 0.00058275 0.074136 -0.36085 0.7614 0.013257 0.27308 -0.5304 -0.1084 -0.2481 0.40027 -0.027804 0.050668 -0.026334 0.51735 0.92302 0.39158 -0.12735 0.015948 -0.010503 -0.51277 -0.053528 -0.19677 0.50922 -0.24641 0.85265 -0.4241 0.52668 -0.15769 -0.2401 0.51381 -0.46457 0.017753 0.37249 0.09967 -0.52248 0.54271 -0.24723 -0.017545 -0.53916 0.49681 -0.15737 0.12463 -0.23328 -0.65694 0.36877 -0.091712 -0.86109 0.039165 0.49515 -0.44158 -0.17023 
18 -0.016604 0.031981 0.17061 -0.08168 -0.22895 0.013921 -0.71611 0.095906 0.52366 0.7594 -0.74466 0.32834 -0.29121 0.266 -0.46855 -0.57027 -0.22451 -0.18528 -0.097214 0.59949 -0.17104 -0.46583 -0.19099 0.2917 0.42128 0.056627 -0.30814 -0.11901 0.057341 -0.098466 0.053024 -0.39155 0.15006 -0.18122 -0.02496 -0.028726 0.46836 -0.66219 0.38263 -0.21088 -0.15566 0.18511 -0.18274 -0.2331 0.33022 0.0019885 0.50014 -0.35589 -0.60392 0.64991 -0.067722 0.34253 -0.20264 -0.70785 -0.80613 0.32399 0.14905 0.18713 -0.28716 -0.02886 0.59155 -0.048991 0.29095 0.068625 0.36509 0.24605 0.051783 -0.075015 0.77027 -0.13074 -0.17753 0.10549 -0.26866 0.093312 -0.021857 -0.15513 -0.28978 0.33309 0.1702 0.052442 0.54977 -0.2263 0.28375 0.52527 0.027194 -0.11913 -0.4342 0.076958 -0.31117 -0.46932 0.060739 0.3603 0.20848 -0.61503 -0.20036 -0.36818 -0.59723 0.080645 0.38606 0.12428 0.37522 -0.29593 -0.11531 -0.22732 -0.41362 0.5075 -0.30571 0.30402 0.47222 -0.30817 -0.14641 0.3342 0.25881 0.15709 0.040851 -0.18099 -0.80458 0.067595 -0.24907 -0.11039 -0.36812 -0.19505 -0.37467 0.41074 -0.22541 -0.3747 -0.14532 -0.26241 0.027152 0.046964 -0.39928 -0.38051 0.19537 -0.10137 -0.34336 -0.44177 -0.15303 0.14519 -0.065731 0.31537 0.41081 0.76501 -0.82543 -0.29658 -0.35114 -0.34881 0.39915 -0.59179 -0.22277 0.066841 -0.039267 -0.19658 0.7308 0.41009 0.34069 -0.45644 -0.10237 -0.3031 0.46064 -0.020084 0.44086 -0.1168 0.62221 0.70867 0.32817 -0.38757 0.010977 0.27285 -0.45385 -0.21498 -0.19246 0.24678 -0.25972 0.9483 -0.17387 0.41714 0.14589 -0.62888 0.46977 -0.43716 0.098543 0.5442 -0.089713 -0.62504 0.57216 -0.24672 0.31017 -1.0248 0.49823 -0.30694 0.0099325 -0.29757 -0.64066 0.55843 -0.48578 -1.103 -0.23374 0.25782 -0.36329 -0.39078 
2 0.1562 -0.17628 0.15878 0.0067524 -0.42567 -0.16242 -0.99264 0.26683 0.69631 0.22135 -0.5468 0.2044 -0.025601 -0.024826 -0.11112 -0.12256 -0.64146 0.057408 0.59554 0.18533 -0.15484 0.23826 -0.32152 0.064721 0.52066 0.28292 0.13598 0.14441 -0.38464 0.25542 0.11817 -0.15032 0.26242 -0.66937 -0.8512 0.022971 0.52734 -0.8133 0.29629 0.1092 -0.032776 0.20632 -0.2561 -0.21985 -0.037182 -0.030801 0.11859 0.35661 -0.55668 0.43553 -0.13159 -0.0299 -0.29452 -0.28123 -0.52487 -0.6322 -0.41012 -0.34007 -0.71437 -0.5054 -0.070147 -0.088338 0.040306 0.2034 0.40998 0.077267 -0.058203 -0.076052 0.53281 0.20127 -0.32316 0.29757 -0.030783 0.33453 0.26297 -0.32582 -0.37307 0.29679 -0.097481 0.25289 0.42252 0.19248 -0.049853 0.039201 -0.34751 0.046649 0.11966 0.030131 -0.49478 -0.37694 0.56615 0.32031 0.17305 -0.52693 0.19417 -0.83728 0.11739 0.55115 0.72311 0.14469 0.44541 -0.10988 -0.092472 -0.25171 -0.59137 0.24426 -0.50856 -0.08425 0.2255 -0.27472 0.14229 0.39024 0.36851 0.39232 0.13112 -0.48596 -0.42174 0.15574 -0.25529 -0.52649 0.076557 -0.16439 0.32424 0.64843 -0.59937 -0.79271 -0.15315 0.19063 -0.035139 -0.13958 -0.40735 -0.47366 -0.25896 0.0069252 -0.29882 -0.30382 -0.14378 -0.34589 0.17333 0.31623 0.79729 0.7163 -0.2922 0.10125 -0.22023 0.059287 0.32275 -0.6506 -0.42458 -0.25301 0.26102 -0.69771 0.44948 -0.37446 0.37872 -0.87725 -0.16271 0.19731 0.48067 -0.044545 -0.22708 -0.38031 -0.04729 0.81209 0.10727 -0.43366 0.2429 0.64409 -0.47304 -0.1093 -0.61632 0.41794 -0.39312 0.27924 0.1336 0.27623 -0.16448 -0.024025 0.23559 -0.90751 -0.30074 0.26569 -0.1848 -0.53358 0.44419 0.019326 0.22702 -0.25884 0.78007 -0.2315 0.38903 -0.23426 -0.16086 0.55765 0.25666 -0.27778 -0.44986 0.24867 -0.013739 0.39674 
20 -0.18185 -0.1246 -0.085141 0.035334 -0.02636 -0.20123 -0.49359 -0.13105 0.44602 0.44029 -0.91766 0.019956 0.065605 0.046746 -0.43681 -0.41573 -0.46075 0.083313 -0.15328 0.66401 -0.11029 -0.064826 -0.49671 -0.001623 0.46541 -0.076885 -0.04771 0.0043585 -0.039354 0.23199 0.58775 -0.6118 -0.11517 -0.022038 -0.26374 -0.021614 0.13135 -0.60621 0.020477 -0.22246 -0.024192 0.15079 0.12868 -0.28812 0.01634 0.36801 0.5167 0.2078 -0.54743 0.45139 0.34596 -2.4796e-05 -0.41241 -0.96548 -0.50223 0.37602 -0.038318 0.38658 -0.81854 -0.099695 0.32377 -0.047069 0.065739 0.35192 0.53244 0.23606 0.31891 -0.20731 0.47561 -0.10865 -0.04973 0.126 -0.13573 0.24978 0.067825 0.096768 -0.39851 0.062464 0.15712 -0.089965 0.47774 -0.5331 0.36512 0.13603 -0.17407 -0.084295 -0.0254 -0.015019 -0.55242 -0.44266 -0.19914 0.52403 -0.037399 -0.52641 -0.25734 -0.50652 -0.37735 0.15757 0.45783 0.14573 0.59691 0.20004 -0.17569 -0.41138 -0.10729 0.3947 -0.39997 0.025538 0.34237 -0.056013 0.18483 0.10097 -0.02279 -0.015769 -0.31307 0.21939 -0.38638 -0.10449 -0.098125 0.070966 -0.2507 0.076962 -0.24629 0.31707 -0.28885 -0.61205 -0.078622 0.019992 -0.039776 -0.19605 -0.34305 -0.35245 0.12584 -0.33637 -0.2248 -0.68488 -0.26674 0.038743 0.11861 0.073521 0.66885 1.2241 -0.92376 0.020156 -0.46839 -0.44089 0.65144 -0.71321 -0.25665 -0.025763 0.19362 -0.14763 0.88623 0.071405 0.26757 -0.53431 0.041137 -0.38137 0.38929 -0.013646 0.0794 0.0091708 0.47084 0.87457 0.50419 -0.24385 -2.937e-05 0.19801 -0.45215 0.044303 -0.17727 0.53665 -0.19745 0.87392 -0.4242 0.52153 -0.22957 -0.39357 0.67857 -0.40813 -0.085583 0.22028 -0.080298 -0.44457 0.50653 -0.35321 0.071144 -0.57702 0.41121 -0.0063632 0.17888 -0.48521 -0.34164 0.37871 -0.092409 -0.81235 -0.21499 0.75814 -0.40942 -0.15011 
2067 0.76639 -0.017899 0.81157 0.16974 -0.1331 -0.32349 -0.105 0.21455 0.48504 0.23571 -0.56932 0.30541 -0.052 -0.019794 -0.63546 -0.20611 -0.060558 -0.72613 0.16745 0.57728 -0.17571 -0.31612 -0.10164 0.41439 -0.15414 -0.2649 -0.32752 -0.062618 -0.21872 0.23711 -0.77179 -0.2984 0.074757 0.045748 -0.056238 0.59837 0.87336 -0.20981 0.77275 -0.096582 -0.021471 0.061778 -0.12558 0.076872 0.27246 0.73168 0.031847 -0.095023 -0.15725 0.59833 0.013075 -0.70495 -0.13279 -0.4396 -0.29743 0.0096455 0.30014 0.069244 0.045727 0.17842 0.001945 -0.47706 -0.19403 -0.0072409 0.46085 0.27686 0.91288 -0.85012 0.097033 -0.2985 0.066499 0.31752 0.17992 0.57518 -0.22589 -0.42368 0.38599 0.31873 -0.050498 -0.51749 -0.26143 0.35762 0.086985 -0.077243 -0.20364 -0.016786 -0.39563 0.62536 0.32229 -0.54343 -0.069888 0.20328 -0.28829 -0.16637 -0.52681 -0.33683 -0.99694 0.58343 0.43292 -0.479 0.46519 0.11519 0.15459 -0.20593 -0.082192 -0.21818 -0.75077 -0.087121 0.39401 -0.21786 -0.24717 1.0269 0.38043 0.65735 -0.0074072 0.42114 -0.57037 -0.42761 -0.2551 -0.12436 0.28328 0.33124 -0.3494 0.074642 0.27597 -0.051276 -0.41332 0.064662 -0.60028 0.05628 -0.32119 0.4223 -0.095426 0.24353 0.39972 -0.081695 -0.29223 -0.10466 -0.30455 0.41926 0.47774 0.79806 -0.019036 0.19391 0.2415 0.40352 1.1099 -0.37201 0.24686 0.54911 -0.26661 0.39865 0.6508 0.34121 0.15904 -0.25878 -0.15162 -0.26446 -0.19013 0.36993 0.1357 0.32881 -0.042002 0.096855 0.6873 -0.88666 -0.33417 0.0025824 0.1076 -0.26054 -0.82366 -0.4358 0.36013 0.026352 -0.40992 0.30608 -0.086545 0.3032 0.075474 -0.23432 -0.10068 0.99214 0.4196 -0.28202 -0.062357 0.069675 -0.28643 -0.48948 -0.13611 -0.61862 -0.10138 -0.39288 -0.93049 0.4279 -0.27878 -0.39851 -0.041572 0.24543 -0.26666 -0.33255 
2068 0.76949 0.14712 0.14859 0.0014558 -0.015629 -0.26059 -0.034276 0.38738 0.72678 0.42737 -0.5698 0.39379 -0.29419 -0.11875 -0.79807 0.15066 -0.1213 -0.43261 0.31498 0.60996 -0.18554 -0.18898 -0.082051 0.15506 -0.43718 -0.13576 -0.20379 -0.38057 -0.17305 0.18512 -0.29128 -0.30841 0.07254 0.2184 -0.048389 0.6039 0.5141 -0.23591 0.7126 -0.28762 -0.38832 0.05215 0.052231 -0.17614 0.084136 0.92996 -0.050711 0.19857 -0.12128 0.45471 0.078248 -0.53197 -0.27122 -0.581 -0.36399 0.32528 -0.0084629 -0.063544 -0.21994 -0.092697 -0.043283 -0.62041 -0.10539 -0.18248 0.63387 0.54317 0.68359 -0.77702 -0.075089 -0.26059 0.27706 0.1217 -0.016655 0.30162 -0.54107 -0.71251 0.21624 0.61781 -0.4294 -0.82413 -0.46666 0.48497 0.018417 -0.15578 -0.019166 -0.16884 -0.57783 0.21015 0.14731 -0.084776 -0.25029 0.079871 -0.29823 -0.48135 -0.616 -0.056448 -1.1319 0.13095 0.014293 -0.52336 0.39595 0.11408 0.056888 -0.12451 -0.20949 -0.32631 -0.86998 -0.18593 0.044343 0.19041 -0.22222 0.80894 -0.034722 0.50568 0.050323 0.37615 -0.25242 -0.65995 -0.11291 0.28623 0.3747 0.39206 0.21991 0.4391 0.19077 0.47924 -0.62764 -0.017591 -0.31414 -0.48894 -0.31864 0.34841 0.079357 0.25307 -0.039488 -0.17113 -0.51916 -0.10632 -0.18632 0.4934 0.75864 0.60031 0.17993 0.21166 0.17503 0.11934 0.67294 -0.37076 0.17566 0.74977 -0.61232 0.07946 0.44858 0.43901 0.29802 -0.21122 -0.41435 -0.28323 -0.098455 0.11217 -0.22036 0.062276 -0.088647 0.12457 0.39245 -0.76021 -0.41645 -0.4417 0.049328 -0.34443 -0.54622 -0.66055 -0.13062 0.60631 -0.30951 0.718 0.23232 0.29671 -0.12531 -0.24443 0.041239 0.96821 0.19788 -0.17551 0.049544 0.014355 -0.1351 -0.64928 -0.10027 -0.52123 -0.21973 -0.34969 -1.1274 -0.056078 0.18082 -0.41712 -0.11622 0.17331 -0.41895 -0.50307 
2069 0.74494 -0.11419 0.85652 0.42867 0.029655 0.017627 0.096372 0.066927 0.7494 0.56509 -0.71775 0.69615 -0.18107 -0.024666 -0.58766 -0.2097 -0.23775 -0.82631 0.50683 0.65479 -0.057981 -0.27287 -0.10426 0.24306 -0.23433 -0.30321 0.036624 0.017525 -0.26387 0.12976 -0.14254 -0.65469 0.24636 0.23087 0.07201 0.67726 0.52958 -0.72928 0.75318 -0.27587 -0.30827 0.0074784 0.1369 0.16365 0.30384 0.8439 -0.22038 -0.0049201 -0.10392 0.34446 -0.089743 -0.46609 0.10812 -0.6444 -0.66618 0.20898 0.17293 -0.059408 0.33374 0.063228 -0.16887 -0.48976 -0.34882 -0.32223 0.24538 0.095538 0.63496 -0.85274 0.018255 -0.3994 0.090826 -0.077811 0.25132 0.54399 -0.69437 -0.35448 0.30894 0.7122 -0.02092 -0.81504 -0.188 0.11565 -0.069597 0.13888 -0.036635 -0.34012 -0.17559 0.42633 0.19746 -0.37183 -0.21406 -0.076125 -0.1821 -0.36579 -0.6333 0.23729 -1.2168 0.65944 0.51095 -0.36084 0.68873 0.43959 -0.13362 -0.3582 -0.24008 -0.12067 -0.76409 -0.15243 0.18902 0.28295 -0.49105 0.84637 0.30568 0.47285 0.04294 0.1344 -0.34124 -0.27956 -0.3651 -0.020417 0.2467 0.033174 0.0024152 0.21979 0.33086 0.24116 -0.47679 0.019274 -0.70969 -0.12979 -0.17755 0.15027 0.063981 0.52966 0.08398 0.051988 -0.51804 -0.099746 -0.056879 0.3605 0.58121 0.73591 -0.21266 0.50075 0.28532 0.063911 0.95893 -0.21778 0.091017 0.49025 -0.49172 0.072265 0.57241 0.70484 0.34378 -0.19327 -0.69091 -0.36729 0.15473 0.18871 0.49114 -0.21429 -0.10176 -0.11702 0.99833 -0.26672 -0.055615 -0.33455 -0.20722 0.27643 -0.71819 -0.72753 -0.05995 0.53715 -0.57888 0.80776 0.017122 0.30792 0.28215 -0.67081 -0.11208 0.94838 0.023995 0.020615 -0.046569 0.11206 -0.27638 -0.62035 -0.37706 -0.24497 -0.27346 -0.35808 -0.8732 0.020135 0.26839 -0.18526 -0.28168 0.18986 -0.33599 -0.34935 
22 0.078188 -0.019512 0.36528 -0.062118 -0.050667 0.10111 -0.78697 0.13139 0.5086 0.59415 -0.80989 0.21224 -0.21196 0.3115 -0.4973 -0.58305 -0.19388 -0.22065 -0.36722 0.35784 0.19393 -0.35895 -0.26184 0.13775 0.27389 0.047842 -0.2315 0.072647 0.11813 -0.10762 0.36019 -0.4197 0.2277 -0.076 0.066276 0.048708 0.35305 -0.31613 0.26732 -0.4074 -0.18898 0.079617 0.094286 -0.15721 0.2349 -0.021072 0.54149 -0.16742 -0.48583 0.43483 0.16328 0.14098 -0.28046 -0.45192 -0.77699 0.41253 0.13702 0.067706 -0.26182 -0.34278 0.62339 -0.3727 0.37323 0.074276 0.26846 0.30759 0.25413 -0.12011 0.46659 0.12486 0.018734 0.14731 -0.16318 0.36767 -0.1211 -0.34089 -0.28957 0.15216 -0.044782 0.050293 0.40354 -0.37035 0.3491 0.29345 -0.16499 0.06707 -0.11319 0.20717 -0.11797 -0.42709 -0.18149 0.36913 0.11693 -0.6025 -0.47751 -0.34404 -0.62833 0.028882 0.51958 -0.00255 0.42842 -0.14435 -0.085231 -0.233 -0.26612 0.1471 -0.2787 0.11945 0.60841 -0.37469 -0.013139 0.42998 0.084098 -0.06094 0.0075749 -0.036806 -0.60747 -0.24353 -0.0023743 0.23306 -0.17642 -0.00060034 -0.33621 0.30968 -0.25242 -0.48297 -0.26104 0.11167 -0.27048 -0.063691 -0.37804 -0.24061 0.063503 -0.34509 -0.31229 -0.50395 -0.25804 0.085632 -0.049516 0.21013 0.31968 0.82434 -1.0294 -0.044017 -0.4876 -0.13626 0.47696 -0.63066 -0.30593 0.15112 -0.052219 -0.078831 0.80856 0.18333 0.19266 -0.40485 -0.13135 -0.38386 0.2177 0.044851 0.3984 -0.24958 0.45518 0.7088 0.35095 -0.1562 0.18978 0.13896 -0.38775 -0.28152 -0.21508 0.3113 -0.36046 0.95186 -0.57147 0.51013 0.0038061 -0.33407 0.3772 -0.35285 -0.016146 0.5163 0.055016 -0.20534 0.44867 -0.34397 -0.22482 -0.80441 0.37626 -0.33289 -0.028522 -0.4365 -0.67794 0.47434 -0.38318 -0.95139 -0.21343 0.45297 -0.34234 -0.49645 
250 0.18593 0.059911 -0.33349 0.20765 -0.087883 -0.58647 0.21301 -0.15436 0.18184 0.80456 -0.83338 0.29756 -0.0024789 -0.059623 -0.56187 -0.24334 -0.61613 -0.3182 -0.19317 0.80057 0.27665 0.0021427 -1.0038 -0.45998 0.09191 -0.25109 -0.41328 0.044769 -0.58446 0.3693 0.49707 -0.23738 -0.3239 0.030645 -0.32108 0.32155 0.1745 -0.8381 -0.01172 0.01755 0.16745 -0.22527 0.37091 -0.72898 0.12927 0.5702 0.46436 0.014541 -0.68718 0.35718 -0.21465 -0.43425 -0.19386 -0.2602 -0.62903 0.04484 -0.5267 0.44869 -1.1469 -0.2209 0.013905 -0.33585 -0.041111 -0.092294 0.70765 0.064027 0.65375 -0.40651 0.73299 0.090559 -0.25992 -0.067527 0.5186 1.0124 -0.38511 0.01301 -0.20218 -0.054619 0.41053 -0.48415 -0.061895 -0.3062 0.47019 -0.73942 -0.37037 -0.71902 -0.52802 0.22268 -0.41412 -0.65234 -0.46544 0.38745 0.047549 -0.056789 -0.392 -0.37963 -0.50068 0.046489 0.6037 -0.089688 0.5687 0.36624 0.021576 0.079866 -0.23422 0.13395 -0.48892 0.08991 0.1774 0.08772 -0.56755 0.33274 0.10392 -0.011468 0.088174 0.61866 -0.16331 -0.44327 0.35618 -0.6236 -0.084988 0.13628 -0.22779 0.66933 -0.35496 -0.43678 -0.18953 -0.053209 -0.011301 -0.46912 0.14679 -0.026962 -0.21029 -0.10199 0.043614 -0.79401 -0.13975 0.025792 0.18482 0.59714 0.79723 1.0393 -0.58527 -0.41582 -0.43439 0.014755 1.3776 -0.44864 -0.32733 0.18749 0.73269 0.17026 0.80515 0.35163 -0.13582 -0.75603 0.22837 -0.58038 -0.3583 -0.32695 0.25865 0.29203 -0.18563 0.39801 0.55138 0.3804 -0.11938 0.5165 -0.63226 -0.14834 -0.5626 -0.12632 0.17576 0.20648 -0.14394 0.74821 -0.2279 -0.32912 1.1987 -0.18901 -0.53776 0.10922 0.27431 0.062156 0.5356 -0.5186 0.66259 -0.056148 -0.28496 0.082232 0.29825 -0.32099 -0.21116 0.28519 0.40817 -0.32064 -0.56892 1.0651 -0.51603 -0.38306 
25yo -0.24359 0.39665 0.98525 0.36199 0.17031 -0.41481 -0.12805 0.25715 0.96975 0.090365 -0.33496 0.43228 0.2286 -0.023819 0.46207 0.20698 -0.81402 -1.3409 0.23905 -0.28846 -0.058555 0.31366 -0.40368 0.97887 0.52508 0.29655 1.0307 -0.5733 -0.87675 0.28298 -0.08862 0.23945 -0.77903 -0.28664 -0.32731 1.0433 0.076169 -0.76403 0.72536 0.44467 -0.32741 0.003469 0.47169 0.082106 0.098481 0.24445 -0.49452 0.033299 -0.67569 0.65133 0.015971 -0.23381 -0.78028 -0.020496 -0.402 0.10619 0.21274 -0.6412 -0.13706 0.57104 -0.018867 -0.66053 0.7416 0.29565 -0.083112 0.7498 -0.30959 0.57582 0.31845 0.60967 -0.16731 0.74611 0.36366 0.29945 -0.39124 -0.36741 0.26271 -0.6047 -0.10884 -0.073692 -0.12935 -0.098589 -0.054636 -0.036199 -0.81529 0.18405 -0.44621 0.57707 -0.28611 0.35867 -0.047147 1.0353 0.043681 0.17113 -0.9154 0.18716 -0.39397 0.18719 0.31644 -1.2251 1.2682 -0.25191 -0.44142 0.101 0.042996 -0.13869 -0.51297 0.5279 0.37068 -0.67426 0.29917 0.018577 -0.94144 0.28132 -0.47882 0.18421 0.30607 0.51002 -0.3497 0.15336 0.43494 -1.077 0.23151 0.18582 0.34165 -0.78617 -0.42799 -0.15712 -0.022143 0.13261 0.38123 -0.50543 -0.51674 -0.4123 -0.21989 -0.45574 -0.34204 0.67432 0.39953 -0.36082 0.43835 0.13952 0.095651 -0.42856 -0.49358 0.78703 0.91418 -0.35179 -0.12997 0.095689 -0.37362 0.54113 0.76301 0.73554 0.21526 -0.0011642 -0.64161 0.86717 -0.18289 -0.23908 1.147 -0.72738 0.040639 0.25826 0.44395 -0.70467 -0.61353 0.14083 0.23001 0.17175 0.5091 -0.074552 0.64432 0.1016 0.3368 0.59271 0.40374 -0.106 0.092034 0.058192 -0.20129 0.15248 0.68653 -0.36948 -0.71947 -0.43671 0.13947 0.5378 0.12876 -0.52501 0.070275 -0.079237 -0.3583 -0.35036 0.4811 -0.24202 -0.48621 0.10881 -0.80248 -0.48413 
260 0.67169 -0.1487 0.15271 0.087287 -0.0027796 0.033451 0.32373 0.023642 0.065379 0.86238 -0.88281 0.29097 -0.25763 -0.074316 -0.25886 -0.38338 -0.07527 -0.47331 -0.17347 0.33816 0.19526 -0.31897 -0.28589 -0.23271 0.28229 -0.15472 -0.21662 -0.085286 -0.15233 0.37636 0.20795 -0.4218 0.010605 -0.071019 -0.060433 0.57254 0.7644 -0.52801 0.23134 -0.12267 -0.040259 -0.097092 0.21586 0.029279 -0.094939 0.66057 0.47074 0.22093 -0.14731 0.080532 -0.044616 -0.29256 -0.038297 0.0083548 -0.31662 0.26212 0.06033 0.051532 -0.29975 -0.24638 0.28212 -0.19283 -0.084173 -0.25078 0.54834 -0.14136 0.60976 -0.65768 0.51414 -0.021221 -0.31182 -0.12552 0.16344 0.60434 -0.20609 0.050616 0.10545 0.082759 0.26177 -0.33527 0.016343 0.029482 0.33172 -0.51888 -0.26801 -0.24092 0.066452 0.3544 0.2675 -0.63952 -0.43484 0.12614 -0.10498 -0.30356 -0.53535 -0.5137 -1.0302 0.23016 0.39305 -0.36509 0.2242 0.15459 0.04604 -0.32389 -0.30477 -0.083749 -0.3544 0.01545 0.24366 -0.0081668 -0.23958 0.25711 0.040346 0.24069 -0.16345 0.51463 -0.13515 -0.91278 0.16221 -0.075894 -0.0065636 0.29684 -0.00034444 0.36467 0.16934 0.20645 -0.16772 0.28633 -0.27623 0.028173 -0.025632 0.18231 -0.26775 0.073472 -0.2564 -0.18075 -0.50795 -0.19195 -0.30482 0.52408 0.56167 0.60707 -0.28689 0.10474 -0.16783 0.21666 1.1174 -0.51734 0.40109 0.74351 0.023085 0.37416 0.3936 0.42265 -0.146 -0.63102 0.078157 -0.47985 -0.51092 -0.34627 0.7536 0.18632 -0.13521 0.40275 0.76095 0.049571 0.045823 0.09089 -0.16865 -0.36001 -0.33546 -0.12127 0.20468 0.2724 -0.33325 0.47878 0.13205 0.11165 0.69175 -0.046601 -0.19798 0.80004 0.43157 -0.36492 0.33169 0.069276 -0.0036118 -0.31162 -0.19368 -0.5346 -0.13569 -0.21392 -0.48317 0.57512 -0.19653 -0.10721 -0.44148 0.32198 -0.080316 -0.41223 
3 0.156 -0.22264 0.18502 -0.064225 -0.37176 -0.12713 -0.87159 0.13646 0.46216 0.23281 -0.44583 0.091773 -0.041821 0.30247 -0.29068 -0.31992 -0.74725 -0.034402 0.59105 0.27336 -0.056687 -0.27621 -0.3449 0.028942 0.63318 0.19511 0.091637 -0.13743 -0.088508 0.34647 -0.089619 -0.14433 0.46599 -0.44096 -0.61465 -0.073853 0.41679 -0.72336 0.3665 0.023967 -0.33282 0.3494 -0.1714 -0.17265 0.10022 0.084433 0.2413 0.17035 -0.60603 0.5081 -0.11267 -0.17956 -0.41964 -0.27397 -0.62269 -0.12953 -0.46333 -0.16657 -0.4481 -0.53996 -0.19231 -0.24507 0.14049 0.23472 0.35476 -0.063897 0.18816 0.22594 0.56824 -0.012604 -0.55668 -0.07335 -0.036297 0.33806 0.30698 -0.30833 -0.38431 0.24486 0.074052 0.3009 0.57612 -0.12793 -0.071867 -0.056837 -0.30049 -0.069982 -0.0073913 0.0098517 -0.32653 -0.5363 0.25422 0.1909 0.24369 -0.3606 -0.20783 -0.7824 0.12752 0.38814 0.52336 0.010671 0.35155 0.028426 -0.043567 -0.10047 -0.49643 0.26065 -0.60864 0.060046 0.44337 -0.14044 0.11215 0.49502 0.41629 0.21912 0.18862 -0.26735 -0.41987 0.27274 -0.49062 -0.49714 0.10943 -0.25097 0.14189 0.62226 -0.31461 -0.64716 -0.099403 0.2817 -0.10182 0.090459 -0.12259 -0.29598 -0.29558 -0.014687 -0.14916 -0.30164 -0.23543 -0.42148 -0.014886 0.34037 0.78176 0.31335 -0.28601 -0.066296 -0.23973 0.096875 0.57485 -0.51419 -0.79585 -0.43938 0.18555 -0.52167 0.45589 -0.26544 0.37077 -0.67323 -0.26925 0.17278 0.38217 -0.094105 -0.21282 -0.3388 0.13392 0.8188 0.096294 -0.30226 -0.0020355 0.42378 -0.76285 0.086139 -0.39449 0.46448 -0.47614 0.40349 0.00097825 0.43182 0.015608 0.2306 0.35208 -0.7875 0.17446 0.35704 -0.081252 -0.35745 0.62829 -0.037438 0.087628 -0.37594 1.015 -0.23691 0.43103 -0.19913 -0.38424 0.59058 0.057212 -0.29464 -0.29733 0.29039 0.0039802 0.1593 
33 0.25575 0.072122 0.47367 -0.013499 0.0091995 0.0062771 -0.50312 -0.038216 0.50588 0.84768 -0.73576 0.34338 -0.179 0.28096 -0.29312 -0.67938 -0.24403 -0.20232 -0.34245 0.45126 0.37304 -0.28812 -0.37287 -0.029864 0.27426 -0.085212 -0.1986 0.075013 0.015529 -0.083389 0.11627 -0.3071 0.24884 -0.1155 0.13179 0.44837 0.40393 -0.34226 0.28838 -0.37354 -0.050448 -0.062174 0.061646 -0.02163 0.081381 -0.041316 0.54006 -0.087914 -0.28529 0.3589 0.1198 0.19119 -0.14155 -0.31634 -0.8916 0.36276 0.1462 0.062492 -0.24572 -0.3099 0.48383 -0.20056 0.34161 0.058759 0.31849 0.24331 0.28511 -0.17093 0.31435 0.21765 -0.13044 0.050551 -0.019403 0.28183 -0.11621 -0.26365 -0.12055 0.041757 -0.059924 -0.071242 0.21432 -0.24569 0.080691 0.084106 -0.17199 0.082938 -0.23492 0.27032 -0.073318 -0.43622 -0.24228 0.3311 0.027119 -0.50408 -0.35734 -0.3605 -0.397 -0.024249 0.51101 -0.38156 0.27043 -0.1412 0.11027 -0.29452 -0.26041 -0.13661 -0.44626 0.1977 0.55158 -0.25983 -0.013868 0.40761 0.1239 0.047495 0.021923 0.036941 -0.27249 -0.36601 -0.067979 0.33057 -0.12662 0.043292 -0.33004 0.29402 -0.26469 -0.14785 -0.22102 0.030975 -0.32189 -0.022509 -0.056171 -0.39198 0.11024 -0.35021 -0.51811 -0.49967 -0.33832 0.025849 0.011841 0.17964 0.22657 0.73928 -0.91406 0.19686 -0.45589 -0.1198 0.58374 -0.69716 -0.16554 0.44648 -0.036148 0.034118 0.70968 0.11584 0.22554 -0.38209 -0.27164 -0.58307 0.019545 -0.029127 0.406 -0.22229 0.18509 0.74873 0.2692 -0.14408 0.18579 -0.00087063 -0.38831 -0.47086 -0.16097 0.096578 -0.20196 0.89164 -0.44473 0.32766 0.24633 -0.11482 0.54091 -0.2846 0.0020559 0.58716 0.12136 -0.086511 0.19301 -0.3628 -0.45899 -0.55593 0.40699 -0.25809 -0.20001 -0.29643 -0.66969 0.41243 -0.40223 -0.72642 -0.1421 0.52116 -0.48556 -0.69101 
4 0.20392 -0.049458 0.013974 0.089563 -0.42206 -0.15554 -0.97826 -0.11155 0.51127 0.43486 -0.57669 -0.099969 -0.23047 0.35829 -0.36123 -0.37581 -0.69271 0.014744 0.71721 0.21531 -0.052027 -0.35087 -0.29301 0.060369 0.71761 0.037423 0.15416 -0.13073 -0.11502 0.25789 -0.011164 -0.13004 0.53138 -0.74286 -0.57695 -0.052061 0.50263 -0.68103 0.39074 -0.12524 -0.47293 0.25982 -0.18765 -0.42332 0.011046 0.0015162 0.36904 0.11341 -0.47317 0.33246 0.14509 -0.089984 -0.26568 -0.23396 -0.71714 -0.066242 -0.39807 -0.13209 -0.46823 -0.53305 0.0096295 -0.41046 0.50667 0.35236 0.2099 0.059743 0.19699 0.098963 0.42576 -0.12699 -0.39327 0.032848 -0.14224 0.40384 0.12446 -0.26218 -0.21329 0.16108 0.12828 0.26223 0.50248 -0.25456 0.15804 -0.088604 -0.28749 0.033288 -0.054984 -0.10734 -0.37592 -0.44324 0.30629 0.34421 0.29632 -0.40384 -0.28018 -0.6869 0.12438 0.39894 0.44003 0.0061368 0.49136 -0.18966 -0.055683 -0.13572 -0.56778 0.42474 -0.66508 -0.039633 0.41871 -0.015012 0.18908 0.49687 0.2212 0.050301 0.066619 -0.23169 -0.5047 0.20211 -0.38809 -0.50915 0.13409 0.024146 0.12351 0.48709 -0.28826 -0.5419 0.077206 0.1774 0.074835 0.028605 -0.28127 -0.36793 -0.097124 0.081059 -0.20509 -0.25748 -0.034088 -0.41903 -0.097227 0.29417 0.77794 0.33917 -0.50043 0.11022 -0.47118 -0.002375 0.48593 -0.62557 -0.68823 -0.55759 0.11545 -0.43727 0.71184 -0.016995 0.21556 -0.71578 -0.1724 0.07242 0.44925 -0.15596 -0.21453 -0.45146 0.18618 0.86269 0.35294 -0.29494 0.12538 0.26428 -0.64727 -0.091158 -0.27035 0.60899 -0.36067 0.38719 -0.02837 0.42615 -0.15702 0.22722 0.46526 -0.75328 0.071785 0.46482 0.053635 -0.42866 0.52495 -0.045113 0.076517 -0.39281 1.0698 -0.18087 0.32197 -0.20909 -0.41302 0.58117 0.050732 -0.36 -0.29584 0.33128 -0.10406 0.093001 
5 -0.26363 -0.18016 0.0057219 0.44321 -0.14338 -0.19244 -0.65159 -0.13548 0.34322 0.35347 -0.66926 0.14664 -0.17929 0.23652 -0.51735 -0.41164 -0.46508 -0.07733 0.24438 0.22869 -0.085132 -0.21932 -0.4096 0.055017 0.77567 -0.038032 0.11436 -0.3992 -0.093475 0.50097 0.15247 -0.18497 0.41027 -0.38903 -0.54406 -0.064625 0.25915 -0.58453 0.49666 -0.25437 -0.2957 0.30319 -0.27833 -0.47711 0.15654 0.21928 0.48198 -0.01498 -0.68573 0.36993 0.038095 -0.040691 -0.27966 -0.39412 -0.49084 0.028347 -0.25462 0.28457 -0.62621 -0.52885 -0.053584 -0.27877 0.29042 0.52195 0.57442 0.13286 0.22969 0.011606 0.30495 -0.042966 -0.46789 0.21765 -0.027424 0.37909 0.27721 -0.35293 -0.44599 0.21643 0.38981 0.18263 0.74446 -0.27303 0.15623 0.1286 -0.11005 -0.066822 -0.031669 -0.3031 -0.35099 -0.45629 -0.20282 0.33798 0.4479 -0.43276 -0.36279 -0.70699 -0.038611 0.062187 0.65179 -0.07795 0.39441 0.21459 -0.23551 -0.44316 -0.19155 0.41153 -0.36333 -0.13136 0.27171 0.027193 0.1954 0.45357 0.30283 0.14058 0.22868 -0.14882 -0.56266 0.13653 -0.36067 -0.36082 -0.01643 -0.31681 0.044982 0.38747 -0.30354 -0.59458 0.01994 0.075259 0.10891 0.03048 -0.29969 -0.33299 -0.11331 -0.18488 -0.2125 -0.30636 -0.18283 -0.37154 0.13031 0.39585 0.84578 0.63711 -0.63646 0.011576 -0.53347 -0.13858 0.54321 -0.53063 -0.5043 -0.37822 0.35748 -0.30534 0.70083 0.10317 0.060403 -0.6276 -0.25347 -0.010292 0.39846 0.30843 -0.028846 -0.24533 0.51765 0.79156 0.25966 -0.1565 -0.019643 0.0072355 -0.84384 0.37631 -0.58793 0.61264 -0.34068 0.65131 -0.21057 0.60412 -0.33024 0.19482 0.57238 -0.5264 0.17186 0.24125 0.12126 -0.37155 0.57087 -0.1465 -0.0033523 -0.23745 0.61117 -0.035636 0.29997 -0.34179 -0.47041 0.50503 0.21216 -0.64801 -0.086779 0.46542 -0.25452 0.065688 
500s -0.58348 0.47252 -0.29586 0.13072 0.10828 -0.34824 1.1133 0.16134 0.74906 0.35584 -0.48369 0.82237 0.41091 0.10849 0.80672 -0.20597 0.062578 -0.51041 -0.78103 -0.064661 0.33143 0.090121 -0.052475 0.26124 -0.24868 0.11477 0.47897 -0.9817 0.014224 0.8238 0.44067 -0.91873 -1.2419 -0.68412 -0.7906 1.2347 0.57694 -0.04747 -0.30493 0.12545 -0.6523 -0.23601 0.37698 -0.7705 -0.092974 0.14659 0.32889 -0.35322 -0.79501 0.81575 -0.77652 0.15674 -0.46096 0.077319 -0.14813 0.51963 0.73649 -0.43609 -0.38085 -0.31771 -0.0027519 -0.34109 0.53461 -0.21756 0.86165 0.59295 -0.39402 -0.33336 0.04492 -0.14007 -0.12136 -0.62906 0.27987 0.88645 1.1245 0.29112 -0.52222 -0.51104 0.62332 -0.40816 -0.20831 0.15733 0.59796 -0.11634 -0.30836 0.13946 0.074063 -0.17747 -0.43112 0.10706 0.30989 -0.014659 -0.1858 0.065961 -0.90793 -0.21815 -0.059186 -0.041612 0.1018 -0.52103 0.6442 0.49323 -0.60356 -0.90702 0.045308 0.29952 0.42225 0.17857 0.98593 -0.50898 0.48295 0.53294 -0.26337 0.30325 0.24681 0.44828 0.41733 0.10685 -0.31179 -0.67654 0.39674 -0.090709 -0.83281 0.34887 -0.34536 -0.6274 0.28579 -1.1061 0.052721 -0.45352 -0.49914 0.44346 -0.60091 0.30703 -0.15171 -0.4857 0.39476 0.425 -0.66143 -0.38627 0.6973 0.47499 -0.40271 -0.041006 -0.31719 -0.67435 0.46209 -0.26779 0.26429 0.44949 0.26659 -0.18071 0.19897 0.6801 0.11484 -0.56908 -0.30187 -0.51981 0.65892 0.15939 0.84958 0.56683 0.68926 0.2254 0.27903 0.32273 -0.61155 0.17247 -0.44986 0.86089 -0.2967 -0.11666 -0.2664 -0.11075 0.26364 1.0931 -0.10247 -0.45183 0.85088 0.47947 0.1674 -0.014986 -0.44013 -0.48982 -0.45271 -1.307 -0.50427 -0.84331 -0.85577 -0.66205 -0.22871 -0.41001 -0.052569 0.84624 0.91299 -1.5725 -1.2265 0.28659 -0.13515 -0.60648 
59 0.58821 0.24018 0.61394 -0.16911 0.012936 -0.007528 -0.21693 0.022677 0.56831 1.0987 -0.54081 0.53468 -0.28577 0.149 -0.35857 -0.75739 -0.37634 -0.48123 -0.35079 0.32094 0.4446 -0.34603 -0.3853 -0.17624 0.27367 -0.10641 -0.014216 0.25701 0.093648 0.053116 -0.0026885 -0.23743 0.21565 -0.086042 0.14665 0.48481 0.45857 -0.39718 0.33543 -0.15851 0.15898 -0.038659 -0.13539 -0.015401 0.082857 -0.18948 0.47981 0.0538 -0.11854 0.41601 0.055319 0.04223 -0.23852 -0.28868 -0.77214 0.37117 0.24167 0.12758 -0.18653 -0.11739 0.30979 0.00070314 0.27496 0.15148 0.3384 0.21031 0.21858 -0.28161 0.27757 0.28448 -0.12963 0.10879 0.10774 0.37595 -0.065473 -0.19747 0.051995 -0.072186 -0.087864 -0.21759 0.16593 -0.18479 -0.13623 0.1162 -0.24924 0.052175 -0.22496 0.33981 0.16143 -0.4159 -0.31098 0.37741 0.028918 -0.26316 -0.15041 -0.36724 -0.5221 0.20496 0.56882 -0.44143 0.15756 -0.26962 0.053976 -0.18709 -0.23 -0.21764 -0.40063 0.16932 0.49234 -0.30863 -0.26365 0.40473 0.0042516 0.18858 -0.26608 -0.078395 -0.20121 -0.49898 -0.10746 0.41824 -0.13288 -0.12359 -0.17973 0.11732 -0.22253 0.08533 -0.25453 0.067258 -0.20254 0.038199 0.23648 -0.41384 0.11035 -0.35284 -0.55886 -0.51823 -0.41477 -0.05535 -0.18725 0.25331 0.26819 0.66491 -0.41069 0.046254 -0.23185 0.030586 0.63837 -0.73138 0.21064 0.48763 -0.35241 0.30163 0.43518 0.096861 0.14923 -0.40756 -0.095647 -0.69899 -0.16989 -0.1693 0.63376 -0.17301 0.056063 0.68792 0.19554 -0.22214 -0.031104 -0.12515 -0.27368 -0.52529 -0.10222 0.074755 -0.30205 0.78237 -0.38667 0.29137 0.44013 -0.23356 0.43726 -0.05249 -0.018819 0.52165 0.073778 0.12983 0.050842 -0.22498 -0.4862 -0.67756 0.22089 -0.63701 -0.22331 -0.24194 -0.7028 0.20896 -0.27434 -0.67119 -0.18564 0.57709 -0.5864 -0.80607 
6 0.092937 -0.24613 0.087948 0.19826 -0.16719 -0.24003 -1.0033 0.012012 0.4496 0.60433 -0.63188 -0.12797 -0.20602 0.28264 -0.55948 -0.36675 -0.48012 -0.042968 0.4576 0.1828 -0.10096 -0.27818 -0.36833 0.27485 0.77129 -0.11841 -0.11443 -0.2368 -0.082138 0.17761 0.116 -0.15111 0.23839 -0.76318 -0.61039 -0.0126 0.73789 -0.67968 0.28678 -0.16813 -0.55502 0.2251 -0.13987 -0.58493 0.12874 -0.17199 0.31087 -0.17297 -0.61113 0.25109 0.050424 0.08512 -0.18948 -0.11788 -0.96175 -0.066164 -0.038571 0.087347 -0.35204 -0.69211 0.034499 -0.23982 0.33771 0.42199 0.37451 0.31644 0.039287 -0.086717 0.28281 0.0031579 -0.50929 0.050007 0.14492 0.38267 0.1126 -0.33474 -0.18245 0.37429 0.37439 0.20093 0.51638 -0.21928 0.18356 -0.0047184 -0.10208 -0.037512 -0.12152 -0.24051 -0.12152 -0.45371 0.121 0.32712 0.2788 -0.42874 -0.23447 -0.57017 0.044136 -0.02339 0.326 -0.30184 0.38914 -0.21527 -0.1488 -0.43066 -0.42357 0.45512 -0.54806 0.0077435 0.42043 -0.0091268 0.19032 0.50657 0.28547 0.17735 -0.070934 -0.25666 -0.60866 0.2424 -0.23063 -0.48343 0.099181 -0.15898 -0.046069 0.2398 -0.20196 -0.47474 -0.010882 0.029858 0.001077 0.079047 -0.21611 -0.33351 0.028503 0.013688 -0.17252 -0.27166 -0.0058166 -0.19522 -0.037964 0.36316 0.83236 0.37194 -0.59523 -0.009545 -0.51144 -0.12586 0.47237 -0.55212 -0.49586 -0.40801 -0.020196 -0.42958 0.7629 0.30066 0.3435 -0.65016 -0.062849 -0.096238 0.53723 -0.073267 -0.032706 -0.3661 0.41164 0.69335 0.36677 -0.12581 0.0068672 0.10988 -0.64053 -0.026337 -0.41021 0.68176 -0.10794 0.41249 -0.16251 0.47975 -0.10151 0.14334 0.49363 -0.68959 0.03691 0.3888 -0.0054354 -0.14885 0.58619 -0.12773 0.039636 -0.45859 0.93133 -0.15787 0.27163 -0.26147 -0.52728 0.59625 -0.0013253 -0.82062 -0.29447 0.20749 -0.12767 0.11168 
67 0.45531 0.31097 0.5036 -0.22459 0.0057083 -0.050643 -0.35158 -0.1381 0.47713 1.0904 -0.60882 0.58629 -0.26932 0.15435 -0.36549 -0.82088 -0.35445 -0.21687 -0.46998 0.41229 0.49887 -0.37372 -0.22979 -0.14503 0.20722 0.055149 -0.067361 0.23046 0.19835 0.036708 0.060689 -0.29222 0.19844 -0.25003 0.024417 0.42501 0.50779 -0.41955 0.27666 -0.085231 0.16803 -0.074607 -0.30249 0.072863 0.092436 -0.22329 0.65647 0.11243 -0.044559 0.4843 0.089799 0.037542 -0.13493 -0.30669 -0.74244 0.38779 0.23442 0.3126 -0.26244 -0.19285 0.19022 0.028321 0.21152 0.1549 0.45641 0.14412 0.087512 -0.25228 0.30208 0.28247 -0.23809 0.076744 0.054737 0.31535 -0.04693 -0.13173 0.023648 -0.081557 0.033679 -0.17335 0.16639 -0.029981 -0.13189 0.010449 -0.09479 0.12321 -0.32679 0.25968 0.12641 -0.39784 -0.23903 0.41909 0.093484 -0.24814 -0.11565 -0.40523 -0.44034 0.2398 0.47796 -0.42522 0.2002 -0.21139 0.23463 -0.02151 -0.15971 -0.26833 -0.56909 0.11074 0.24978 -0.29449 -0.22074 0.40819 0.11791 0.27165 -0.37834 -0.0895 -0.15837 -0.51799 0.0061031 0.27166 -0.2448 -0.10361 -0.22151 0.090639 -0.21392 0.076363 -0.1872 -0.02898 -0.23775 0.0048762 0.29738 -0.47557 -0.0065459 -0.4914 -0.57393 -0.41481 -0.5381 -0.076618 -0.14351 0.42066 0.21002 0.63794 -0.46589 0.17523 -0.295 -0.040497 0.73011 -0.66635 0.27504 0.40271 -0.20572 0.24338 0.49685 0.07219 0.070504 -0.37951 -0.12739 -0.7432 -0.24726 -0.24093 0.72026 -0.22541 0.11779 0.78238 0.12032 -0.22494 0.03717 -0.1316 -0.34337 -0.5839 -0.24622 -0.19223 -0.39759 0.66514 -0.34822 0.27244 0.36111 -0.44163 0.47448 0.0015667 -0.022911 0.54241 0.033039 0.05377 -0.027905 -0.45801 -0.44117 -0.68214 0.25715 -0.6553 -0.20834 -0.33694 -0.68496 0.19147 -0.22728 -0.6651 -0.24367 0.68171 -0.68384 -0.744 
7 -0.13781 -0.18434 0.21627 0.081597 -0.21379 -0.068999 -0.81584 0.024797 0.43056 0.58376 -0.57751 -0.10481 -0.25985 0.58663 -0.59567 -0.4417 -0.28751 -0.10177 0.23863 0.26527 0.14303 -0.37635 -0.11037 0.19031 0.64247 -0.021107 -0.083416 -0.28243 -0.071762 0.074487 0.1797 -0.046106 0.23019 -0.69402 -0.36164 -0.16391 0.51352 -0.40348 0.38227 -0.25676 -0.50381 0.23981 -0.11048 -0.46838 0.15838 -0.11851 0.46577 -0.20771 -0.69623 0.34364 0.08896 0.1051 -0.40845 -0.019041 -0.80018 0.11566 0.013713 0.10523 -0.33222 -0.5206 0.31926 -0.37927 0.37679 0.34088 0.30067 0.28851 0.08911 -0.18516 0.26389 -0.024464 -0.46568 0.22493 0.089526 0.14867 0.032169 -0.37642 -0.29517 0.33006 0.28411 0.20089 0.60434 -0.30335 -0.013294 0.18597 -0.042904 0.0037882 -0.12972 -0.092774 -0.03828 -0.3203 -0.17679 0.46971 0.26349 -0.3924 -0.44756 -0.59638 -0.17638 -0.064283 0.19341 -0.10836 0.37813 -0.26206 -0.23286 -0.16417 -0.21416 0.60174 -0.49064 -0.16025 0.47588 -0.091924 0.0053774 0.52156 0.20733 0.19542 0.011024 -0.16643 -0.48555 0.046228 -0.17689 -0.25408 -0.0058792 -0.093826 -0.11 0.35875 -0.30983 -0.6381 -0.053442 0.084317 -0.12428 0.098027 -0.09432 -0.079387 -0.05232 0.0099867 -0.22708 -0.33457 -0.22976 -0.21141 -0.066691 0.41312 0.65912 0.41389 -0.66343 -0.045547 -0.46663 -0.046886 0.54057 -0.52677 -0.49936 -0.35394 0.11467 -0.23532 0.60804 0.21889 0.19163 -0.58346 -0.2223 -0.11099 0.48172 0.11067 0.22239 -0.51381 0.36682 0.75467 0.2442 -0.012854 0.13823 0.20173 -0.57958 -0.10149 -0.28641 0.55973 -0.24603 0.68683 -0.23069 0.52887 -0.11708 0.17043 0.28824 -0.55244 0.035377 0.55733 0.15932 -0.31315 0.39405 -0.15566 -0.058843 -0.50251 0.84509 -0.15892 0.36099 -0.32475 -0.58801 0.56677 0.093894 -0.73956 -0.19863 0.2268 -0.19571 -0.32109 
7.2 0.34985 0.58147 0.58104 0.19548 0.11531 0.22164 -0.30621 0.21629 0.30629 0.72875 -0.40989 -0.016183 -0.022685 0.68171 0.13201 -0.73904 -0.21926 -0.22949 -0.099917 0.43613 0.68177 -0.18067 -0.49824 -0.12173 0.66513 0.096825 -0.22295 -0.019366 -0.2831 -0.28272 -0.14917 -0.61653 0.11037 -0.4811 -0.43124 0.6429 0.034607 -0.23807 0.11811 -0.26881 -0.1142 0.11592 0.057582 -0.5457 0.10463 -0.15761 0.71747 -0.18395 -0.80067 0.3794 -0.11987 -0.059207 0.003074 0.062796 -0.46367 -0.031727 0.17903 0.24129 -0.2799 -0.65396 0.28674 -0.48774 0.94943 0.58282 0.32469 -0.027205 0.12595 0.15556 0.2631 0.19316 -0.16294 0.34281 0.2529 0.66258 0.259 -0.19917 -0.1293 0.45854 0.24671 -0.19911 0.2033 -0.12528 -0.43811 0.10287 -0.83496 0.36452 -0.54143 -0.20563 -0.28745 -0.16198 -0.044169 0.55584 0.15638 -0.36373 -0.3452 -0.5319 -0.29887 -0.48683 0.029376 -0.68652 0.3304 -0.13273 0.039286 -0.41494 -0.53695 0.24831 -0.84297 0.14776 0.14981 -0.26543 -0.40352 0.23183 0.25208 -0.3063 0.57248 0.057745 0.38604 -0.60769 0.2165 0.095285 -0.15448 -0.013686 -0.2731 0.12627 -0.76205 -0.22579 -0.13341 -0.44641 -0.46044 -0.19277 -0.40117 0.072934 0.045099 -0.4645 -0.030095 -0.80967 -0.066963 -0.56189 -0.19 0.51885 0.89954 0.80649 -0.25936 0.028157 -0.24979 -0.14474 0.79299 -0.32269 -0.2537 0.59405 0.48671 0.42239 0.41887 -0.029167 -0.16428 -0.44152 -0.69766 -0.33792 -0.52325 0.49933 0.29699 0.096301 0.27486 1.0314 0.30734 -0.13064 0.11283 -0.18648 -0.66828 -0.25022 -0.60582 -0.04008 -0.14226 0.53913 -0.75261 0.85602 0.059188 -0.087052 0.31583 0.16127 -0.16245 0.64038 0.21989 0.13273 0.4742 -0.34158 -0.14722 -0.71325 0.44865 0.60286 -0.028746 -0.57181 0.22895 0.20165 -0.30689 -0.66542 -0.073574 0.60974 0.053916 -0.81205 
71 0.55849 0.24068 0.66987 -0.064638 -0.095793 0.059274 -0.097096 0.033666 0.55201 1.0905 -0.524 0.76362 -0.23625 0.13441 -0.37501 -0.74135 -0.29032 -0.26784 -0.26479 0.30709 0.55549 -0.52963 -0.18675 -0.1137 0.26491 0.0020691 -0.066676 0.18523 0.089602 0.10971 0.021544 -0.33268 0.17153 -0.29815 -0.034438 0.39302 0.4285 -0.31595 0.1952 -0.131 0.11188 -0.12301 -0.33541 0.10154 0.036073 -0.10707 0.53188 0.10743 -0.17176 0.33982 0.039913 0.17176 -0.22959 -0.29563 -0.69538 0.33392 0.22516 0.31305 -0.15651 0.011498 0.23373 0.027679 0.26598 0.031725 0.51876 0.14752 0.096362 -0.28688 0.35139 0.36141 -0.19384 0.062095 -0.012818 0.12791 0.021428 -0.15508 0.12206 -0.18666 0.12762 -0.30562 0.22859 -0.086987 -0.055646 0.10208 -0.20932 -0.023249 -0.19234 0.30263 0.25671 -0.36334 -0.40008 0.39673 0.124 -0.079491 -0.15082 -0.52833 -0.47925 0.27113 0.37646 -0.33959 0.028843 -0.128 0.27259 -0.089433 -0.14474 -0.21929 -0.47551 0.088173 0.31009 -0.42043 -0.3219 0.42343 0.040692 0.24689 -0.44479 -0.1227 -0.13966 -0.5528 -0.10432 0.37864 -0.097833 -0.13879 -0.31996 0.18036 -0.20733 0.14149 -0.34641 0.00023907 -0.18398 -0.0336 0.12912 -0.40166 0.14576 -0.51496 -0.67863 -0.47724 -0.33038 -0.26511 -0.18175 0.2852 0.26262 0.59254 -0.43053 0.075259 -0.048788 0.012284 0.79992 -0.65606 0.16738 0.51136 -0.20322 0.26173 0.43727 0.19274 -0.11319 -0.3279 -0.16316 -0.75002 -0.19596 -0.1964 0.79493 -0.33787 0.023832 0.55069 0.10467 -0.43075 0.041756 -0.031514 -0.27133 -0.47116 -0.15332 0.06494 -0.4229 0.62269 -0.34661 0.18531 0.2867 -0.28496 0.44298 -0.073936 -0.10111 0.56518 0.097403 0.2207 -0.052876 -0.22268 -0.6248 -0.60484 0.29531 -0.65917 -0.17293 -0.33063 -0.73565 0.10623 -0.21 -0.68078 -0.21635 0.56916 -0.62945 -0.92564 
72985 0.90768 -0.35768 0.35583 0.6181 -0.58063 -0.48036 -0.11792 0.24635 0.71175 0.20972 -0.31351 0.50989 -0.28514 -0.23848 -0.68438 0.20885 -0.41276 -0.70674 0.65834 0.49035 -0.10909 -0.33618 -0.32462 -0.00086607 -0.085596 -0.29863 0.11346 -0.31388 -0.15439 0.06556 -0.20852 -0.0019287 -0.0011385 0.31462 0.24345 0.025557 0.24333 -0.050121 0.5614 0.26786 -0.14625 -0.6726 -0.2786 0.21261 -0.043615 0.7716 -0.24652 0.087899 0.24351 0.20557 -0.32678 -0.24513 -0.019835 -0.47062 -0.22252 -0.0094232 0.083145 0.3289 0.045767 0.23439 -0.10487 -0.56971 0.036417 -0.10596 0.48105 0.43939 0.56838 -1.156 -0.33036 -0.38382 0.36919 0.14436 -0.056415 0.10799 -0.37968 -0.54436 0.1528 0.92607 0.023473 -0.79288 -0.58448 0.22464 0.073826 0.27309 -0.15674 -0.071926 0.075351 0.46787 0.60853 -0.55663 -0.17219 0.15837 0.23708 -0.39186 -0.80117 -0.3762 -1.1908 -0.051634 0.35928 -0.4342 0.50351 0.39803 -0.26657 -0.11715 -0.28663 -0.077933 -0.4081 -0.32906 0.19906 -0.15007 -0.35789 1.0429 -0.16143 0.75048 0.39288 0.67958 -0.43974 -0.59693 -0.17671 -0.056404 0.50573 0.3167 0.058543 0.23028 0.14301 0.23803 -0.43917 0.31871 -0.34092 -0.084559 -0.1368 0.60894 -0.33615 0.20135 -0.25963 0.16365 -0.48806 -0.21814 0.042331 0.39502 0.14054 0.62 0.486 0.69715 0.79318 -0.036947 0.96146 0.013913 0.56044 0.41775 -0.11039 0.63054 0.29049 0.072847 -0.080216 -0.30401 -0.41123 0.046127 -0.77357 -0.076271 0.18327 -0.04609 0.073664 -0.25411 0.63418 -0.43325 -0.093899 0.25181 -0.12387 -0.070527 -0.66637 -0.66429 -0.081842 0.5464 -0.41682 0.50972 0.41479 0.59904 0.25927 -0.26301 -0.185 0.83437 -0.086507 0.3842 0.092265 0.014299 -0.1451 -0.49515 -0.43953 -0.072504 -0.38222 -0.45766 -0.98867 0.24449 0.46107 -0.22596 0.62291 0.099415 -0.0315 -0.21446 
8 -0.10032 -0.12874 0.13271 0.14954 -0.14621 -0.010219 -0.84001 -0.091854 0.54423 0.4902 -0.70105 -0.075037 -0.14635 0.35375 -0.64133 -0.38871 -0.18408 -0.054247 0.17044 0.23419 0.044937 -0.30356 -0.20212 0.24248 0.65061 -0.042862 -0.18473 -0.3186 0.0017182 0.15821 0.1369 -0.13706 0.19774 -0.63694 -0.26806 -0.09286 0.48902 -0.54021 0.40605 -0.26485 -0.47124 0.34932 0.065608 -0.52398 0.2069 -0.020137 0.45459 -0.24757 -0.75021 0.20747 0.1509 0.098133 -0.20275 -0.22864 -0.74479 0.15285 0.10576 -0.014877 -0.38077 -0.56941 0.32397 -0.3055 0.39268 0.45152 0.35175 0.17546 0.097804 -0.22091 0.31884 -0.17052 -0.35934 0.1517 0.0044101 0.25307 0.033218 -0.37289 -0.16577 0.29585 0.28015 0.15291 0.52017 -0.33676 0.1732 0.13035 -0.16612 0.024009 -0.07587 -0.14693 -0.12051 -0.33679 -0.15695 0.4464 0.18687 -0.34758 -0.39331 -0.48538 -0.24387 0.0094651 0.28042 -0.010421 0.33372 -0.17781 -0.14189 -0.22981 -0.3306 0.60982 -0.44444 -0.14976 0.45868 2.7403e-05 0.075299 0.57282 0.14665 0.22014 -0.067702 -0.25624 -0.5774 0.040191 -0.12506 -0.23212 -0.12617 0.027183 -0.20659 0.22374 -0.25927 -0.64444 -0.16163 0.14374 -0.057051 0.042691 -0.29625 -0.1473 -0.040156 0.0018402 -0.13136 -0.37516 -0.14764 -0.07794 -0.034112 0.28439 0.76581 0.5421 -0.90031 -0.083893 -0.48676 -0.11416 0.45802 -0.62714 -0.35691 -0.34231 0.22235 -0.38771 0.68915 0.32981 0.10744 -0.71307 -0.18583 -0.091431 0.56586 0.07054 0.12254 -0.27494 0.45762 0.73396 0.35304 0.068344 0.2161 0.044754 -0.61219 -0.18966 -0.44068 0.64603 -0.22061 0.70209 -0.20719 0.53076 -0.13021 0.099549 0.47271 -0.47337 -0.07948 0.4008 0.022962 -0.20193 0.60584 -0.17622 -0.15845 -0.63621 0.71141 -0.062696 0.277 -0.35416 -0.53629 0.58468 0.050084 -0.90957 -0.28616 0.26547 -0.34769 -0.12674 
80 0.094669 0.17668 -0.11187 0.12342 -0.32952 -0.32992 -0.053479 -0.19995 0.3398 0.98939 -0.99764 0.30596 -0.064377 -0.10523 -0.10038 -0.74186 -0.49445 -0.11131 -0.35857 0.41227 0.42161 -0.39831 -0.66233 -0.24179 0.40087 0.077479 0.090114 0.2006 0.038478 0.54279 0.34539 -0.54755 0.1331 -0.23402 -0.45524 0.1471 0.12472 -0.51154 -0.053484 -0.086208 0.25635 -0.16072 -0.29827 -0.24194 -0.3106 0.1069 0.38599 0.2912 -0.26494 0.52754 0.18853 -0.063412 -0.40197 -0.56672 -0.59638 0.40634 0.17236 0.36998 -0.98709 0.17851 0.39178 0.12803 -0.11891 0.40618 0.83499 -0.15105 0.27924 -0.45698 0.58912 0.064555 -0.28432 0.13051 -0.10072 0.19698 0.63606 0.19866 -0.079001 -0.29251 -0.0061982 -0.2035 0.41319 -0.038119 0.27469 -0.32255 -0.48391 -0.050869 -0.11276 0.25166 -0.37635 -0.31672 -0.0023157 0.67778 0.059773 -0.33988 0.05014 -0.39252 -0.18689 0.23868 0.64161 0.05487 0.6002 0.17469 0.28681 -0.19172 -0.33022 -0.041628 -0.47331 8.139e-05 0.034397 0.010578 -0.063345 0.10084 0.014184 0.16844 -0.55348 0.22742 -0.29934 -0.30914 0.18908 -0.037213 0.032438 -0.092373 -0.37981 0.42694 -0.018381 -0.22094 -0.11572 -0.17843 0.1021 -0.25106 0.059308 -0.19569 0.18957 -0.53245 -0.49128 -0.4636 -0.31371 -0.010627 -0.22773 0.36595 0.58912 1.049 -0.56823 0.20199 -0.39854 -0.48949 1.0233 -0.70054 0.087302 0.086329 0.23681 0.038602 0.51101 -0.12139 0.10079 -0.59116 0.32688 -0.66733 -0.28415 -0.13306 0.36712 0.063906 0.39536 0.95818 0.1634 -0.31477 -0.40811 0.04372 -0.35674 -0.23521 -0.15318 0.22788 -0.62011 0.49134 -0.42572 0.4489 0.051799 -0.50485 0.93828 -0.1737 -0.5262 0.25392 0.12013 -0.26327 0.34365 -0.35783 -0.21783 -0.32145 -0.0635 -0.40942 -0.029035 -0.52617 -0.39881 0.0053196 -0.21284 -0.84035 -0.41836 0.89969 -0.42878 -0.54203 
80s -0.10993 0.16045 0.18711 0.028953 -0.18515 -0.26615 0.39444 -0.067142 0.31555 0.77607 -0.54593 0.67891 0.022931 0.37174 0.81908 -0.48573 -0.27205 -0.94488 -0.27979 0.12951 0.93235 0.23586 -0.45645 -0.20357 0.11958 0.39827 0.57884 -0.74176 0.016659 0.65723 0.053394 -0.61104 0.1404 -0.076589 -0.93727 0.73743 0.22106 -0.73342 -0.071532 0.018983 -0.23072 0.30302 -0.25095 -0.04139 0.38337 -0.23797 0.29051 0.13528 -0.23822 1.1625 -0.21488 -0.84645 -0.71793 0.64367 -0.22146 0.44754 -0.044978 -0.5488 -0.41034 0.047928 0.4368 0.15813 0.49109 0.12798 1.006 0.14467 -0.14129 -0.4901 0.4397 -0.15789 -0.5156 -0.23356 -0.17499 1.1613 0.84689 -0.076655 -0.1926 -1.0957 0.38167 -0.23424 0.20829 0.86652 0.90499 -0.24788 -0.79896 -0.17822 -0.19041 -0.35115 -0.23331 0.10545 0.64878 -0.14036 0.22413 0.20968 -0.63712 -0.085709 0.0232 0.63258 0.061824 -0.47739 0.75455 -0.28855 -0.43356 -0.44 -0.34962 0.12727 0.67052 -0.36789 0.034197 -0.7359 0.007018 0.00069736 -0.55791 -0.11552 -0.033714 0.052926 -0.5113 -0.19739 0.045399 -0.16685 0.3133 -0.16298 -1.0635 0.20522 0.49989 -0.65194 0.7765 -0.67926 0.70666 0.10503 -0.34586 -0.046188 -0.45687 0.060358 -0.22771 0.11828 0.8102 0.22648 -0.91082 -0.20252 0.81856 0.48944 -0.22369 -0.11649 -0.37405 -0.6631 0.54511 -0.37329 0.75957 0.33468 0.24038 0.2118 -0.065595 0.30052 0.22575 0.055621 0.38245 -0.65537 -0.32978 0.47111 0.43467 0.31745 0.44482 0.23429 -0.32596 -1.2982 -1.0958 0.10891 -0.44598 0.37201 0.18854 0.12586 -0.3739 0.47459 0.47974 1.2066 -0.73874 -0.4615 -0.076143 0.14729 -0.5226 -0.80575 -0.22431 -0.17041 0.16779 -0.15293 -0.33777 0.45014 -0.94964 -0.84807 -0.31389 -0.31342 -0.34167 -0.67172 0.3937 -1.0529 -1.3979 0.51473 0.19422 -0.17571 
85 0.43993 0.24288 0.4528 -0.093108 -0.21597 -0.21287 -0.022089 -0.16824 0.57755 1.0171 -0.72451 0.38804 -0.2914 0.018588 -0.11512 -0.67147 -0.4133 -0.3194 -0.19758 0.3049 0.53669 -0.54303 -0.26129 -0.25937 0.2097 -0.030876 0.11272 0.21622 0.058662 0.25703 0.19071 -0.40682 0.22598 -0.31985 -0.20756 0.34725 0.33584 -0.3906 0.19887 -0.13292 0.37627 -0.4008 -0.31071 -0.069414 -0.036716 0.010547 0.43384 0.20013 -0.2206 0.44526 0.017386 0.21295 -0.20586 -0.27128 -0.60845 0.24125 0.22286 0.35994 -0.47045 0.035066 0.23994 -0.010624 0.03072 -0.020351 0.62141 -0.020646 0.1195 -0.34312 0.53139 0.15881 -0.30184 0.1105 -0.13312 0.17786 0.30928 0.087721 0.15485 -0.17805 -0.07936 -0.18944 0.29866 -0.00056828 0.061225 -0.06539 -0.30636 -0.0073883 -0.20719 0.34971 -0.017129 -0.46907 -0.35464 0.35973 0.11202 -0.17289 -0.078149 -0.23606 -0.32361 0.24344 0.5551 -0.17419 0.36026 -0.00061113 0.30975 -0.028201 -0.39743 -0.15416 -0.62337 0.24402 -0.035669 -0.039017 -0.2035 0.21798 0.25983 0.16742 -0.32612 0.094011 -0.172 -0.50078 0.08499 -0.019032 -0.1573 -0.18341 -0.32127 0.27444 -0.11966 0.053005 -0.14641 -0.15868 -0.036697 -0.11269 0.16324 -0.2637 0.024278 -0.44392 -0.57226 -0.47216 -0.45978 0.0098217 -0.20748 0.46013 0.16097 0.93316 -0.53017 0.31181 -0.31455 -0.17451 0.95097 -0.5992 0.17486 0.36807 -0.20656 0.14762 0.35343 0.11735 -0.0012314 -0.45382 -0.00010153 -0.71837 -0.30122 -0.1067 0.44309 -0.13909 0.24912 0.75685 0.12968 -0.31599 -0.16055 -0.092343 -0.25039 -0.43803 -0.13769 0.021622 -0.50344 0.51656 -0.38067 0.28928 0.40902 -0.52095 0.73987 -0.08311 -0.43126 0.51272 0.13842 0.071701 0.14129 -0.35395 -0.31264 -0.60379 0.010835 -0.61758 -0.15681 -0.39282 -0.62544 0.052363 -0.27646 -0.71303 -0.30142 0.74557 -0.51936 -0.59038 
850 0.3137 -0.17111 0.14958 0.28934 -0.26723 -0.22691 0.53422 -0.31102 0.36014 0.51573 -0.87462 0.3095 0.20337 0.04621 -0.26864 -0.30258 -0.14609 -0.4016 0.020655 0.15671 -0.10847 -0.08684 -0.39519 -0.24821 0.19225 -0.33536 -0.1795 0.48677 -0.34426 0.57778 0.37709 -0.50932 -0.19392 0.22495 -0.34205 0.12639 0.81063 -0.91773 0.14469 -0.063778 0.24359 -0.012814 0.40341 -0.61011 -0.043446 0.8319 0.26336 0.24091 -0.016331 0.42928 -0.41111 -0.10546 -0.25903 -0.40531 -0.57967 0.39838 0.028869 0.33395 -0.54681 -0.2643 0.0099918 -0.65849 -0.40856 -0.13122 0.78948 -0.18418 0.68584 -0.54527 0.50792 -0.098098 -0.20024 0.2633 0.28858 0.44743 -0.17545 0.19207 -0.33304 0.2603 0.30371 -0.5145 -0.1294 0.016607 0.11266 -0.51043 -0.5044 -0.26814 0.2898 0.14381 0.115 -0.40985 -0.43292 -0.010701 -0.11189 -0.5246 -0.38954 -0.52751 -0.72062 0.22177 0.58099 -0.29459 0.25409 0.27781 -0.088019 -0.46316 -0.081612 -0.087248 -0.51641 -0.16171 0.49287 -0.14074 -0.32289 -0.0083663 -0.083404 0.59562 0.42244 0.83263 -0.19185 -0.65709 0.15203 -0.52476 -0.061526 0.099596 0.1378 0.64 -0.10346 -0.13331 -0.24779 0.34407 -0.29237 -0.033021 -0.025347 0.12427 0.0043976 0.030261 -0.18464 -0.2224 -0.31678 -0.38042 -0.15432 0.37957 0.91624 0.6265 -0.30125 -0.13573 -0.62075 0.0062759 1.175 -0.15159 0.12484 0.11971 -0.17901 0.31368 0.38078 0.53565 -0.32838 -0.57325 -0.13068 -0.75279 -0.48047 -0.42359 0.28586 0.069496 0.11198 0.14978 0.65106 -0.068091 0.053398 0.29298 -0.26514 -0.059402 -0.79921 -0.038964 -0.019966 -0.045332 -0.22204 0.70465 0.024571 -0.044873 0.76128 -0.017967 -0.70959 0.57038 0.5907 -0.16696 0.33 0.14301 0.10109 -0.46091 -0.50217 -0.10826 -0.18635 -0.50891 -0.22403 0.59581 0.55157 -0.45025 -0.33466 0.5866 -0.19057 -0.35999 
87496736 0.70234 -0.25716 0.66821 0.61974 -0.044988 -0.5043 0.31359 0.1408 0.48547 0.24002 -0.34602 0.40887 -0.013987 -0.057851 -0.67644 0.26949 -0.15231 -0.37871 0.46306 0.36451 0.13233 -0.087955 0.077467 0.11911 -0.362 0.15895 -0.03925 -0.77351 -0.063324 -0.14543 -0.38827 -0.089698 -0.32852 0.2193 0.042189 0.58077 0.3388 -0.324 0.82013 0.20306 -0.30119 -0.30016 -0.18605 0.33206 -0.033039 0.85158 0.13928 0.25136 -0.0068282 0.49906 -0.49372 -0.57314 0.19754 -0.7643 0.24632 0.0052648 -0.36014 0.27899 0.035481 0.056669 -0.36743 -0.5525 0.14774 0.041543 0.10954 0.68248 0.65761 -0.73575 -0.45537 -0.49905 0.3809 0.27831 -0.11921 -0.14778 -0.37239 -0.37552 0.055319 0.85831 0.38169 -1.1205 -0.56638 0.16673 -0.32957 0.25243 -0.15929 0.0059432 -0.21161 0.35554 0.56377 -0.39877 -0.11905 0.2144 0.39434 -0.45585 -0.47301 -0.04032 -1.1909 0.31031 0.30748 -0.36046 0.54208 0.4625 0.20193 0.028709 -0.21229 -0.35701 -0.82832 -0.078558 0.14361 -0.2482 -0.32224 1.2184 -0.16812 0.54227 0.21481 0.30761 -0.73527 -0.092088 0.025559 0.0073061 0.55071 0.32551 0.20054 0.31928 -0.010387 0.061108 -0.41711 0.044766 -0.24664 -0.085246 -0.42553 0.74913 -0.41724 0.64218 0.13803 0.39636 -0.42262 -0.28696 0.072675 0.070073 0.51126 0.28333 0.58249 0.29146 0.43772 -0.15281 0.62305 0.23969 0.43586 0.35975 -0.28677 0.40181 0.42303 0.44914 0.16764 -0.37347 -0.72309 -0.11432 -0.13528 0.6282 0.13911 0.022969 -0.048138 -0.0080538 0.23835 -0.24656 -0.3794 0.11402 -0.00035948 0.061436 -0.71657 -0.70287 -0.15315 0.70757 -0.35448 0.68001 0.0093164 0.64864 0.43023 -0.21964 -0.22566 0.82761 -0.0089744 0.1446 -0.088778 -0.31272 0.043824 -0.32368 -0.52653 0.080973 -0.0019327 -0.080076 -0.57302 0.28252 0.084015 -0.75497 0.11405 0.17483 -0.2141 -0.16276 
9 -0.021386 -0.22086 0.32378 -0.11392 -0.030431 0.019716 -0.94462 0.011771 0.56803 0.44439 -0.43543 0.16216 -0.18985 0.51782 -0.49394 -0.44 -0.23126 -0.22909 0.070455 0.30422 -0.0033572 -0.47667 -0.12424 0.16573 0.63918 0.020991 -0.16357 -0.29256 -0.066072 0.071454 0.34717 -0.27894 0.15204 -0.7411 -0.19184 -0.0027305 0.57004 -0.40739 0.41274 -0.23109 -0.58654 0.226 -0.0285 -0.32306 0.19851 -0.13581 0.30305 -0.27717 -0.60374 0.1203 0.045465 -0.070094 -0.33296 -0.17982 -0.78351 0.28481 0.1221 0.070187 -0.24753 -0.55933 0.35752 -0.31599 0.30422 0.43138 0.1536 0.32823 0.31278 -0.086649 0.29942 -0.036562 -0.32839 0.16815 0.1047 0.24112 -0.084073 -0.51635 -0.11402 0.19578 0.14545 0.037072 0.61968 -0.22945 -0.024876 0.15785 -0.14413 0.17667 -0.20727 -0.050691 0.03271 -0.31946 -0.26351 0.4903 0.30256 -0.50349 -0.32351 -0.58585 -0.14001 -0.032948 0.23546 -0.096216 0.30175 -0.27456 -0.26099 -0.074404 -0.29369 0.48886 -0.45229 0.071409 0.49685 -0.072728 -0.13201 0.5627 0.15845 0.2214 0.040969 -0.11966 -0.51512 0.0044486 -0.19747 -0.020108 0.024102 -0.022733 -0.17073 0.30988 -0.15024 -0.34593 -0.1705 0.11836 -0.0077864 0.14229 -0.13013 -0.096155 -0.036492 0.11534 -0.22078 -0.31625 -0.22139 -0.084971 0.1054 0.29332 0.67014 0.3179 -0.82857 -0.051882 -0.34991 -0.19198 0.46194 -0.58394 -0.4223 -0.12799 0.13097 -0.30464 0.58105 0.31131 0.1054 -0.54092 -0.29927 0.12805 0.53138 -0.016476 0.20851 -0.43961 0.34086 0.738 0.28125 0.039777 -0.067347 0.089487 -0.48816 -0.31833 -0.39744 0.58888 -0.28943 0.72831 -0.25101 0.60638 0.04139 -0.059813 0.34357 -0.40461 0.19098 0.53835 0.098175 -0.16319 0.54732 -0.1355 -0.2539 -0.67095 0.81197 -0.096732 0.21376 -0.36184 -0.75172 0.59978 0.0043865 -0.72526 -0.20985 0.17733 -0.3159 -0.31804 
90 0.024972 0.29993 0.00069052 0.082423 -0.38068 -0.26078 -0.13993 0.050242 0.43955 1.0557 -0.98377 0.2941 -0.16397 -0.20035 -0.071529 -0.73838 -0.22175 -0.077344 -0.1698 0.60817 0.3853 -0.49996 -0.64384 -0.55723 0.30212 -0.03029 0.15751 -0.084573 0.38907 0.31092 0.22175 -0.68368 0.18599 -0.33879 -0.69015 0.27931 0.11742 -0.43374 -0.0015261 -0.20172 0.25495 -0.47017 -0.43875 -0.12892 -0.11841 0.099918 0.3475 0.44165 -0.3434 0.58105 -0.049603 0.10323 -0.52687 -0.27863 -0.58195 -0.023002 0.053049 0.25915 -0.77275 0.084129 0.18048 -0.046297 -0.14075 0.19175 0.92998 -0.31549 0.16676 -0.46274 0.67865 0.0030573 -0.24731 0.029705 -0.36122 0.28734 0.64329 0.29594 0.17028 -0.41269 -0.18126 -0.2784 0.47551 -0.14456 0.207 -0.17313 -0.45012 -0.068795 0.026947 0.15534 -0.50234 -0.20119 0.28926 0.45404 0.199 -0.39047 0.15587 -0.2326 0.0020639 0.41303 0.65861 -0.019273 0.46714 0.11735 0.32808 -0.29151 -0.4528 0.13152 -0.6764 0.29549 -0.22381 -0.033045 -0.091144 0.064011 0.11695 0.087665 -0.77325 0.21652 -0.40243 -0.23144 0.1807 -0.24847 0.12656 0.1166 -0.43087 0.49525 0.086753 -0.17179 -0.096919 -0.12535 0.065937 -0.30728 -0.11118 0.025734 0.091139 -0.65363 -0.23948 -0.33324 -0.25081 -0.24762 -0.21507 0.39717 0.29701 0.94696 -0.558 0.22971 -0.74021 -0.46932 0.97039 -0.76559 0.026831 0.05568 -0.10498 -0.11603 0.63695 -0.15265 0.12209 -0.5582 0.36003 -0.65334 -0.1457 -0.016533 0.15692 -0.14385 0.32441 0.85051 0.23234 -0.18061 -0.22472 -0.11376 -0.4136 -0.3056 0.027098 0.12994 -0.77072 0.49324 -0.36696 0.59288 0.051745 -0.58951 0.82728 -0.29543 -0.45636 0.13255 -0.035097 -0.18573 0.35711 -0.27299 -0.18424 -0.2917 -0.17163 -0.53308 0.005008 -0.83179 -0.47725 0.085984 -0.24648 -0.8753 -0.37479 0.72076 -0.27818 -0.50049 
95 0.030081 0.24697 0.0034549 1.2438 0.1061 -0.26148 -1.0994 -0.51352 0.68295 0.53666 -0.69399 0.99024 0.84366 -0.21365 0.4151 -0.13232 0.18096 0.2213 0.65189 0.80434 -0.13092 -0.34578 -0.70511 -0.53436 0.046125 0.28912 0.41334 -0.46909 -0.2045 -0.13209 0.39392 -0.86482 -0.38404 0.28381 -0.91028 0.9049 -0.21227 -1.0916 -0.68337 0.5668 -1.0088 -0.39145 0.095848 0.33149 -0.012105 0.50642 0.12411 0.51594 -0.29109 0.72989 -0.22242 -0.86576 -0.42742 0.14776 -0.75465 -0.67385 -0.29845 0.94981 -0.29739 -0.26955 0.27522 -0.70776 0.060332 -0.029146 0.71692 0.084443 -0.61119 -1.0758 0.38776 0.45353 0.21346 0.32159 0.080395 -0.47182 0.54406 0.39698 0.17891 0.28333 -0.057728 -0.050137 0.35027 -0.47974 -0.052733 0.054592 -0.63627 0.80447 -0.34707 -0.48954 -1.531 0.48856 1.2847 -0.04006 0.7038 -0.29624 0.30247 -0.58564 -0.38415 0.12203 0.89605 -0.19759 0.62554 0.38743 0.13057 -0.78111 -0.56023 -0.21897 -0.17629 0.68787 -0.27634 -0.79858 -0.39575 -0.16528 0.74422 -0.18316 -0.50818 -0.10859 0.066351 -0.12318 -1.0791 -0.48196 -0.11819 -0.060766 0.42383 0.11344 0.03006 -0.59199 -0.30845 -0.63948 0.38084 -0.30965 -0.96236 0.66392 0.27744 -0.421 -0.2567 -0.33713 -0.52658 -0.72159 -0.16302 0.47358 -0.059033 0.10525 -0.34117 -0.0098189 -0.22526 -0.42249 0.40559 -0.55918 -0.68715 0.33978 -0.53335 -0.079856 1.457 -0.13771 0.36471 -0.87206 -0.39301 0.024785 0.057535 0.38715 0.011814 0.14396 0.42585 0.51133 0.15729 -0.020258 0.08437 -0.35327 -0.67 0.34118 -0.52874 0.076236 -0.4084 1.0109 -0.28347 0.41914 0.62349 -0.27434 0.16036 -0.23816 -0.26247 0.41462 -0.80509 0.74449 0.32231 -0.80445 -0.50633 -0.40642 -0.64234 0.16095 -0.26785 -1.0573 -0.24497 -0.51583 -0.63391 -1.2598 -0.2842 0.24742 -0.27854 0.030187 
a 0.057608 0.29376 -0.085102 -0.13543 -0.55071 0.013936 -0.14024 0.1237 0.051783 -0.043817 -0.77561 0.24043 0.13894 0.015356 -0.28533 -0.48239 -0.25849 -0.23785 0.40977 0.37246 -0.04356 0.090788 -0.3314 -0.03406 0.34036 -0.056896 -0.11215 0.071578 0.20012 0.13154 0.29362 0.0059348 -0.10123 0.11844 -0.65875 -0.044125 0.53234 -0.2672 0.017545 -0.040663 -0.065988 0.37936 -0.21107 0.13612 0.32917 0.03161 -0.049405 0.41873 0.12884 -0.74054 -0.074825 -0.15442 -0.66982 0.043752 -0.45414 -0.16429 -0.16101 -0.18959 -0.69726 0.01268 -0.084172 0.28257 -0.034126 0.29497 0.14043 0.071638 0.062325 0.055594 0.51839 0.48702 -0.35118 0.0044737 0.19644 -0.25951 -0.18438 -0.40589 0.19005 0.0675 -0.061591 0.20338 0.30356 -0.11909 -0.037451 0.006688 -0.069748 -0.096265 0.13528 0.36875 -0.43993 -0.16961 0.13979 0.35901 -0.11489 -0.015623 -0.19027 -0.47162 -0.22214 0.10313 0.2197 0.18155 0.29194 0.39845 -0.23786 -0.095782 -0.42256 0.15645 -0.36321 -0.064152 0.35957 0.1198 0.14431 0.13127 0.09381 0.024612 0.41721 -0.089113 -0.4371 -0.16053 -0.14598 -0.35249 -0.19504 -0.062858 -0.087374 0.18307 0.042294 -0.54488 0.32098 -0.34801 -0.26835 -0.15099 0.15285 -0.47702 0.17294 -0.26426 0.22367 -0.39783 0.013498 0.21635 0.38123 0.27628 0.11591 0.70931 0.050916 0.030687 -0.094078 -0.28325 0.65692 0.0037982 -0.15427 -0.051228 -0.15181 -0.0058477 0.10206 -0.23256 0.17294 0.11707 -0.062102 -0.05342 0.14985 -0.071323 -0.080923 -0.42043 0.61399 0.48564 0.16558 -0.53152 0.43485 0.036858 -0.026056 -0.15921 -0.35806 0.0057719 -0.3014 0.39108 0.218 0.25197 -0.41613 0.24108 -0.062792 -0.58416 0.09237 -0.026052 0.36045 -0.16812 0.2842 -0.17892 0.025119 -0.38286 0.050898 -0.14801 0.23841 -0.27746 0.13303 0.37273 -0.43949 -0.092694 -0.021799 0.18379 0.074447 -0.50965 
abdomen -0.17678 0.56093 -0.61827 0.28809 -0.11855 0.56305 -0.0059869 0.36888 0.71715 0.52339 -0.38697 0.35673 -0.087125 0.74026 -0.44158 -0.093874 0.46318 -0.33155 0.21737 0.10468 0.090597 0.53887 0.30473 0.20742 -0.13524 0.71429 0.18204 -0.50597 0.53787 -0.088587 0.12244 0.14217 -0.29679 -0.37667 -0.095298 0.005661 0.010741 -0.87993 0.20508 0.64793 -0.094646 -0.28187 -0.45413 0.38358 -0.10153 1.3592 -0.13345 -0.030069 -0.82116 0.60075 0.16334 -0.41939 -0.57522 -0.53529 -0.50997 0.44284 -0.54361 -0.4216 0.32785 0.66912 1.0973 -0.59667 0.52131 0.29455 0.31386 -0.061562 -0.72867 0.26572 -0.28036 -1.034 -0.28705 0.41578 0.76642 0.89206 -0.44041 0.19848 -0.10002 0.39755 0.44881 0.68366 -0.26484 -0.32333 0.19231 -0.85417 -0.67132 -0.38967 -0.67102 -0.63003 -0.80588 -0.20267 0.59347 -0.49016 0.067873 0.13154 -0.94319 -0.017938 -0.044306 0.55 -0.01687 -0.12358 -0.10428 0.46872 0.3309 0.29603 -0.74217 -0.03001 -0.70964 0.5892 0.68027 0.056054 0.61634 0.30484 -0.038435 0.51718 -0.099628 0.27292 0.74837 -0.52452 -1.2325 -0.22288 -0.026783 -0.15969 0.24045 0.34868 -0.3081 -0.14537 0.25393 -0.5711 -0.068686 -0.74757 -0.37884 -0.47101 -0.20816 0.081798 -0.23942 -0.045704 0.29976 0.30448 0.85415 -0.91588 0.47759 -0.16238 0.59715 0.027993 -0.57248 -0.58418 0.41546 -0.40136 0.71485 0.59313 0.30023 0.41097 0.013811 0.59413 -0.28763 -0.51705 0.41542 -0.039876 -0.25669 -0.67136 -0.046641 -0.22018 0.63465 0.65626 0.24144 -1.0525 -0.0079642 0.082429 -0.46532 0.41291 -0.25842 0.44701 -0.59979 0.68726 0.064302 0.33125 0.57787 -0.12235 -0.44451 -0.5585 -0.72996 -0.34299 0.34877 0.035487 -0.40508 -0.76696 0.71341 -0.49082 -0.15553 0.18032 0.0055573 -0.81912 0.41483 0.69537 -0.352 -0.8881 -1.3922 0.4055 -0.13224 -0.9008 
about 0.13188 -0.18226 -0.15003 0.17057 0.018386 -0.041772 -0.70055 -0.087355 0.40425 -0.094697 -1.1791 0.56995 0.04586 0.1121 -0.34432 -0.34707 -0.48467 0.00089324 -0.1479 0.61219 -0.012416 0.066612 -0.49302 -0.70031 0.64226 0.41993 0.55069 -0.25946 -0.18342 0.16734 0.036241 -0.4311 -0.11219 0.15206 -0.59891 -0.19163 0.40746 -0.12846 0.30365 0.20378 -0.30662 0.22288 -0.17911 -0.031739 0.28924 0.19068 0.59041 0.67484 -0.38075 -0.49675 0.30992 0.10078 -0.3233 -0.24429 0.17833 0.061288 0.3554 -0.13871 -0.55335 -0.52774 -0.15365 -0.018678 -0.17888 -0.19702 0.55108 0.00018345 0.070587 -0.27478 0.33026 0.12296 -0.64062 0.43674 0.70936 0.13236 -0.15083 -0.069907 -0.15176 0.21763 0.18051 0.36169 -0.10774 0.10762 0.37315 -0.069989 -0.33239 -0.19809 -0.31499 0.23041 0.0002834 -0.013246 0.17432 0.18219 -0.46642 -0.35474 -0.33874 -0.2496 0.37233 -0.47904 0.3232 -0.1478 0.0092384 0.44485 0.15692 -0.23068 0.067108 -0.26425 -0.45591 0.63875 0.033886 0.16146 0.28959 0.094288 -0.053187 -0.48265 -0.17399 0.18186 -0.10282 -0.26385 -0.51734 -0.98143 0.25057 -0.14124 -0.25873 0.36112 -0.19926 -0.33368 0.028953 0.19111 0.0062416 -0.064148 -0.34524 -0.52237 0.28519 -0.48967 0.060447 -0.66969 0.055051 -0.14417 -0.37465 0.28049 0.10418 0.36493 -0.45242 -0.087428 -0.29936 -0.11195 0.59751 0.1597 -0.11692 0.52912 0.071116 -0.034107 0.24229 0.042757 0.42167 0.17299 -0.059389 -0.072773 0.27674 -0.14996 -0.14906 0.036838 0.32122 0.58062 0.44426 -0.64096 -0.1153 0.48817 -0.60457 -0.0062974 -0.09684 0.25871 -0.41646 0.58132 -0.17119 0.15736 0.12142 -0.035755 0.2398 -0.15036 0.28491 0.19313 -0.14151 -0.56038 0.17918 0.078587 -0.27938 -0.37561 -0.18948 -0.36366 0.2941 -0.043317 0.41765 0.048832 0.39463 0.040555 0.31254 0.05149 -0.1667 -0.41875 
active 0.1344 -0.70263 0.30714 -0.015383 -0.21113 0.20082 -0.45649 0.43845 0.32787 -0.29859 -0.9742 -0.081756 0.57933 0.41362 0.39716 0.10684 -0.48996 -0.44881 0.63222 0.68781 -0.020025 0.32466 -0.67498 0.27889 0.66272 0.31138 0.24225 -0.064559 1.0183 0.38219 -0.27981 -0.14416 -0.094386 -0.050244 -0.011551 0.10853 0.19842 -0.24532 0.0096697 0.48639 -0.30688 0.4399 -0.5638 0.066808 -0.15546 0.32142 -0.0046101 -0.20223 -0.14762 0.18136 0.15418 -0.41874 -0.91504 0.033483 -0.53882 -0.23128 -0.38147 0.15499 -0.33309 -0.28111 -0.32229 0.049126 0.19633 -0.033539 0.42693 0.16517 0.40648 -0.13989 0.50202 -0.059881 -0.38243 -0.22073 -0.32931 0.19302 -0.49915 -0.25711 -0.10033 0.030282 -0.32633 0.60307 -0.12683 0.25717 0.15667 -0.29944 -0.52107 -0.18857 -0.14453 0.019109 -0.23072 -0.4284 0.2061 0.034913 -0.44775 -0.013895 0.36925 -0.43765 -0.039651 0.28452 -0.52452 -0.055074 0.69399 0.42866 -0.011431 0.19808 -0.33994 0.43085 -0.18384 -0.17515 0.18363 -0.11291 -0.24368 0.56996 0.1419 -0.042464 -0.14608 0.1074 0.17408 -0.39016 0.0073012 -0.56068 0.035994 -0.10457 -0.1594 -0.062922 -0.13121 -0.39937 0.040963 -0.26664 -0.39376 -0.52243 -0.19256 -0.38411 -0.28585 0.0631 -0.053503 -0.47706 0.10583 0.3363 0.3565 -0.37143 0.1009 -0.0023145 -0.086533 0.41028 -1.2598 -0.52094 0.48446 -0.27131 -0.31542 0.57074 0.22128 -0.068124 0.56945 0.13269 -0.0082078 -0.54799 -0.33976 -0.16839 0.14602 -0.46978 -0.29609 -0.43627 0.74301 0.80986 0.071562 -0.026133 -0.025155 0.1327 -0.44413 0.14689 0.07805 0.17801 -0.88444 1.0256 0.065707 -0.010296 -0.22195 -0.054126 -0.10825 -0.18726 -0.18561 -0.53035 0.33308 -0.69083 0.46821 0.12771 -0.19212 0.1773 -0.41849 -0.23523 -0.028296 0.04649 -0.19069 0.43065 -0.71682 0.18896 0.15318 0.34788 -0.080938 -0.5641 
acute 0.055679 0.41765 -0.43411 0.32095 -0.081468 0.45024 -0.02661 0.48325 0.73891 0.30971 -0.47267 0.7439 0.42499 -0.040172 -0.54775 0.005941 -0.58733 0.15758 -0.11444 0.52324 -0.043102 -0.59314 -0.65606 0.084329 -0.090163 0.34127 0.14906 -0.2305 0.17458 0.20759 0.39622 -0.0084401 -0.35852 -0.29195 -0.058407 -0.21226 0.65125 -0.20744 -0.13682 0.34463 -0.31817 -0.39381 0.15397 -0.14629 -0.03106 0.079306 0.47814 0.29903 -0.46055 0.045533 -0.2293 0.052806 -0.54438 0.00061803 -1.1835 -0.13251 0.14276 0.10459 -0.77014 0.34058 -0.41125 0.39375 0.62468 0.38635 0.3093 -0.26317 0.26657 -0.3752 1.0416 -0.40275 -0.9641 -0.14519 -0.65104 0.59737 -0.16019 -0.10145 -0.11626 0.43341 -0.46971 0.25898 0.12816 -0.35194 0.065663 0.53949 -0.54583 0.39855 -0.20638 -0.58218 -0.19437 0.1376 0.22006 -0.071708 -0.052083 0.24028 0.027439 -0.066293 -0.52881 -0.43662 -0.08363 -0.47588 0.22647 -0.10341 0.23268 -0.24933 -0.79978 -0.22432 -0.56471 -0.54769 0.35398 -0.2084 0.10271 0.28677 -0.48841 0.16769 0.27847 0.11429 -0.18271 -0.51448 -0.71757 -0.26301 -0.047022 -0.041728 -0.050916 0.75398 0.29071 -0.13697 -0.047427 0.36561 -0.48384 -0.13755 0.11078 -0.065706 0.18788 -0.2962 -0.08392 -0.55893 0.27927 0.003253 0.44048 -0.13169 -0.061891 0.49799 0.19058 0.54625 -0.18832 -0.1778 0.097828 -0.3618 0.14734 -0.15843 0.62285 -0.34143 0.48793 -0.45911 -0.24784 0.15886 0.080791 -0.33593 0.40186 -0.63665 -0.43826 -0.49432 0.2302 -0.25582 -0.20668 -0.32346 0.34134 0.51352 -0.98906 0.28327 0.1879 -0.12932 -0.28776 0.55457 -0.06217 0.090299 -0.024905 0.16201 -0.28946 -0.072631 0.09486 0.067121 0.37619 0.31972 -0.070236 -0.35726 -0.19626 -0.063938 0.33008 -0.38382 0.13979 -0.1422 -0.06708 -0.0046462 -0.16183 -0.18492 -0.5279 0.10382 -0.56956 -0.31411 
advised -0.32507 -0.10814 0.099123 0.17728 -0.47914 -0.048686 0.24713 0.48066 0.66967 0.24092 -1.2327 -0.1638 -0.51873 -0.3289 -0.71705 -0.75326 -0.82945 -0.12752 0.31548 0.35688 -0.56265 0.64357 0.37468 0.06913 0.38379 0.0908 0.17443 0.066149 -0.0069896 0.37513 0.21047 0.13739 -0.25782 -0.026085 -0.44956 -0.11918 -0.049628 0.012884 -0.4132 0.39017 -0.35706 0.44584 -0.28229 -0.004786 0.17081 -0.10021 0.046034 0.24859 -0.77124 -0.15706 0.026947 -0.0201 -0.51219 -0.11453 -0.98616 0.54158 -0.26205 0.0073809 -0.2958 -0.21804 0.31126 0.31959 0.15043 -0.016363 0.18097 0.56754 0.22713 -0.024093 -0.29486 0.04805 -0.28531 0.072835 0.80638 0.44021 -0.37997 -0.23167 -0.37314 -0.04502 0.29238 0.65519 -0.045875 0.31295 0.43814 -0.30553 -0.29363 -0.26916 0.20076 -0.33449 -0.59604 -0.6638 0.88575 0.095299 0.08663 -0.76747 0.21366 -0.65337 -0.085221 -0.26467 -0.051151 0.10051 0.83493 0.52221 -0.43267 -0.33427 -0.11136 0.08942 -0.66757 0.027439 0.16201 0.050582 -0.13423 0.14577 -0.68975 -0.31431 -0.49432 0.15915 -0.0034657 -0.070956 -0.77179 -0.50857 0.093024 -0.47753 -0.23038 0.59312 0.16964 -0.18748 0.34332 -0.41438 0.096047 -0.50298 0.1857 0.0009814 0.24187 -0.67544 0.017428 -0.14102 0.10198 0.21252 -0.42469 0.16819 -0.057646 0.026568 -0.36151 0.72709 -0.29725 -0.48108 0.41962 -0.76923 -0.13869 0.40622 0.24041 0.25687 0.67541 -0.20464 0.020777 0.19848 -0.07822 -0.39528 0.3702 0.39474 -0.23232 -0.38107 0.1309 0.91099 0.23289 -0.71331 0.4121 -0.26059 -0.95371 -0.38982 -0.010605 0.18181 -0.18401 -0.055587 -0.087413 0.085615 0.3898 0.030505 0.083021 -0.23139 -0.23422 0.1035 -0.0042743 0.20298 0.0070033 -0.17299 -0.4221 -0.44347 -0.029912 0.062828 -0.083772 -0.49204 0.42809 0.022871 0.058803 -0.31653 -0.35901 0.22167 -0.14122 -0.43319 
afebrile 0.27716 0.44641 -0.26877 0.18412 -0.41425 0.42842 0.54139 0.20244 0.84193 0.85684 -0.51917 0.25548 0.36454 0.87278 0.4073 -0.31123 -0.39579 -0.66646 0.14101 0.50558 0.60974 -0.44886 -0.62111 0.32559 -0.060304 0.065685 0.21046 -0.98097 0.56417 -0.69519 -0.35364 -0.047326 -0.4032 -0.69556 -0.70126 0.46784 0.56482 -0.79288 -0.082785 0.1401 0.053871 0.19072 0.35611 -0.52986 -0.40219 0.069181 -0.32593 0.21918 -1.251 1.2022 -0.67334 -0.50605 -0.97193 0.073332 -1.3065 -0.03286 0.33973 -0.21388 -0.37847 0.715 0.98732 -0.52773 1.6871 0.29493 0.20565 0.52501 -0.67425 0.11508 0.0064477 0.20005 -0.0012064 -0.13759 0.05667 1.4548 -0.097431 -0.032268 -0.74839 -0.92081 0.39797 0.046643 0.17115 0.041665 0.98259 -0.11405 -0.13159 0.53024 -0.51523 -0.77965 0.11033 0.24199 0.91155 -0.069656 0.043774 -0.18309 -0.36005 0.054708 -0.26179 0.48934 0.34408 -0.059883 0.82763 -0.43863 -0.22692 0.51057 -0.67762 -0.37792 -0.41716 -0.0068787 0.68007 0.015948 0.094601 0.4593 -0.97797 -0.46223 -0.7405 0.53419 -0.073056 0.26725 -0.046124 -0.83076 0.47545 0.90701 0.38368 0.47041 -0.226 -0.80896 0.75424 -0.94979 0.13349 -0.75203 -0.18911 0.51331 -0.51155 -0.32581 0.26058 -0.34914 0.53848 0.32562 0.051274 -0.011433 0.41607 -0.14994 -0.21296 -0.29509 0.51702 -0.21345 0.41357 -0.38814 -0.23608 0.39684 -0.32019 0.83034 0.35048 -0.01212 -0.1918 -0.33787 -0.46243 0.3045 -0.41677 0.43657 0.40137 -0.078465 0.68153 0.5832 -0.011009 -0.91442 -0.82567 0.84765 -0.93743 0.23614 -0.64578 -0.045173 -0.66415 -0.17934 0.35067 0.84559 -0.37579 0.092533 -0.038303 0.16331 -0.030384 -0.046231 -0.20678 -0.22033 0.34415 -0.83865 -0.039047 -0.25698 -0.25548 -0.71615 0.23685 -1.1349 0.64453 -0.15216 -0.53058 -0.39222 -0.66905 0.79331 -0.39547 -0.82735 
after 0.15074 -0.19381 -0.55953 0.15166 -0.22727 -0.095248 -0.63429 0.24058 0.50853 0.33516 -0.60124 -0.16964 0.28147 0.39612 -0.21733 -0.85668 -0.59729 0.14566 -0.22305 0.48771 -0.099115 0.050552 -0.42901 -0.4081 0.44014 0.092687 0.0099561 -0.48832 0.0077759 -0.42631 0.081552 -0.10102 -0.49047 -0.33038 -0.57461 -0.42024 0.059239 -0.21034 -0.098571 0.34596 -0.1797 0.087363 0.21081 -0.027984 0.075728 -0.18685 0.013866 0.29167 -0.50062 0.30378 -0.018012 -0.18057 -0.46647 0.2942 -0.70332 -0.31844 0.11237 0.14881 -0.49359 -0.38937 -0.53007 0.47491 -0.21787 -0.07019 0.59877 -0.17221 -0.29617 -0.15291 0.22305 0.11746 -0.59528 0.23264 -0.031821 0.48059 0.023296 -0.2305 0.34962 -0.042478 0.074391 -0.10022 0.15196 -0.16697 0.21865 -0.094265 -0.048053 0.20752 0.1565 0.0064598 -0.33389 -0.26875 0.2732 -0.086972 -0.16688 -0.23842 -0.026002 -0.20927 -0.253 -0.20692 -0.11768 -0.3036 0.32583 -0.14747 -0.19082 -0.40361 -0.23392 0.31384 -0.68764 0.32767 0.13943 -0.35607 0.33626 -0.26192 0.036917 0.2816 -0.22668 0.1796 -0.35479 -0.18299 -0.24461 -0.52912 0.034395 -0.29709 -0.088979 0.22636 -0.43183 -0.2183 0.39133 -0.13867 0.02372 0.071441 0.020308 -0.68837 -0.018096 -0.47798 -0.27442 -0.24749 0.23023 0.041648 -0.42461 0.56159 0.52417 0.30214 -0.13861 0.36869 -0.16075 -0.55963 0.37511 -0.48532 0.17657 -0.19315 0.51376 -0.70806 0.57729 0.15911 0.19763 0.41244 0.22941 -0.38339 0.06579 -0.37883 -0.10294 -0.099248 0.51106 0.35475 0.42129 -0.34282 0.094662 -0.14553 -0.72426 0.04533 0.16288 0.11663 -0.4171 0.38735 0.20861 0.56929 -0.14191 0.23951 -0.064073 -0.46313 -0.08794 0.057891 -0.10791 0.1309 0.18993 -0.33604 0.18682 -0.20779 0.17354 0.12963 -0.078872 -0.22623 -0.087965 0.27628 -0.45434 -0.5628 0.31397 0.16461 -0.050202 -0.71631 
ago 0.71745 -0.40269 0.10347 -0.036304 -0.19156 0.24024 -0.12642 -0.23854 1.2125 0.72685 -0.9448 0.30347 0.15143 0.48223 0.041831 -0.12935 -1.2289 -0.067375 -0.021706 -0.40252 -0.35846 -0.22795 -0.13746 -0.56771 0.3573 0.50539 0.24916 -0.089981 -0.084926 0.27549 -0.25548 -0.16445 -0.178 -0.34756 -0.83395 0.51711 0.67503 -0.091677 0.17498 -0.057981 0.022924 -0.32584 -0.059406 -0.57454 -0.12374 0.062347 0.20254 1.0983 -0.38271 0.35034 -0.15823 -0.79989 -1.2551 -0.13082 0.17235 0.080065 0.13218 -0.015311 -0.001506 0.14418 -0.15741 -0.22903 0.48104 -0.24287 0.23412 0.46572 0.38696 0.45987 0.076827 0.53966 -0.45428 -0.091676 0.58611 0.25561 -0.45838 -0.42993 0.18392 -0.30517 -0.21563 -0.080229 -0.15113 -0.14477 0.021036 -0.054916 0.15586 -0.58236 0.11343 -0.45111 -0.27339 -0.0837 -0.32907 0.32967 -0.14723 -0.66446 -0.58842 -0.28666 -0.63717 -0.64037 0.055715 -0.71405 0.30191 -0.013785 -0.52849 -0.35429 -0.12 -0.23191 -0.40735 0.24069 0.24771 -0.23882 0.15715 0.07995 -0.32123 0.2132 -0.19877 0.48625 -0.15579 0.3427 -0.01061 -0.42544 0.2457 -0.73806 -0.70838 0.57402 0.083717 -0.14487 0.45835 0.2629 -0.10879 -0.103 -0.33969 -0.96863 -0.052623 -0.71361 -0.077664 -0.81257 0.14688 0.069791 -0.18938 0.17212 0.82869 -0.12909 -0.29027 0.1867 -0.57084 -0.19438 0.37786 -0.019417 0.38365 -0.6509 0.21731 -0.10856 -0.014033 0.37079 0.47643 0.50087 -0.35917 -0.31284 0.28677 0.0046352 0.47501 0.14955 0.69399 1.143 -0.36908 -0.89107 -0.39186 0.099397 -0.59533 0.25775 -0.38855 0.41273 0.037674 0.45229 0.69527 0.6639 0.27804 -0.19872 -0.2226 -0.23032 -0.45011 -0.090058 -0.34958 -0.30728 -0.68431 -0.25192 -0.16025 -0.081936 -0.11138 -0.48638 0.37658 0.20482 -0.21523 0.56346 0.45532 -0.45342 -0.3285 0.33175 -0.21253 -0.47651 
air 0.0024736 -0.16166 -0.20777 0.263 -0.47795 0.15169 0.21395 -0.21954 0.26404 0.20738 -1.3125 -0.10777 -0.14342 0.26096 0.22055 -0.53314 -0.24929 -0.55538 0.53177 0.35386 0.31053 0.29483 0.29122 0.20698 0.35614 -0.1181 0.20225 -0.2439 0.28356 0.26696 0.35746 0.29721 -0.1883 -0.66432 -0.66831 -0.061054 0.53424 -0.32517 -0.48699 0.4702 -0.079199 -0.39008 -0.77891 0.062483 0.95731 0.0021741 0.08574 0.67762 -0.82456 0.58914 0.084564 -0.25536 -0.22788 -0.58393 -0.59953 -0.15845 -0.15786 0.49598 0.055941 -0.40457 0.0057227 0.084886 0.58066 -0.18336 0.68396 0.13742 0.041529 0.015306 0.62871 0.069516 -0.27811 0.34155 -0.47098 0.13125 0.41339 -0.17087 -0.25598 0.23713 0.41084 -0.091102 0.21292 -0.34177 0.70423 -0.23175 -0.91118 -0.047025 -0.094416 -0.86261 -0.21018 0.56497 0.28752 -0.53615 -0.29066 -0.26752 -0.3439 0.4975 -0.30162 0.65987 0.3887 0.40779 0.14911 0.44546 0.58318 -0.16937 -0.48116 0.1321 -0.30244 -0.34004 -0.13156 -0.16331 0.42478 0.055286 -0.27526 0.066515 0.34347 0.15072 0.021085 -0.6059 -0.44302 -0.49683 -0.054724 -0.21604 -0.59205 0.46532 -1.283 -0.29491 0.19336 0.17788 0.33053 -0.12843 -0.87351 -0.2828 -0.10408 0.38965 -0.14533 -0.39294 1.3066 0.49417 0.067733 -0.30392 -0.30958 0.57509 -0.056247 0.37045 -0.92944 0.30546 0.74351 -0.4711 -0.36694 0.4631 0.17954 0.17925 0.33359 0.11087 -0.2305 0.26661 0.49088 -0.50909 -0.077435 -0.39046 -0.13715 -0.19687 0.39809 0.4031 0.0062425 -0.42449 -0.7252 0.25854 0.21092 0.32963 -0.3232 0.21695 -0.36616 0.80145 0.12435 0.041487 -0.046273 -0.38654 -0.21621 -0.35461 -0.84537 -0.16201 0.33337 0.037453 0.31255 -0.83107 -0.076015 -0.23997 -0.10694 -0.13003 -0.12951 -0.50016 -0.24976 0.36242 0.078237 -0.35974 -0.6799 -0.1511 -0.042829 -0.12018 
ak 0.74556 0.11948 -0.13256 -0.10955 -0.2719 -0.49716 -0.17426 0.58616 0.34911 0.01701 -0.53574 0.28335 -0.38393 0.5671 0.27554 0.62164 -0.1542 -0.53282 0.59703 0.58607 0.35586 0.69545 0.21254 0.45855 -0.11019 0.089655 -0.041938 -0.10517 1.1391 0.3732 0.16635 -0.23715 -0.65866 -0.51186 0.27056 0.53453 0.25524 0.17826 0.017727 -0.15638 0.15195 -0.57438 0.32431 0.47881 -0.1523 -0.32468 0.45736 0.4759 -0.72117 0.22654 -0.50461 0.27346 -0.67014 -0.20218 -0.082854 -0.43461 0.089358 -0.28298 -0.73041 -0.22446 -0.69072 -0.10605 -0.2598 0.19861 0.46608 0.57497 -0.089372 0.15472 0.58796 0.3822 -0.19467 -0.48934 0.4305 -0.11273 -0.089075 -0.36429 -0.26962 0.38135 -0.24352 0.1986 0.16015 -0.4307 0.18313 0.18949 0.10786 0.33671 -0.27873 0.31481 0.63713 -0.42979 -0.37849 0.19337 0.12059 -0.23579 -0.42643 -0.37333 0.18049 0.55948 -0.21052 0.39847 0.29042 -0.43393 -0.38858 -0.56028 0.21239 -0.027316 -0.74457 -0.19824 -0.56611 -0.48201 -0.23684 0.73088 0.00476 0.75368 0.46127 0.47641 -0.16627 -0.5632 0.04137 -0.050453 -0.029437 -0.043411 -0.9934 0.38625 0.31777 0.16637 -0.071194 -0.51103 -0.70622 -0.18036 0.23454 -0.43867 -0.51815 -0.043215 0.23236 0.4833 -0.68199 -0.089783 -0.15472 0.1728 -0.46105 0.19742 -0.40761 0.5878 0.2327 0.39211 0.64247 0.090998 0.63857 0.017528 0.34313 0.31244 0.83647 -0.35736 -0.39126 -0.31933 -0.32846 -0.73941 -0.38685 0.064493 -0.43746 0.061182 0.44969 0.72317 -0.19829 0.025008 0.01283 0.22528 -0.24446 -0.11872 0.54662 0.15729 0.15141 0.19727 -0.46864 0.7681 0.054342 0.064076 0.13951 0.026764 0.48198 0.29766 -0.40753 -0.097018 -0.55228 -0.055329 -0.19138 -0.31902 -0.21935 -0.58725 -0.0995 -0.4723 0.48941 0.88545 -0.093577 -0.046002 0.44646 -0.19562 -0.30631 -0.012216 
alcohol -0.17919 0.14026 0.58259 -0.16947 -0.52718 -0.66295 0.27679 0.082533 0.57455 -0.62265 -1.5379 -0.068376 -0.27031 0.29876 0.19439 0.023556 -0.093558 0.22198 0.41994 1.1563 0.056227 -0.26984 -0.39114 0.37193 0.30676 0.16761 0.025175 -0.10978 -0.32549 0.64086 0.68018 0.24735 -0.001193 0.22777 0.14578 0.20275 0.41976 -0.30664 -0.11123 0.50399 0.18808 0.0023999 -0.07028 0.14038 0.51458 -0.5352 0.10302 0.15338 -0.34853 -0.0074084 0.027854 -0.19028 -1.491 -0.090198 0.59207 0.33383 -0.15599 -0.035087 -0.81917 -0.11652 -0.19509 0.11811 0.23149 0.34736 0.80717 0.873 -0.052613 -0.26731 0.27387 -0.18358 -0.55292 0.12855 0.25676 0.39341 0.45427 0.27771 0.28061 0.0086304 -0.23622 0.48325 -0.23705 -0.24092 0.44025 0.42204 -1.3188 0.67626 -0.55066 0.048984 -0.13116 0.26603 0.53489 0.14853 -0.50626 -0.37884 -0.3965 -0.95117 -0.40125 -0.46184 0.50569 -0.084466 0.52399 -0.12743 0.41418 -0.23542 -0.14403 0.52145 -0.49181 -0.41685 0.25411 0.16069 0.020889 0.45005 0.3571 -0.10889 0.19729 0.32651 0.59375 -0.42736 -0.4436 -0.21214 0.29382 -1.0647 0.089578 0.23219 0.07906 -0.47015 0.48501 -0.14615 0.14419 -0.068843 0.06007 0.027167 0.09552 0.039719 -0.89501 -0.65222 0.19089 0.070513 -0.13385 0.082427 -0.20578 -0.52147 -0.06167 0.097762 -0.36644 0.20622 0.20445 -0.54308 -0.17847 0.11831 0.25445 -0.16591 0.099002 0.21086 0.086932 -0.19527 0.10356 0.057801 0.63846 -0.20279 -0.091121 0.20287 0.62041 0.59073 -0.19175 -0.62355 -0.056996 -0.014373 -0.088243 -0.12941 -0.87194 -0.56596 0.65677 0.46601 0.34085 -0.2069 0.24317 0.11943 0.39255 0.13288 0.15319 -0.11297 0.37674 0.021287 0.039861 -0.22344 0.3841 -0.34382 0.83434 -0.18072 0.088045 -0.28513 0.14239 0.065672 -0.3366 -0.76124 0.069967 -0.47059 -0.11314 0.050714 
amount -0.056904 -0.59377 0.11099 -0.25989 -0.33997 -0.085054 -0.66818 -0.058067 0.24384 0.036022 -1.1532 -0.12889 0.4542 -0.2564 0.80142 -0.20582 -0.10689 -0.67056 0.065783 0.56961 -0.10573 -0.0026053 -0.062623 0.011832 0.78124 0.45388 0.10688 0.43139 0.082589 0.32587 0.79132 -0.024542 -0.16288 -0.2376 -0.32389 0.23265 0.81571 -0.30053 0.35686 0.017387 0.45254 0.14218 -0.5431 0.55897 0.35236 -0.26666 0.11474 0.24808 -0.28149 0.027348 -0.16122 -0.48697 -0.46552 -0.47549 -0.039043 -0.3412 -0.015237 -0.23475 -0.56782 -0.2672 0.25126 -0.040115 0.57298 0.16808 0.37503 -0.083666 0.25264 -0.12536 0.48895 -0.18349 -0.23397 0.80738 -0.31932 0.071783 0.13519 0.094764 0.17626 0.30374 -0.24728 0.090652 -0.14658 -0.011323 0.55993 -0.19294 -0.78468 -0.38434 -0.54808 -0.35779 -0.34001 -0.4064 0.63991 0.24541 0.00068999 0.46725 -0.12978 0.1657 -0.55801 -0.031714 0.65703 0.22712 0.57457 0.12528 0.4415 -0.01872 -0.42351 0.4215 -0.49593 0.11355 0.38357 0.38992 0.57826 -0.17846 -0.098791 -0.011233 -0.06141 0.13142 0.16898 -0.53037 -0.75826 -0.31729 -0.19295 0.42246 -0.46927 -0.4338 -0.70532 0.011374 0.74503 0.41989 -0.69545 -0.82761 0.01376 -0.37321 -0.25017 -0.73686 -0.12122 -0.30073 0.47977 0.35272 -0.50326 0.38544 0.65307 0.085706 0.12163 0.12042 -0.56231 -0.37311 0.78818 -0.11428 -0.0077358 0.079356 0.33854 -0.47273 -0.038761 -0.22036 -0.14559 0.03416 0.055183 -0.17027 0.29462 -0.15971 -0.039851 -0.083245 -0.010257 0.32564 0.2358 0.16795 0.29871 0.074899 -0.34186 -0.109 -0.32855 0.4128 -0.51209 0.4363 -0.16429 0.2374 0.13676 -0.18961 0.071841 -0.37337 0.27006 -0.027464 -0.4474 0.21215 0.35194 -0.11026 0.030657 -0.194 -0.24084 0.18803 -0.15623 0.20865 0.60875 0.55541 0.12443 -0.0049254 -0.0072264 0.59266 0.19504 -0.64387 
an 0.38146 0.17321 -0.15376 0.000815 -0.37712 0.35387 -0.050014 -0.02139 0.57354 -0.27764 -0.72658 -0.37522 -0.28632 -0.032496 -0.18693 0.065795 -0.41029 -0.40537 0.068635 0.4856 -0.011999 -0.37807 -0.7054 -0.24557 0.75773 0.48375 0.17945 0.39269 0.36158 0.15911 0.15542 0.3039 -0.67384 -0.30281 -0.50984 -0.059043 0.43138 -0.39858 0.052654 -0.076725 -0.24372 0.33797 -0.088442 -0.11448 0.67866 0.00058392 0.094537 0.219 0.049995 -0.31082 -0.16772 -0.17495 0.056215 -0.47212 -0.020575 -0.15191 0.057043 0.083292 -0.46604 -0.24575 0.052313 0.57907 -0.03394 -0.028788 0.38428 -0.45908 -0.14144 0.024029 0.42151 0.49638 -0.48737 -0.036573 0.025616 0.35484 0.0091763 0.050373 0.10813 -0.072588 0.1456 0.37416 0.1405 -0.19721 0.051915 -0.22576 0.099622 -0.28228 -0.16596 0.24763 -0.26381 -0.18425 0.38757 -0.45189 0.12874 -0.33939 -0.047011 -0.57877 -0.25401 -0.16813 0.095451 0.34313 0.36892 -0.23877 -0.74021 -0.086833 -0.2577 0.32004 -0.47577 -0.42552 0.077347 -0.24361 -0.31871 0.32906 0.14438 -0.2073 0.3296 -0.17333 0.13122 0.36348 -0.28339 -0.071051 0.16548 -0.089981 -0.28442 -0.058279 0.083054 -0.37895 -0.23488 -0.16222 -0.64756 -0.3108 -0.10477 -0.43905 0.17124 -0.32582 0.36694 -0.39417 0.026648 0.089877 0.31727 0.30588 0.11223 0.1926 -0.022679 0.069346 -0.0025487 -0.1512 0.65517 -0.30981 0.53065 0.21693 0.0080743 -0.087996 0.34669 -0.481 -0.31535 0.25727 -0.12294 -0.24871 -0.0052911 -0.031947 -0.53102 -0.20138 0.39477 0.12389 -0.21072 -0.35328 0.35327 0.22127 -0.28712 0.08519 -0.32324 0.4196 0.10699 1.2421 0.10222 0.35405 -0.43588 -0.17456 0.4402 -0.23541 -0.14529 0.17801 0.73173 -0.014787 -0.12666 0.13967 -0.16712 -0.51265 -0.085609 -0.16825 0.087462 -0.31719 0.089229 -0.19672 -0.36549 0.21346 -0.0043912 0.046481 0.12802 -0.32772 
and -0.10606 0.12556 -0.15058 -0.098936 -0.1556 0.042008 -0.54708 -0.1013 0.29951 -0.10049 -0.80334 0.15229 0.3352 0.10462 -0.16386 -0.34575 -0.34173 -0.28825 0.28947 0.33148 0.019879 0.14468 -0.51817 -0.044251 0.31752 0.10533 0.18635 -0.1765 0.0496 0.099948 0.15754 -0.28417 0.0062323 -0.1873 -0.40156 -0.24356 0.19205 0.25852 0.13795 0.1685 -0.12255 0.24676 -0.17915 0.35484 0.14127 0.1827 0.21138 0.29269 -0.29653 -0.063505 -0.063971 -0.079782 -0.39179 -0.13254 -0.39115 -0.40326 0.014743 -0.011069 -0.50155 -0.25881 -0.26163 0.12677 -0.25749 0.024993 0.25709 0.11676 0.1486 0.26382 0.20874 0.22648 -0.075979 -0.043217 -0.0627 -0.030722 -0.045 -0.11194 -0.30125 0.24005 -0.10286 0.31735 0.42857 0.21329 0.064415 -0.016223 -0.10179 -0.093909 0.015503 0.013323 -0.29653 -0.24698 0.5127 -0.13858 -0.097386 -0.086119 -0.021148 -0.31762 -0.075027 0.021551 -0.047054 0.086766 0.25446 0.030768 -0.11571 -0.07835 -0.21836 0.38728 -0.26608 0.18423 0.37023 0.0097037 0.1715 0.28823 -0.043921 -0.10037 0.072059 -0.23373 -0.26098 -0.37176 -0.39641 -0.32281 0.42487 -0.1439 -0.00069494 0.052692 -0.15445 -0.41848 0.076473 0.088482 -0.062866 -0.22774 -0.081624 -0.18602 -0.075577 -0.15251 -0.080298 -0.28839 -0.025656 -0.0037739 0.10408 0.3341 0.20004 0.33234 -0.25039 0.38569 -0.048267 -0.21408 0.44141 -0.46479 -0.055277 0.27039 0.30555 0.025963 0.31368 -0.32252 0.19301 -0.094158 -0.085876 -0.3774 0.28016 -0.43563 -0.18827 -0.048472 0.37932 0.41576 0.097523 -0.64885 0.50008 0.40808 -0.17691 -0.0022031 -0.16705 0.090432 -0.20032 0.65525 -0.13634 0.28588 -0.16226 0.018171 0.40319 -0.48118 -0.069694 0.30334 0.010404 -0.3661 0.44631 -0.037782 -0.088825 -0.011746 0.15478 -0.064036 0.0024865 -0.13763 0.22662 0.18211 -0.35906 -0.27593 0.26179 0.094908 -0.01305 -0.045721 
ann 0.73899 0.57832 -0.19683 0.033067 -0.08466 -0.21112 -0.73887 -0.83918 0.046913 0.68879 -0.56546 0.35873 -0.10112 -0.022252 -0.078845 -0.26023 -0.1769 -0.30818 0.1205 -0.25848 0.59271 -0.064789 0.55168 -0.27029 0.44384 0.36999 0.08158 0.047985 -0.022925 0.26811 0.44206 0.1216 -0.78861 -0.90045 -0.47553 0.50305 -0.59545 -0.72163 0.90386 0.62203 -0.64315 -0.61913 -0.33027 0.080024 -0.15215 -0.46812 -0.03034 0.47022 -0.68223 0.42097 -0.2744 -0.51508 -0.90165 -0.81783 -0.24088 1.3362 -0.56055 0.017611 0.19087 -0.0042966 0.13442 0.62102 -0.33005 0.57687 -0.47813 -0.60306 -1.0392 -0.42973 0.26551 0.9083 -0.33746 0.6681 -0.33307 0.22247 -0.51745 -0.69223 -0.26337 0.52232 -1.0482 0.3454 -0.54638 0.083114 0.15191 -0.43206 0.58829 -0.029811 -0.53724 0.046529 0.29534 0.04873 0.11936 0.049878 0.21553 -0.55326 -0.56852 -0.65451 -0.65741 -0.026569 0.2529 0.61245 0.87806 1.0383 0.013005 -0.28318 -0.092737 -0.087909 -0.64708 0.029303 -0.39483 -0.28444 0.1979 0.36599 -0.39903 -0.2499 0.40273 -0.16636 -0.076767 -0.29171 -0.38446 0.062212 0.071086 -0.19743 -0.039303 -0.25266 0.34788 0.33684 -0.46279 -0.31142 -0.0038084 0.1918 -0.28661 0.24417 -0.22117 0.11081 -0.19948 -0.055667 -0.017988 -0.31036 -0.013995 0.45369 -0.0075842 0.10357 0.12547 1.1537 0.61602 -0.32902 0.30313 -0.5077 0.19767 0.3813 0.60633 -0.23669 0.25255 0.69142 -0.72056 0.096674 -0.30425 0.1791 -0.13009 -0.30324 0.22144 0.16129 0.59179 0.015527 -0.02986 -0.24535 0.75988 -0.2926 -0.27901 -0.40519 -0.4984 -0.57693 -0.17035 0.61655 0.41849 0.26293 0.22314 0.55304 0.24999 0.31293 -0.66957 0.18308 -0.50711 -0.59138 -0.52724 0.046148 -0.68456 0.091461 -0.45386 -1.3191 -0.12876 0.33052 -0.15497 -0.082725 0.31651 -0.75531 -0.53053 0.033315 0.37162 -0.28121 
